{"learner":{"attributes":{"scikit_learn":"{\"_estimator_type\": \"classifier\"}"},"feature_names":["Age","Gender","BMI","Smoking","Wheezing","FEV1","PEF","FEV1_Pct","PEF_Pct","SpO2","Pollution"],"feature_types":["int","int","float","int","int","float","int","float","float","int","int"],"gradient_booster":{"model":{"cats":{"enc":[],"feature_segments":[],"sorted_idx":[]},"gbtree_model_param":{"num_parallel_tree":"1","num_trees":"500"},"iteration_indptr":[0,1,2,3,4,5,6,7,8,9,10,11,12,13,14,15,16,17,18,19,20,21,22,23,24,25,26,27,28,29,30,31,32,33,34,35,36,37,38,39,40,41,42,43,44,45,46,47,48,49,50,51,52,53,54,55,56,57,58,59,60,61,62,63,64,65,66,67,68,69,70,71,72,73,74,75,76,77,78,79,80,81,82,83,84,85,86,87,88,89,90,91,92,93,94,95,96,97,98,99,100,101,102,103,104,105,106,107,108,109,110,111,112,113,114,115,116,117,118,119,120,121,122,123,124,125,126,127,128,129,130,131,132,133,134,135,136,137,138,139,140,141,142,143,144,145,146,147,148,149,150,151,152,153,154,155,156,157,158,159,160,161,162,163,164,165,166,167,168,169,170,171,172,173,174,175,176,177,178,179,180,181,182,183,184,185,186,187,188,189,190,191,192,193,194,195,196,197,198,199,200,201,202,203,204,205,206,207,208,209,210,211,212,213,214,215,216,217,218,219,220,221,222,223,224,225,226,227,228,229,230,231,232,233,234,235,236,237,238,239,240,241,242,243,244,245,246,247,248,249,250,251,252,253,254,255,256,257,258,259,260,261,262,263,264,265,266,267,268,269,270,271,272,273,274,275,276,277,278,279,280,281,282,283,284,285,286,287,288,289,290,291,292,293,294,295,296,297,298,299,300,301,302,303,304,305,306,307,308,309,310,311,312,313,314,315,316,317,318,319,320,321,322,323,324,325,326,327,328,329,330,331,332,333,334,335,336,337,338,339,340,341,342,343,344,345,346,347,348,349,350,351,352,353,354,355,356,357,358,359,360,361,362,363,364,365,366,367,368,369,370,371,372,373,374,375,376,377,378,379,380,381,382,383,384,385,386,387,388,389,390,391,392,393,394,395,396,397,398,399,400,401,402,403,404,405,406,407,408,409,410,411,412,413,414,415,416,417,418,419,420,421,422,423,424,425,426,427,428,429,430,431,432,433,434,435,436,437,438,439,440,441,442,443,444,445,446,447,448,449,450,451,452,453,454,455,456,457,458,459,460,461,462,463,464,465,466,467,468,469,470,471,472,473,474,475,476,477,478,479,480,481,482,483,484,485,486,487,488,489,490,491,492,493,494,495,496,497,498,499,500],"tree_info":[0,0,0,0,0,0,0,0,0,0,0,0,0,0,0,0,0,0,0,0,0,0,0,0,0,0,0,0,0,0,0,0,0,0,0,0,0,0,0,0,0,0,0,0,0,0,0,0,0,0,0,0,0,0,0,0,0,0,0,0,0,0,0,0,0,0,0,0,0,0,0,0,0,0,0,0,0,0,0,0,0,0,0,0,0,0,0,0,0,0,0,0,0,0,0,0,0,0,0,0,0,0,0,0,0,0,0,0,0,0,0,0,0,0,0,0,0,0,0,0,0,0,0,0,0,0,0,0,0,0,0,0,0,0,0,0,0,0,0,0,0,0,0,0,0,0,0,0,0,0,0,0,0,0,0,0,0,0,0,0,0,0,0,0,0,0,0,0,0,0,0,0,0,0,0,0,0,0,0,0,0,0,0,0,0,0,0,0,0,0,0,0,0,0,0,0,0,0,0,0,0,0,0,0,0,0,0,0,0,0,0,0,0,0,0,0,0,0,0,0,0,0,0,0,0,0,0,0,0,0,0,0,0,0,0,0,0,0,0,0,0,0,0,0,0,0,0,0,0,0,0,0,0,0,0,0,0,0,0,0,0,0,0,0,0,0,0,0,0,0,0,0,0,0,0,0,0,0,0,0,0,0,0,0,0,0,0,0,0,0,0,0,0,0,0,0,0,0,0,0,0,0,0,0,0,0,0,0,0,0,0,0,0,0,0,0,0,0,0,0,0,0,0,0,0,0,0,0,0,0,0,0,0,0,0,0,0,0,0,0,0,0,0,0,0,0,0,0,0,0,0,0,0,0,0,0,0,0,0,0,0,0,0,0,0,0,0,0,0,0,0,0,0,0,0,0,0,0,0,0,0,0,0,0,0,0,0,0,0,0,0,0,0,0,0,0,0,0,0,0,0,0,0,0,0,0,0,0,0,0,0,0,0,0,0,0,0,0,0,0,0,0,0,0,0,0,0,0,0,0,0,0,0,0,0,0,0,0,0,0,0,0,0,0,0,0,0,0,0,0,0,0,0,0,0,0,0,0,0,0,0,0,0,0,0,0,0,0,0,0,0,0,0,0,0,0,0,0,0,0,0,0,0,0,0,0,0,0,0,0,0,0,0,0,0,0,0,0,0,0],"trees":[{"base_weights":[-0E0,1.4473846E0,-1.587287E0,1.8299139E0,3.6660078E-1,-1.8616141E0,-9.5137423E-1,9.996076E-2,1.6931334E0,5.564595E-1,-2.3132037E-1,-5.241454E-1,-9.9955246E-2,-1.2E-1,-1.0370562E0,1.5191095E0,9.991284E-2,7.3275506E-1,-9.785933E-2,-1.3434727E-1,-6.315789E-1,-5.86844E-1,-3.4817815E-1,-1.4683545E-1,7.1428575E-2,-9.223413E-1,-1.4544357E0,8.0242746E-2,5.8101267E-2,3.9647575E-3,3.8211733E-2,3.892944E-3,-1.9591836E-2,3.6477987E-3,-1.715375E-2,-4.0363636E-2,-8.2568815E-3,-2.2056384E-2,-3.5013262E-2,-2.0353982E-2,1.3043478E-2,1.7948719E-2,-1.0055866E-2,-3.790832E-2,-5.836768E-2,-7.323601E-2,-5.882353E-3],"categories":[],"categories_nodes":[],"categories_segments":[],"categories_sizes":[],"default_left":[0,0,0,0,0,0,0,0,0,0,0,0,0,0,0,0,0,0,0,0,0,0,0,0,0,0,0,0,0,0,0,0,0,0,0,0,0,0,0,0,0,0,0,0,0,0,0],"id":0,"left_children":[1,3,5,7,9,11,13,-1,15,17,19,21,-1,23,25,27,-1,29,31,33,35,37,39,41,-1,43,45,-1,-1,-1,-1,-1,-1,-1,-1,-1,-1,-1,-1,-1,-1,-1,-1,-1,-1,-1,-1],"loss_changes":[3.3986805E4,3.1983584E3,1.2290918E3,1.2895312E2,2.2989426E2,9.0520703E2,1.5149658E2,0E0,1.651543E2,1.7731235E2,1.8875942E1,4.8790894E0,0E0,8.521085E0,9.104248E1,6.002246E1,0E0,2.484021E1,1.6922407E1,1.7095016E1,7.6520157E0,5.2814636E0,4.5366125E0,5.4948163E0,0E0,6.0105957E1,5.522827E0,0E0,0E0,0E0,0E0,0E0,0E0,0E0,0E0,0E0,0E0,0E0,0E0,0E0,0E0,0E0,0E0,0E0,0E0,0E0,0E0],"parents":[2147483647,0,0,1,1,2,2,3,3,4,4,5,5,6,6,8,8,9,9,10,10,11,11,13,13,14,14,15,15,17,17,18,18,19,19,20,20,21,21,22,22,23,23,25,25,26,26],"right_children":[2,4,6,8,10,12,14,-1,16,18,20,22,-1,24,26,28,-1,30,32,34,36,38,40,42,-1,44,46,-1,-1,-1,-1,-1,-1,-1,-1,-1,-1,-1,-1,-1,-1,-1,-1,-1,-1,-1,-1],"split_conditions":[9.6E1,9.4E1,7.1E1,4.9748363E1,2E0,8E1,8E1,9.996076E-2,7.1E1,1E0,1E0,5.3E1,-9.9955246E-2,9.7E1,9.9E1,2E0,9.991284E-2,1.63E1,2.7E1,9.5E1,7.1E1,2.43E1,3.53E1,2.5E1,7.1428575E-2,1E0,4.19E1,8.0242746E-2,5.8101267E-2,3.9647575E-3,3.8211733E-2,3.892944E-3,-1.9591836E-2,3.6477987E-3,-1.715375E-2,-4.0363636E-2,-8.2568815E-3,-2.2056384E-2,-3.5013262E-2,-2.0353982E-2,1.3043478E-2,1.7948719E-2,-1.0055866E-2,-3.790832E-2,-5.836768E-2,-7.323601E-2,-5.882353E-3],"split_indices":[9,9,10,7,3,7,7,0,10,4,4,10,0,9,9,3,0,2,2,9,10,2,2,0,0,3,2,0,0,0,0,0,0,0,0,0,0,0,0,0,0,0,0,0,0,0,0],"split_type":[0,0,0,0,0,0,0,0,0,0,0,0,0,0,0,0,0,0,0,0,0,0,0,0,0,0,0,0,0,0,0,0,0,0,0,0,0,0,0,0,0,0,0,0,0,0,0],"sum_hessian":[1.47915E4,7.73675E3,7.05475E3,5.71375E3,2.023E3,4.92725E3,2.1275E3,2.54725E3,3.1665E3,1.5355E3,4.875E2,4.5975E2,4.4675E3,1.99E2,1.9285E3,2.02025E3,1.14625E3,1.2095E3,3.26E2,3.935E2,9.4E1,3.3725E2,1.225E2,1.965E2,2.5E0,1.51525E3,4.1325E2,1.62625E3,3.94E2,5.575E1,1.15375E3,2.045E2,1.215E2,1.9775E2,1.9575E2,6.775E1,2.625E1,1.4975E2,1.875E2,1.12E2,1.05E1,1.85E1,1.78E2,9.0975E2,6.055E2,4.1E2,3.25E0],"tree_param":{"num_deleted":"0","num_feature":"11","num_nodes":"47","size_leaf_vector":"1"}},{"base_weights":[2.112849E-6,1.3773532E0,-1.51072E0,1.7422503E0,3.483376E-1,-1.772681E0,-9.044587E-1,9.520618E-2,1.6115586E0,5.288065E-1,-2.1990192E-1,-4.981745E-1,-9.520009E-2,-1.1360827E-1,-9.860196E-1,1.4453678E0,9.516258E-2,6.96399E-1,-9.301816E-2,-1.2766929E-1,-6.0069305E-1,-4.3375638E-1,-6.587316E-1,-1.3945799E-1,6.894139E-2,-8.7678397E-1,-1.3837721E0,7.635793E-2,5.5250853E-2,3.7700322E-3,3.631628E-2,4.313928E-3,-1.826918E-2,3.4663377E-3,-1.630164E-2,-3.839049E-2,-7.859318E-3,6.4137083E-4,-2.4686364E-2,-3.5364807E-2,2.080149E-2,-2.9275154E-3,-2.4014432E-2,-3.6028136E-2,-5.5502098E-2,-6.967787E-2,-5.6574806E-3],"categories":[],"categories_nodes":[],"categories_segments":[],"categories_sizes":[],"default_left":[0,0,0,0,0,0,0,0,0,0,0,0,0,0,0,0,0,0,0,0,0,0,0,0,0,0,0,0,0,0,0,0,0,0,0,0,0,0,0,0,0,0,0,0,0,0,0],"id":1,"left_children":[1,3,5,7,9,11,13,-1,15,17,19,21,-1,23,25,27,-1,29,31,33,35,37,39,41,-1,43,45,-1,-1,-1,-1,-1,-1,-1,-1,-1,-1,-1,-1,-1,-1,-1,-1,-1,-1,-1,-1],"loss_changes":[3.0729676E4,2.9000586E3,1.1169619E3,1.17572266E2,2.076277E2,8.2201074E2,1.3709143E2,0E0,1.5051758E2,1.6014304E2,1.7078588E1,4.4788055E0,0E0,7.9077425E0,8.256067E1,5.449707E1,0E0,2.2433777E1,1.5999706E1,1.5437824E1,6.9183846E0,8.889576E0,7.078373E0,5.4179363E0,0E0,5.4421265E1,4.985962E0,0E0,0E0,0E0,0E0,0E0,0E0,0E0,0E0,0E0,0E0,0E0,0E0,0E0,0E0,0E0,0E0,0E0,0E0,0E0,0E0],"parents":[2147483647,0,0,1,1,2,2,3,3,4,4,5,5,6,6,8,8,9,9,10,10,11,11,13,13,14,14,15,15,17,17,18,18,19,19,20,20,21,21,22,22,23,23,25,25,26,26],"right_children":[2,4,6,8,10,12,14,-1,16,18,20,22,-1,24,26,28,-1,30,32,34,36,38,40,42,-1,44,46,-1,-1,-1,-1,-1,-1,-1,-1,-1,-1,-1,-1,-1,-1,-1,-1,-1,-1,-1,-1],"split_conditions":[9.6E1,9.4E1,7.1E1,4.9748363E1,2E0,8E1,8E1,9.520618E-2,7.1E1,1E0,1E0,7.4E1,-9.520009E-2,9.7E1,9.9E1,2E0,9.516258E-2,1.63E1,7.11E1,9.5E1,7.1E1,2.7E1,3.73E1,7.6E1,6.894139E-2,1E0,4.19E1,7.635793E-2,5.5250853E-2,3.7700322E-3,3.631628E-2,4.313928E-3,-1.826918E-2,3.4663377E-3,-1.630164E-2,-3.839049E-2,-7.859318E-3,6.4137083E-4,-2.4686364E-2,-3.5364807E-2,2.080149E-2,-2.9275154E-3,-2.4014432E-2,-3.6028136E-2,-5.5502098E-2,-6.967787E-2,-5.6574806E-3],"split_indices":[9,9,10,7,3,7,7,0,10,4,4,8,0,9,9,3,0,2,7,9,10,0,2,0,0,3,2,0,0,0,0,0,0,0,0,0,0,0,0,0,0,0,0,0,0,0,0],"split_type":[0,0,0,0,0,0,0,0,0,0,0,0,0,0,0,0,0,0,0,0,0,0,0,0,0,0,0,0,0,0,0,0,0,0,0,0,0,0,0,0,0,0,0,0,0,0,0],"sum_hessian":[1.4766238E4,7.7241177E3,7.042121E3,5.701594E3,2.0225232E3,4.916022E3,2.1260994E3,2.5408975E3,3.1606968E3,1.5350663E3,4.874569E2,4.596623E2,4.4563594E3,1.9899083E2,1.9271085E3,2.0173026E3,1.1433942E3,1.2090787E3,3.2598755E2,3.9348495E2,9.397196E1,3.3068686E2,1.2897542E2,1.9649402E2,2.496814E0,1.5144078E3,4.127007E2,1.623635E3,3.9366766E2,5.5749783E1,1.153329E3,1.9699199E2,1.2899557E2,1.9774934E2,1.9573561E2,6.772241E1,2.6249554E1,3.9243015E1,2.9144385E2,1.2372656E2,5.248853E0,1.5974493E2,3.6749073E1,9.094232E2,6.049846E2,4.0945074E2,3.2499719E0],"tree_param":{"num_deleted":"0","num_feature":"11","num_nodes":"47","size_leaf_vector":"1"}},{"base_weights":[1.2400495E-6,1.3147084E0,-1.4426495E0,1.6653563E0,3.3112812E-1,-1.6951563E0,-8.6092585E-1,9.109876E-2,1.5391448E0,5.027863E-1,-2.0908278E-1,-4.7359693E-1,-9.109216E-2,-1.0772801E-1,-9.3875307E-1,1.378933E0,9.1058426E-2,6.622737E-1,-8.841403E-2,-1.2133205E-1,-5.716325E-1,-5.3320915E-1,-3.0653426E-1,-1.3262972E-1,6.665735E-2,-8.3433723E-1,-1.3197852E0,7.287819E-2,5.2622296E-2,3.5848864E-3,3.453815E-2,6.4006867E-3,-1.5415758E-2,3.2939215E-3,-1.5493949E-2,5.743423E-2,-3.034167E-2,-1.972662E-2,-3.2066025E-2,-7.3121744E-3,-2.648494E-2,2.3922855E-3,-1.4055477E-2,-3.4263976E-2,-5.2860416E-2,-6.693876E-2,-3.0825397E-2],"categories":[],"categories_nodes":[],"categories_segments":[],"categories_sizes":[],"default_left":[0,0,0,0,0,0,0,0,0,0,0,0,0,0,0,0,0,0,0,0,0,0,0,0,0,0,0,0,0,0,0,0,0,0,0,0,0,0,0,0,0,0,0,0,0,0,0],"id":2,"left_children":[1,3,5,7,9,11,13,-1,15,17,19,21,-1,23,25,27,-1,29,31,33,35,37,39,41,-1,43,45,-1,-1,-1,-1,-1,-1,-1,-1,-1,-1,-1,-1,-1,-1,-1,-1,-1,-1,-1,-1],"loss_changes":[2.7876523E4,2.6515957E3,1.027918E3,1.0924707E2,1.8762773E2,7.552178E2,1.243584E2,0E0,1.3961328E2,1.4478021E2,1.546657E1,4.4219437E0,0E0,7.3517904E0,7.54552E1,5.006787E1,0E0,2.0290283E1,1.5601029E1,1.3943438E1,6.443491E0,4.8143005E0,4.338072E0,5.305376E0,0E0,4.954004E1,4.679138E0,0E0,0E0,0E0,0E0,0E0,0E0,0E0,0E0,0E0,0E0,0E0,0E0,0E0,0E0,0E0,0E0,0E0,0E0,0E0,0E0],"parents":[2147483647,0,0,1,1,2,2,3,3,4,4,5,5,6,6,8,8,9,9,10,10,11,11,13,13,14,14,15,15,17,17,18,18,19,19,20,20,21,21,22,22,23,23,25,25,26,26],"right_children":[2,4,6,8,10,12,14,-1,16,18,20,22,-1,24,26,28,-1,30,32,34,36,38,40,42,-1,44,46,-1,-1,-1,-1,-1,-1,-1,-1,-1,-1,-1,-1,-1,-1,-1,-1,-1,-1,-1,-1],"split_conditions":[9.6E1,9.4E1,7.1E1,4.9748363E1,2E0,8E1,8E1,9.109876E-2,7.1E1,1E0,1E0,5.3E1,-9.109216E-2,9.7E1,9.9E1,2E0,9.1058426E-2,1.63E1,2.53E1,9.5E1,8.0638057E-1,2.43E1,7.118205E1,1E0,6.665735E-2,1E0,1.032E3,7.287819E-2,5.2622296E-2,3.5848864E-3,3.453815E-2,6.4006867E-3,-1.5415758E-2,3.2939215E-3,-1.5493949E-2,5.743423E-2,-3.034167E-2,-1.972662E-2,-3.2066025E-2,-7.3121744E-3,-2.648494E-2,2.3922855E-3,-1.4055477E-2,-3.4263976E-2,-5.2860416E-2,-6.693876E-2,-3.0825397E-2],"split_indices":[9,9,10,7,3,7,7,0,10,4,4,10,0,9,9,3,0,2,2,9,5,2,8,3,0,3,6,0,0,0,0,0,0,0,0,0,0,0,0,0,0,0,0,0,0,0,0],"split_type":[0,0,0,0,0,0,0,0,0,0,0,0,0,0,0,0,0,0,0,0,0,0,0,0,0,0,0,0,0,0,0,0,0,0,0,0,0,0,0,0,0,0,0,0,0,0,0],"sum_hessian":[1.4695669E4,7.688826E3,7.006843E3,5.667618E3,2.0212083E3,4.8846597E3,2.1221829E3,2.523147E3,3.1444712E3,1.5338722E3,4.873361E2,4.5942813E2,4.425232E3,1.9897006E2,1.9232126E3,2.0090573E3,1.1354138E3,1.2078986E3,3.2597363E2,3.9344272E2,9.389336E1,3.3698987E2,1.22438255E2,1.9648235E2,2.4877255E0,1.5120492E3,4.1116348E2,1.6163202E3,3.9273712E2,5.5749165E1,1.1521494E3,1.6449487E2,1.6147878E2,1.977475E2,1.9569524E2,1.2484348E0,9.264492E1,1.4966309E2,1.873268E2,7.222037E1,5.0217884E1,8.899173E1,1.0749061E2,9.0850775E2,6.0354144E2,3.9947327E2,1.1690207E1],"tree_param":{"num_deleted":"0","num_feature":"11","num_nodes":"47","size_leaf_vector":"1"}},{"base_weights":[-5.794243E-8,1.2582065E0,-1.3816024E0,1.5972869E0,3.1492293E-1,-1.6269648E0,-8.20343E-1,8.730929E-2,1.470693E0,4.782639E-1,-1.9867188E-1,-4.5046848E-1,-8.7510996E-2,-1.0207967E-1,-8.9478236E-1,1.3110713E0,8.747881E-2,6.301672E-1,-8.4030055E-2,1.2796322E0,-2.1893765E-1,-6.881897E-1,-4.0683278E-1,-1.7206472E-1,4.0651894E-1,-7.946439E-1,-1.2614324E0,6.902975E-2,4.8887398E-2,1.5824636E-2,3.3992548E-2,4.3349005E-3,-1.7172744E-2,1.7814426E-2,7.965972E-2,-6.671225E-3,-2.8710157E-2,-2.093201E-2,-6.147917E-2,1.8709205E-2,-2.1864899E-2,-2.648005E-3,-2.531604E-2,-2.9347105E-2,2.9303035E-2,-3.2604635E-2,-5.0412305E-2,-6.354489E-2,-2.8866353E-3],"categories":[],"categories_nodes":[],"categories_segments":[],"categories_sizes":[],"default_left":[0,0,0,0,0,0,0,0,0,0,0,0,0,0,0,0,0,0,0,0,0,0,0,0,0,0,0,0,0,0,0,0,0,0,0,0,0,0,0,0,0,0,0,0,0,0,0,0,0],"id":3,"left_children":[1,3,5,7,9,11,13,-1,15,17,19,21,-1,23,25,27,-1,29,31,33,35,37,39,41,43,45,47,-1,-1,-1,-1,-1,-1,-1,-1,-1,-1,-1,-1,-1,-1,-1,-1,-1,-1,-1,-1,-1,-1],"loss_changes":[2.5360338E4,2.441665E3,9.562363E2,1.032959E2,1.6957004E2,7.006621E2,1.13106445E2,0E0,1.3311377E2,1.3099426E2,1.4905079E1,4.4923325E0,0E0,7.1867194E0,6.942615E1,4.3573486E1,0E0,1.8596558E1,1.4510334E1,1.3860102E0,1.4579161E1,9.686737E0,9.470818E0,6.998279E0,4.71081E0,4.5302795E1,4.595764E0,0E0,0E0,0E0,0E0,0E0,0E0,0E0,0E0,0E0,0E0,0E0,0E0,0E0,0E0,0E0,0E0,0E0,0E0,0E0,0E0,0E0,0E0],"parents":[2147483647,0,0,1,1,2,2,3,3,4,4,5,5,6,6,8,8,9,9,10,10,11,11,13,13,14,14,15,15,17,17,18,18,19,19,20,20,21,21,22,22,23,23,24,24,25,25,26,26],"right_children":[2,4,6,8,10,12,14,-1,16,18,20,22,-1,24,26,28,-1,30,32,34,36,38,40,42,44,46,48,-1,-1,-1,-1,-1,-1,-1,-1,-1,-1,-1,-1,-1,-1,-1,-1,-1,-1,-1,-1,-1,-1],"split_conditions":[9.6E1,9.4E1,7.1E1,5.09E1,2E0,8E1,8E1,8.730929E-2,7.1E1,1E0,2.82E2,3.78E2,-8.7510996E-2,3.2429652E0,9.9E1,1E0,8.747881E-2,1.94E1,7.11E1,2.72E2,1E0,3.56E2,1.29E0,9.2E1,7.4E1,1E0,4.19E1,6.902975E-2,4.8887398E-2,1.5824636E-2,3.3992548E-2,4.3349005E-3,-1.7172744E-2,1.7814426E-2,7.965972E-2,-6.671225E-3,-2.8710157E-2,-2.093201E-2,-6.147917E-2,1.8709205E-2,-2.1864899E-2,-2.648005E-3,-2.531604E-2,-2.9347105E-2,2.9303035E-2,-3.2604635E-2,-5.0412305E-2,-6.354489E-2,-2.8866353E-3],"split_indices":[9,9,10,7,3,7,7,0,10,4,6,6,0,5,9,4,0,2,7,6,4,6,5,10,10,3,2,0,0,0,0,0,0,0,0,0,0,0,0,0,0,0,0,0,0,0,0,0,0],"split_type":[0,0,0,0,0,0,0,0,0,0,0,0,0,0,0,0,0,0,0,0,0,0,0,0,0,0,0,0,0,0,0,0,0,0,0,0,0,0,0,0,0,0,0,0,0,0,0,0,0],"sum_hessian":[1.4586815E4,7.634379E3,6.952436E3,5.6151997E3,2.0191794E3,4.8362866E3,2.1161494E3,2.5744065E3,3.0407932E3,1.5320145E3,4.8716498E2,4.5906503E2,4.3772217E3,1.9894131E2,1.9172081E3,1.9375294E3,1.1032637E3,1.206074E3,3.2594058E2,5.7477508E0,4.8141724E2,6.890561E1,3.9015942E2,1.7545917E2,2.3482147E1,1.5084039E3,4.0880423E2,1.6005491E3,3.3698035E2,1.6592026E2,1.0401537E3,1.9697603E2,1.2896455E2,1.9986385E0,3.7491121E0,3.891287E2,9.2288536E1,4.7185917E1,2.1719696E1,1.4224056E1,3.7593536E2,1.3021753E2,4.5241646E1,3.246903E0,2.0235243E1,9.070925E2,6.0131134E2,4.0555923E2,3.2450008E0],"tree_param":{"num_deleted":"0","num_feature":"11","num_nodes":"49","size_leaf_vector":"1"}},{"base_weights":[-3.7590407E-6,1.2068051E0,-1.3264185E0,1.5364735E0,2.9962015E-1,-1.5664755E0,-7.823956E-1,8.4379174E-2,1.4155318E0,4.5510256E-1,-1.8868132E-1,-4.285639E-1,-8.436444E-2,-9.713156E-2,-8.5369426E-1,1.2631091E0,8.43361E-2,5.998906E-1,-7.9877764E-2,-2.9656762E-1,7.518198E-2,-6.560082E-1,-3.868473E-1,-1.20925725E-1,6.422909E-2,-7.5740534E-1,-1.2078099E0,6.701858E-2,4.7211464E-2,3.5719343E-2,2.3346798E-2,4.0885587E-3,-1.752542E-2,-1.0146784E-2,-3.3368856E-2,1.8931236E-2,-1.2014054E-2,-1.9924054E-2,-5.8721393E-2,1.7823247E-2,-2.079447E-2,-2.228975E-3,-2.2147546E-2,-3.503437E-2,-6.2906526E-2,-6.131028E-2,-2.6715562E-2],"categories":[],"categories_nodes":[],"categories_segments":[],"categories_sizes":[],"default_left":[0,0,0,0,0,0,0,0,0,0,0,0,0,0,0,0,0,0,0,0,0,0,0,0,0,0,0,0,0,0,0,0,0,0,0,0,0,0,0,0,0,0,0,0,0,0,0],"id":4,"left_children":[1,3,5,7,9,11,13,-1,15,17,19,21,-1,23,25,27,-1,29,31,33,35,37,39,41,-1,43,45,-1,-1,-1,-1,-1,-1,-1,-1,-1,-1,-1,-1,-1,-1,-1,-1,-1,-1,-1,-1],"loss_changes":[2.3127502E4,2.262046E3,8.9766406E2,9.901172E1,1.5326953E2,6.556719E2,1.02974976E2,0E0,1.2551807E2,1.1860971E2,1.3914122E1,4.107147E0,0E0,6.7277517E0,6.4224976E1,4.753955E1,0E0,1.800595E1,1.4329774E1,1.1897474E1,1.3724073E1,8.850452E0,8.584953E0,4.834407E0,0E0,4.185144E1,4.384033E0,0E0,0E0,0E0,0E0,0E0,0E0,0E0,0E0,0E0,0E0,0E0,0E0,0E0,0E0,0E0,0E0,0E0,0E0,0E0,0E0],"parents":[2147483647,0,0,1,1,2,2,3,3,4,4,5,5,6,6,8,8,9,9,10,10,11,11,13,13,14,14,15,15,17,17,18,18,19,19,20,20,21,21,22,22,23,23,25,25,26,26],"right_children":[2,4,6,8,10,12,14,-1,16,18,20,22,-1,24,26,28,-1,30,32,34,36,38,40,42,-1,44,46,-1,-1,-1,-1,-1,-1,-1,-1,-1,-1,-1,-1,-1,-1,-1,-1,-1,-1,-1,-1],"split_conditions":[9.6E1,9.4E1,7.1E1,4.9748363E1,2E0,8E1,8E1,8.4379174E-2,7.1E1,1E0,7.2E1,3.78E2,-8.436444E-2,9.7E1,9.9E1,2E0,8.43361E-2,9.5E1,2.7E1,1E0,9.5E1,3.56E2,1.29E0,7.6E1,6.422909E-2,1E0,1.032E3,6.701858E-2,4.7211464E-2,3.5719343E-2,2.3346798E-2,4.0885587E-3,-1.752542E-2,-1.0146784E-2,-3.3368856E-2,1.8931236E-2,-1.2014054E-2,-1.9924054E-2,-5.8721393E-2,1.7823247E-2,-2.079447E-2,-2.228975E-3,-2.2147546E-2,-3.503437E-2,-6.2906526E-2,-6.131028E-2,-2.6715562E-2],"split_indices":[9,9,10,7,3,7,7,0,10,4,10,6,0,9,9,3,0,9,2,4,9,6,5,0,0,4,6,0,0,0,0,0,0,0,0,0,0,0,0,0,0,0,0,0,0,0,0],"split_type":[0,0,0,0,0,0,0,0,0,0,0,0,0,0,0,0,0,0,0,0,0,0,0,0,0,0,0,0,0,0,0,0,0,0,0,0,0,0,0,0,0,0,0,0,0,0,0],"sum_hessian":[1.4446104E4,7.564135E3,6.881969E3,5.547497E3,2.0166376E3,4.7736543E3,2.1083154E3,2.4604045E3,3.0870925E3,1.5296442E3,4.8699338E2,4.586146E2,4.3150396E3,1.989108E2,1.9094045E3,1.9799296E3,1.1071628E3,1.2037404E3,3.259038E2,3.455739E2,1.4141945E2,6.8797325E1,3.8981726E2,1.9644043E2,2.470374E0,1.503674E3,4.057306E2,1.5911907E3,3.8873892E2,6.444166E2,5.593237E2,2.0447049E2,1.2143333E2,2.7714114E2,6.8432785E1,7.198099E1,6.943845E1,4.7146E1,2.1651323E1,1.4233989E1,3.7558328E2,1.597137E2,3.6726734E1,1.3528352E3,1.508387E2,3.9414444E2,1.1586146E1],"tree_param":{"num_deleted":"0","num_feature":"11","num_nodes":"47","size_leaf_vector":"1"}},{"base_weights":[-1.1474512E-5,1.1597656E0,-1.2761225E0,1.4818332E0,2.850891E-1,-1.512435E0,-7.4666667E-1,8.138543E-2,1.358855E0,4.3319052E-1,-1.7941728E-1,-4.078274E-1,-8.1580676E-2,-9.20959E-2,-8.1508E-1,1.2051594E0,8.155271E-2,5.7127213E-1,-7.593863E-2,1.2412757E0,-1.9892521E-1,-3.4554437E-1,-5.6368357E-1,-1.5768647E-1,3.846071E-1,-7.2226346E-1,-1.1582903E0,6.365932E-2,4.4015445E-2,1.1539409E-3,2.9894546E-2,4.3461914E-3,-1.6176535E-2,1.7655931E-2,7.704278E-2,-1.5243636E-2,2.9227107E-3,3.8870343E-3,-2.0134812E-2,-3.0529587E-2,2.3010192E-2,-2.2248316E-3,-2.3780448E-2,-2.8351268E-2,2.7841037E-2,-2.9242476E-2,-4.645522E-2,-5.837822E-2,-4.3804143E-4],"categories":[],"categories_nodes":[],"categories_segments":[],"categories_sizes":[],"default_left":[0,0,0,0,0,0,0,0,0,0,0,0,0,0,0,0,0,0,0,0,0,0,0,0,0,0,0,0,0,0,0,0,0,0,0,0,0,0,0,0,0,0,0,0,0,0,0,0,0],"id":5,"left_children":[1,3,5,7,9,11,13,-1,15,17,19,21,-1,23,25,27,-1,29,31,33,35,37,39,41,43,45,47,-1,-1,-1,-1,-1,-1,-1,-1,-1,-1,-1,-1,-1,-1,-1,-1,-1,-1,-1,-1,-1,-1],"loss_changes":[2.1135451E4,2.1071104E3,8.49583E2,9.587695E1,1.3867139E2,6.1808203E2,9.3975464E1,0E0,1.2240137E2,1.0745441E2,1.3764871E1,4.2613525E0,0E0,6.309808E0,5.9732178E1,4.0950195E1,0E0,1.7526276E1,1.3207872E1,1.2505283E0,1.3161539E1,8.028278E0,6.499981E0,6.3266487E0,4.325034E0,4.207007E1,4.2869873E0,0E0,0E0,0E0,0E0,0E0,0E0,0E0,0E0,0E0,0E0,0E0,0E0,0E0,0E0,0E0,0E0,0E0,0E0,0E0,0E0,0E0,0E0],"parents":[2147483647,0,0,1,1,2,2,3,3,4,4,5,5,6,6,8,8,9,9,10,10,11,11,13,13,14,14,15,15,17,17,18,18,19,19,20,20,21,21,22,22,23,23,24,24,25,25,26,26],"right_children":[2,4,6,8,10,12,14,-1,16,18,20,22,-1,24,26,28,-1,30,32,34,36,38,40,42,44,46,48,-1,-1,-1,-1,-1,-1,-1,-1,-1,-1,-1,-1,-1,-1,-1,-1,-1,-1,-1,-1,-1,-1],"split_conditions":[9.6E1,9.4E1,7.1E1,5.09E1,2E0,8E1,8E1,8.138543E-2,7.1E1,1E0,2.82E2,7.4E1,-8.1580676E-2,3.2429652E0,9.9E1,1E0,8.155271E-2,1.63E1,7.11E1,2.72E2,7.2E1,2.7E1,3.73E1,9.2E1,7.4E1,1E0,4.19E1,6.365932E-2,4.4015445E-2,1.1539409E-3,2.9894546E-2,4.3461914E-3,-1.6176535E-2,1.7655931E-2,7.704278E-2,-1.5243636E-2,2.9227107E-3,3.8870343E-3,-2.0134812E-2,-3.0529587E-2,2.3010192E-2,-2.2248316E-3,-2.3780448E-2,-2.8351268E-2,2.7841037E-2,-2.9242476E-2,-4.645522E-2,-5.837822E-2,-4.3804143E-4],"split_indices":[9,9,10,7,3,7,7,0,10,4,6,8,0,5,9,4,0,2,7,6,10,0,2,10,10,3,2,0,0,0,0,0,0,0,0,0,0,0,0,0,0,0,0,0,0,0,0,0,0],"split_type":[0,0,0,0,0,0,0,0,0,0,0,0,0,0,0,0,0,0,0,0,0,0,0,0,0,0,0,0,0,0,0,0,0,0,0,0,0,0,0,0,0,0,0,0,0,0,0,0,0],"sum_hessian":[1.4278671E4,7.4803457E3,6.798325E3,5.4667285E3,2.013617E3,4.69911E3,2.0992153E3,2.494977E3,2.9717515E3,1.5268647E3,4.867522E2,4.580537E2,4.241056E3,1.9886298E2,1.9003523E3,1.9027831E3,1.0689684E3,1.2010139E3,3.2585077E2,5.744868E0,4.8100735E2,3.2956888E2,1.2848483E2,1.7539871E2,2.3464262E1,1.49827E3,4.0208224E2,1.5709015E3,3.3188162E2,5.57038E1,1.1453102E3,1.969493E2,1.2890146E2,1.9985442E0,3.7463233E0,3.4061307E2,1.4039426E2,3.9162045E1,2.9040683E2,1.2324229E2,5.242543E0,1.3018791E2,4.52108E1,3.2442641E0,2.022E1,9.0251544E2,5.9575464E2,3.9884872E2,3.2335165E0],"tree_param":{"num_deleted":"0","num_feature":"11","num_nodes":"49","size_leaf_vector":"1"}},{"base_weights":[-1.2102614E-5,1.1164134E0,-1.2300504E0,1.4323133E0,2.7136782E-1,-1.463816E0,-7.1310747E-1,7.912328E-2,1.3133664E0,4.124457E-1,-1.7034528E-1,-3.880387E-1,-7.910297E-2,-8.7649606E-2,-7.7882254E-1,1.1650167E0,7.907798E-2,5.4421073E-1,-7.2191454E-2,1.1955E0,-1.8907641E-1,-4.4548076E-1,-2.2778468E-1,-1.1039772E-1,6.202091E-2,-6.8920183E-1,-1.1122528E0,6.209408E-2,4.251482E-2,3.2698054E-2,2.0848421E-2,6.3127787E-3,-1.3700445E-2,1.7065419E-2,7.420518E-2,-5.5498895E-3,-2.5739996E-2,-1.2937966E-2,-2.61396E-2,2.9299796E-2,-1.3356713E-2,5.460406E-2,-6.492778E-3,-2.786225E-2,-4.4427413E-2,-5.651469E-2,-2.3070535E-2],"categories":[],"categories_nodes":[],"categories_segments":[],"categories_sizes":[],"default_left":[0,0,0,0,0,0,0,0,0,0,0,0,0,0,0,0,0,0,0,0,0,0,0,0,0,0,0,0,0,0,0,0,0,0,0,0,0,0,0,0,0,0,0,0,0,0,0],"id":6,"left_children":[1,3,5,7,9,11,13,-1,15,17,19,21,-1,23,25,27,-1,29,31,33,35,37,39,41,-1,43,45,-1,-1,-1,-1,-1,-1,-1,-1,-1,-1,-1,-1,-1,-1,-1,-1,-1,-1,-1,-1],"loss_changes":[1.935059E4,1.9714902E3,8.091426E2,9.394629E1,1.2539993E2,5.8652734E2,8.5821045E1,0E0,1.1775E2,9.739969E1,1.2699797E1,4.118454E0,0E0,6.1733184E0,5.573645E1,4.585376E1,0E0,1.6468994E1,1.3122789E1,1.1531858E0,1.2196821E1,4.7210846E0,4.0954657E0,4.7595863E0,0E0,3.8776367E1,4.1627197E0,0E0,0E0,0E0,0E0,0E0,0E0,0E0,0E0,0E0,0E0,0E0,0E0,0E0,0E0,0E0,0E0,0E0,0E0,0E0,0E0],"parents":[2147483647,0,0,1,1,2,2,3,3,4,4,5,5,6,6,8,8,9,9,10,10,11,11,13,13,14,14,15,15,17,17,18,18,19,19,20,20,21,21,22,22,23,23,25,25,26,26],"right_children":[2,4,6,8,10,12,14,-1,16,18,20,22,-1,24,26,28,-1,30,32,34,36,38,40,42,-1,44,46,-1,-1,-1,-1,-1,-1,-1,-1,-1,-1,-1,-1,-1,-1,-1,-1,-1,-1,-1,-1],"split_conditions":[9.6E1,9.4E1,7.1E1,4.9748363E1,2E0,8E1,8E1,7.912328E-2,7.1E1,1E0,2.82E2,5.3E1,-7.910297E-2,9.7E1,9.9E1,2E0,7.907798E-2,9.5E1,2.53E1,2.72E2,1E0,1.5E1,3.19E2,1.28E1,6.202091E-2,1E0,1.032E3,6.209408E-2,4.251482E-2,3.2698054E-2,2.0848421E-2,6.3127787E-3,-1.3700445E-2,1.7065419E-2,7.420518E-2,-5.5498895E-3,-2.5739996E-2,-1.2937966E-2,-2.61396E-2,2.9299796E-2,-1.3356713E-2,5.460406E-2,-6.492778E-3,-2.786225E-2,-4.4427413E-2,-5.651469E-2,-2.3070535E-2],"split_indices":[9,9,10,7,3,7,7,0,10,4,6,10,0,9,9,3,0,9,2,6,4,10,6,2,0,3,6,0,0,0,0,0,0,0,0,0,0,0,0,0,0,0,0,0,0,0,0],"split_type":[0,0,0,0,0,0,0,0,0,0,0,0,0,0,0,0,0,0,0,0,0,0,0,0,0,0,0,0,0,0,0,0,0,0,0,0,0,0,0,0,0,0,0,0,0,0,0],"sum_hessian":[1.4089129E4,7.385702E3,6.703427E3,5.3755044E3,2.0101978E3,4.6147637E3,2.088663E3,2.3706335E3,3.004871E3,1.5236337E3,4.865641E2,4.5742175E2,4.157342E3,1.9880713E2,1.8898561E3,1.9381415E3,1.0667296E3,1.1978379E3,3.2579578E2,5.7325325E0,4.8083154E2,3.3541458E2,1.2200717E2,1.963606E2,2.4465332E0,1.4919191E3,3.9793695E2,1.5553325E3,3.828089E2,6.409016E2,5.569362E2,1.6445836E2,1.6133743E2,1.9989071E0,3.7336252E0,3.8894016E2,9.189141E1,9.948537E1,2.3592921E2,4.9866753E0,1.1702049E2,2.2489958E0,1.9411159E2,8.999769E2,5.919422E2,3.8648703E2,1.14499235E1],"tree_param":{"num_deleted":"0","num_feature":"11","num_nodes":"47","size_leaf_vector":"1"}},{"base_weights":[-4.07868E-6,1.0762668E0,-1.1875358E0,1.3872429E0,2.583548E-1,-1.4198157E0,-6.813585E-1,7.690543E-2,1.2684807E0,3.9277872E-1,-1.6179708E-1,-3.692504E-1,-7.688584E-2,-8.273332E-2,-7.4462396E-1,1.1212527E0,7.686195E-2,5.1855636E-1,-6.8619885E-2,1.1532519E0,-1.7978385E-1,-5.931409E-1,-3.2836106E-1,1.0424507E-1,-2.4053778E-1,-6.579479E-1,-1.0692925E0,5.983621E-2,4.0709656E-2,1.128708E-2,2.8259864E-2,3.980899E-3,-1.5853366E-2,1.6496355E-2,7.1628325E-2,-1.402677E-2,3.2336977E-3,-1.739003E-2,-5.4547917E-2,1.9079661E-2,-1.7814599E-2,-1.8089369E-3,3.3378016E-2,2.9993484E-2,-1.6826442E-2,-3.0153498E-2,-5.723862E-2,-5.392316E-2,1.7383987E-3],"categories":[],"categories_nodes":[],"categories_segments":[],"categories_sizes":[],"default_left":[0,0,0,0,0,0,0,0,0,0,0,0,0,0,0,0,0,0,0,0,0,0,0,0,0,0,0,0,0,0,0,0,0,0,0,0,0,0,0,0,0,0,0,0,0,0,0,0,0],"id":7,"left_children":[1,3,5,7,9,11,13,-1,15,17,19,21,-1,23,25,27,-1,29,31,33,35,37,39,41,43,45,47,-1,-1,-1,-1,-1,-1,-1,-1,-1,-1,-1,-1,-1,-1,-1,-1,-1,-1,-1,-1,-1,-1],"loss_changes":[1.774455E4,1.8520566E3,7.750918E2,9.258887E1,1.1344182E2,5.597197E2,7.864136E1,0E0,1.1532324E2,8.831421E1,1.1733635E1,3.995758E0,0E0,5.9191194E0,5.218347E1,4.340039E1,0E0,1.619867E1,1.20584135E1,1.0704393E0,1.1879407E1,8.102583E0,7.8555603E0,7.3115067E0,8.965416E0,3.900818E1,4.0308228E0,0E0,0E0,0E0,0E0,0E0,0E0,0E0,0E0,0E0,0E0,0E0,0E0,0E0,0E0,0E0,0E0,0E0,0E0,0E0,0E0,0E0,0E0],"parents":[2147483647,0,0,1,1,2,2,3,3,4,4,5,5,6,6,8,8,9,9,10,10,11,11,13,13,14,14,15,15,17,17,18,18,19,19,20,20,21,21,22,22,23,23,24,24,25,25,26,26],"right_children":[2,4,6,8,10,12,14,-1,16,18,20,22,-1,24,26,28,-1,30,32,34,36,38,40,42,44,46,48,-1,-1,-1,-1,-1,-1,-1,-1,-1,-1,-1,-1,-1,-1,-1,-1,-1,-1,-1,-1,-1,-1],"split_conditions":[9.6E1,9.4E1,7.1E1,4.9748363E1,2E0,8E1,8E1,7.690543E-2,7.1E1,1E0,2.82E2,3.78E2,-7.688584E-2,1E0,9.9E1,2E0,7.686195E-2,1.94E1,2.7E1,2.72E2,7.2E1,3.56E2,1.29E0,2.91E0,2.5E1,1E0,4.19E1,5.983621E-2,4.0709656E-2,1.128708E-2,2.8259864E-2,3.980899E-3,-1.5853366E-2,1.6496355E-2,7.1628325E-2,-1.402677E-2,3.2336977E-3,-1.739003E-2,-5.4547917E-2,1.9079661E-2,-1.7814599E-2,-1.8089369E-3,3.3378016E-2,2.9993484E-2,-1.6826442E-2,-3.0153498E-2,-5.723862E-2,-5.392316E-2,1.7383987E-3],"split_indices":[9,9,10,7,3,7,7,0,10,4,6,6,0,3,9,3,0,2,2,6,10,6,5,5,0,4,2,0,0,0,0,0,0,0,0,0,0,0,0,0,0,0,0,0,0,0,0,0,0],"split_type":[0,0,0,0,0,0,0,0,0,0,0,0,0,0,0,0,0,0,0,0,0,0,0,0,0,0,0,0,0,0,0,0,0,0,0,0,0,0,0,0,0,0,0,0,0,0,0,0,0],"sum_hessian":[1.3881476E4,7.281909E3,6.599567E3,5.275448E3,2.0064609E3,4.5224517E3,2.0771152E3,2.3183982E3,2.9570498E3,1.5201633E3,4.8629767E2,4.5674313E2,4.0657085E3,1.9875734E2,1.878358E3,1.9138165E3,1.0432332E3,1.1944353E3,3.2572803E2,5.7100253E0,4.8058765E2,6.844809E1,3.8829504E2,9.112505E1,1.0763229E2,1.4849503E3,3.9340765E2,1.5339036E3,3.7991296E2,1.6491675E2,1.0295186E3,2.0443187E2,1.2129614E2,1.998962E0,3.7110631E0,3.4022058E2,1.4036707E2,4.6989044E1,2.1459047E1,1.4218719E1,3.7407632E2,7.369105E1,1.7434006E1,1.0495383E1,9.713691E1,1.3365273E3,1.4842296E2,3.9018982E2,3.2178347E0],"tree_param":{"num_deleted":"0","num_feature":"11","num_nodes":"49","size_leaf_vector":"1"}},{"base_weights":[-4.287121E-6,1.0388697E0,-1.1480827E0,1.3459468E0,2.4600631E-1,-1.379795E0,-6.512647E-1,7.4697234E-2,1.2234492E0,3.7411815E-1,-1.5362763E-1,-3.5154274E-1,-7.489237E-2,-7.8402966E-2,-7.1217597E-1,1.0732471E0,7.486785E-2,4.942296E-1,-6.5243244E-2,1.1140924E0,-1.7089707E-1,-2.9126045E-1,-5.028505E-1,-1.0000772E-1,5.9673693E-2,-6.282422E-1,-1.028963E0,5.7086606E-2,3.743453E-2,-7.993237E-4,2.5961017E-2,4.5217355E-3,-1.5105309E-2,1.5947783E-2,6.927665E-2,-4.830747E-3,-2.4086434E-2,5.560718E-3,-1.7293561E-2,-5.941835E-2,-2.131323E-2,5.2956413E-2,-5.940057E-3,-2.5020612E-2,-4.112682E-2,-5.2340664E-2,-1.9801982E-2],"categories":[],"categories_nodes":[],"categories_segments":[],"categories_sizes":[],"default_left":[0,0,0,0,0,0,0,0,0,0,0,0,0,0,0,0,0,0,0,0,0,0,0,0,0,0,0,0,0,0,0,0,0,0,0,0,0,0,0,0,0,0,0,0,0,0,0],"id":8,"left_children":[1,3,5,7,9,11,13,-1,15,17,19,21,-1,23,25,27,-1,29,31,33,35,37,39,41,-1,43,45,-1,-1,-1,-1,-1,-1,-1,-1,-1,-1,-1,-1,-1,-1,-1,-1,-1,-1,-1,-1],"loss_changes":[1.6294283E4,1.7458076E3,7.461875E2,9.1890625E1,1.0262933E2,5.3658105E2,7.203357E1,0E0,1.1498486E2,8.0108536E1,1.0853292E1,4.0218124E0,0E0,5.606335E0,4.9003113E1,3.9905273E1,0E0,1.5203857E1,1.2072227E1,9.995432E-1,1.1067957E1,7.273405E0,6.256607E0,4.4231663E0,0E0,3.6315247E1,3.9865112E0,0E0,0E0,0E0,0E0,0E0,0E0,0E0,0E0,0E0,0E0,0E0,0E0,0E0,0E0,0E0,0E0,0E0,0E0,0E0,0E0],"parents":[2147483647,0,0,1,1,2,2,3,3,4,4,5,5,6,6,8,8,9,9,10,10,11,11,13,13,14,14,15,15,17,17,18,18,19,19,20,20,21,21,22,22,23,23,25,25,26,26],"right_children":[2,4,6,8,10,12,14,-1,16,18,20,22,-1,24,26,28,-1,30,32,34,36,38,40,42,-1,44,46,-1,-1,-1,-1,-1,-1,-1,-1,-1,-1,-1,-1,-1,-1,-1,-1,-1,-1,-1,-1],"split_conditions":[9.6E1,9.4E1,7.1E1,5.09E1,2E0,8E1,8E1,7.4697234E-2,7.1E1,1E0,2.82E2,7.4E1,-7.489237E-2,9.7E1,9.9E1,1E0,7.486785E-2,1.63E1,7.11E1,2.72E2,1E0,2.7E1,2.5E1,1.28E1,5.9673693E-2,1E0,1.032E3,5.7086606E-2,3.743453E-2,-7.993237E-4,2.5961017E-2,4.5217355E-3,-1.5105309E-2,1.5947783E-2,6.927665E-2,-4.830747E-3,-2.4086434E-2,5.560718E-3,-1.7293561E-2,-5.941835E-2,-2.131323E-2,5.2956413E-2,-5.940057E-3,-2.5020612E-2,-4.112682E-2,-5.2340664E-2,-1.9801982E-2],"split_indices":[9,9,10,7,3,7,7,0,10,4,6,8,0,9,9,4,0,2,7,6,4,0,0,2,0,3,6,0,0,0,0,0,0,0,0,0,0,0,0,0,0,0,0,0,0,0,0],"split_type":[0,0,0,0,0,0,0,0,0,0,0,0,0,0,0,0,0,0,0,0,0,0,0,0,0,0,0,0,0,0,0,0,0,0,0,0,0,0,0,0,0,0,0,0,0,0,0],"sum_hessian":[1.3659576E4,7.1708804E3,6.488696E3,5.168439E3,2.0024413E3,4.4237256E3,2.0649702E3,2.3355293E3,2.83291E3,1.5163911E3,4.860501E2,4.5598813E2,3.9677375E3,1.9868196E2,1.8662883E3,1.8327872E3,1.00012256E3,1.1907438E3,3.2564737E2,5.678638E0,4.8037146E2,3.2816812E2,1.2782E2,1.962694E2,2.4125638E0,1.4777395E3,3.885489E2,1.5113564E3,3.214308E2,5.5616974E1,1.1351268E3,1.9687177E2,1.287756E2,1.998739E0,3.6798992E0,3.8877365E2,9.15978E1,3.9084385E1,2.8908374E2,1.1386176E1,1.1643382E2,2.2482135E0,1.9402118E2,8.934783E2,5.8426117E2,3.7725522E2,1.1293655E1],"tree_param":{"num_deleted":"0","num_feature":"11","num_nodes":"47","size_leaf_vector":"1"}},{"base_weights":[-6.4644387E-6,1.0038276E0,-1.1113204E0,1.3078393E0,2.3426808E-1,-1.3431855E0,-6.227594E-1,7.311596E-2,1.1879941E0,3.5639048E-1,-1.4592762E-1,-3.347521E-1,-7.3092334E-2,-7.396705E-2,-6.815007E-1,1.041549E0,7.307002E-2,4.71129E-1,-6.202847E-2,-2.3884736E-1,8.065782E-2,-3.8994464E-1,-1.8130696E-1,1.0329818E-1,-2.2363918E-1,-6.0014313E-1,-9.910009E-1,5.5883177E-2,3.6757957E-2,2.8849432E-2,1.743697E-2,-1.2393328E-2,5.955533E-3,-7.800223E-3,-2.8519234E-2,1.839841E-2,-1.0914225E-2,-1.2891307E-2,-2.4690157E-2,-1.5526969E-3,-1.9655019E-2,-1.4778995E-3,3.184454E-2,2.8841881E-2,-1.575828E-2,-2.7354067E-2,-5.3690042E-2,-4.099093E-2,-5.32026E-2],"categories":[],"categories_nodes":[],"categories_segments":[],"categories_sizes":[],"default_left":[0,0,0,0,0,0,0,0,0,0,0,0,0,0,0,0,0,0,0,0,0,0,0,0,0,0,0,0,0,0,0,0,0,0,0,0,0,0,0,0,0,0,0,0,0,0,0,0,0],"id":9,"left_children":[1,3,5,7,9,11,13,-1,15,17,19,21,-1,23,25,27,-1,29,31,33,35,37,39,41,43,45,47,-1,-1,-1,-1,-1,-1,-1,-1,-1,-1,-1,-1,-1,-1,-1,-1,-1,-1,-1,-1,-1,-1],"loss_changes":[1.4980354E4,1.650331E3,7.211001E2,9.1890625E1,9.2873E1,5.165718E2,6.6131226E1,0E0,1.12717285E2,7.268594E1,1.0267134E1,3.7930145E0,0E0,5.3193755E0,4.609839E1,4.258911E1,0E0,1.5188446E1,1.1022943E1,9.3985405E0,1.2302537E1,4.4647827E0,3.8878274E0,6.5458093E0,8.134712E0,3.6381042E1,3.9352722E0,0E0,0E0,0E0,0E0,0E0,0E0,0E0,0E0,0E0,0E0,0E0,0E0,0E0,0E0,0E0,0E0,0E0,0E0,0E0,0E0,0E0,0E0],"parents":[2147483647,0,0,1,1,2,2,3,3,4,4,5,5,6,6,8,8,9,9,10,10,11,11,13,13,14,14,15,15,17,17,18,18,19,19,20,20,21,21,22,22,23,23,24,24,25,25,26,26],"right_children":[2,4,6,8,10,12,14,-1,16,18,20,22,-1,24,26,28,-1,30,32,34,36,38,40,42,44,46,48,-1,-1,-1,-1,-1,-1,-1,-1,-1,-1,-1,-1,-1,-1,-1,-1,-1,-1,-1,-1,-1,-1],"split_conditions":[9.6E1,9.4E1,7.1E1,4.9748363E1,2E0,8E1,8E1,7.311596E-2,7.1E1,1E0,7.2E1,5.3E1,-7.3092334E-2,1E0,9.9E1,2E0,7.307002E-2,9.5E1,5.3E1,1E0,9.5E1,2.43E1,7.118205E1,2.91E0,2.5E1,1E0,8E1,5.5883177E-2,3.6757957E-2,2.8849432E-2,1.743697E-2,-1.2393328E-2,5.955533E-3,-7.800223E-3,-2.8519234E-2,1.839841E-2,-1.0914225E-2,-1.2891307E-2,-2.4690157E-2,-1.5526969E-3,-1.9655019E-2,-1.4778995E-3,3.184454E-2,2.8841881E-2,-1.575828E-2,-2.7354067E-2,-5.3690042E-2,-4.099093E-2,-5.32026E-2],"split_indices":[9,9,10,7,3,7,7,0,10,4,10,10,0,3,9,3,0,9,10,4,9,2,8,5,0,4,10,0,0,0,0,0,0,0,0,0,0,0,0,0,0,0,0,0,0,0,0,0,0],"split_type":[0,0,0,0,0,0,0,0,0,0,0,0,0,0,0,0,0,0,0,0,0,0,0,0,0,0,0,0,0,0,0,0,0,0,0,0,0,0,0,0,0,0,0,0,0,0,0,0,0],"sum_hessian":[1.3426373E4,7.0543633E3,6.3720093E3,5.0562217E3,1.9981417E3,4.3200264E3,2.051983E3,2.2040322E3,2.8521895E3,1.5124055E3,4.8573615E2,4.5521674E2,3.8648098E3,1.9862088E2,1.8533619E3,1.8604712E3,9.9171826E2,1.1868285E3,3.2557712E2,3.4443408E2,1.4130205E2,3.3366125E2,1.2155548E2,9.107061E1,1.0755028E2,1.4699094E3,3.8345248E2,1.488135E3,3.723361E2,6.343979E2,5.5243054E2,1.6052231E2,1.6505482E2,2.767514E2,6.768271E1,7.193508E1,6.936697E1,1.4838412E2,1.8527711E2,7.177946E1,4.977602E1,7.3672035E1,1.7398571E1,1.049142E1,9.705885E1,1.3237686E3,1.4614091E2,1.1834782E2,2.6510468E2],"tree_param":{"num_deleted":"0","num_feature":"11","num_nodes":"49","size_leaf_vector":"1"}},{"base_weights":[-1.771401E-5,9.7087735E-1,-1.0768448E0,1.2726022E0,2.2307138E-1,-1.3095279E0,-5.9565586E-1,7.1483605E-2,1.151756E0,3.3953002E-1,-1.388025E-1,-3.187245E-1,-7.146067E-2,-7.0086345E-2,-6.522852E-1,1.0052419E0,7.143883E-2,4.4915852E-1,-5.8953587E-2,1.0853554E0,-1.5543357E-1,-5.380758E-1,-2.788364E-1,-9.061804E-2,5.7545062E-2,-5.7335335E-1,-9.551047E-1,5.4023065E-2,3.5245325E-2,2.2865618E-2,-5.3332288E-2,6.1145914E-3,-1.2176401E-2,1.576464E-2,6.743535E-2,-1.2339917E-2,3.289399E-3,-1.5120901E-2,-5.104983E-2,2.0012552E-2,-1.5287684E-2,-2.7075663E-2,-2.1212283E-3,-2.2467338E-2,-3.8155165E-2,-6.329059E-2,-4.559019E-2],"categories":[],"categories_nodes":[],"categories_segments":[],"categories_sizes":[],"default_left":[0,0,0,0,0,0,0,0,0,0,0,0,0,0,0,0,0,0,0,0,0,0,0,0,0,0,0,0,0,0,0,0,0,0,0,0,0,0,0,0,0,0,0,0,0,0,0],"id":10,"left_children":[1,3,5,7,9,11,13,-1,15,17,19,21,-1,23,25,27,-1,29,31,33,35,37,39,41,-1,43,45,-1,-1,-1,-1,-1,-1,-1,-1,-1,-1,-1,-1,-1,-1,-1,-1,-1,-1,-1,-1],"loss_changes":[1.3786525E4,1.5643462E3,6.9925244E2,9.213428E1,8.411312E1,4.9920605E2,6.066211E1,0E0,1.1210547E2,6.5964554E1,1.007075E1,3.8345833E0,0E0,5.106075E0,4.346118E1,4.065039E1,0E0,1.5119675E1,1.095379E1,9.2222834E-1,9.732608E0,7.5433292E0,7.203993E0,4.261105E0,0E0,3.4082275E1,3.9474487E0,0E0,0E0,0E0,0E0,0E0,0E0,0E0,0E0,0E0,0E0,0E0,0E0,0E0,0E0,0E0,0E0,0E0,0E0,0E0,0E0],"parents":[2147483647,0,0,1,1,2,2,3,3,4,4,5,5,6,6,8,8,9,9,10,10,11,11,13,13,14,14,15,15,17,17,18,18,19,19,20,20,21,21,22,22,23,23,25,25,26,26],"right_children":[2,4,6,8,10,12,14,-1,16,18,20,22,-1,24,26,28,-1,30,32,34,36,38,40,42,-1,44,46,-1,-1,-1,-1,-1,-1,-1,-1,-1,-1,-1,-1,-1,-1,-1,-1,-1,-1,-1,-1],"split_conditions":[9.6E1,9.4E1,7.1E1,4.9748363E1,2E0,8E1,8E1,7.1483605E-2,7.1E1,1E0,2.82E2,3.78E2,-7.146067E-2,9.7E1,9.9E1,2E0,7.143883E-2,8.9E1,2.53E1,2.72E2,7.2E1,3.56E2,1.29E0,1.24E0,5.7545062E-2,1E0,5.14E2,5.4023065E-2,3.5245325E-2,2.2865618E-2,-5.3332288E-2,6.1145914E-3,-1.2176401E-2,1.576464E-2,6.743535E-2,-1.2339917E-2,3.289399E-3,-1.5120901E-2,-5.104983E-2,2.0012552E-2,-1.5287684E-2,-2.7075663E-2,-2.1212283E-3,-2.2467338E-2,-3.8155165E-2,-6.329059E-2,-4.559019E-2],"split_indices":[9,9,10,7,3,7,7,0,10,4,6,6,0,9,9,3,0,0,2,6,10,6,5,5,0,3,6,0,0,0,0,0,0,0,0,0,0,0,0,0,0,0,0,0,0,0,0],"split_type":[0,0,0,0,0,0,0,0,0,0,0,0,0,0,0,0,0,0,0,0,0,0,0,0,0,0,0,0,0,0,0,0,0,0,0,0,0,0,0,0,0,0,0,0,0,0,0],"sum_hessian":[1.3184713E4,6.933442E3,6.251271E3,4.939678E3,1.9937635E3,4.2125396E3,2.0387314E3,2.1432085E3,2.7964695E3,1.5083927E3,4.8537085E2,4.5441113E2,3.7581287E3,1.985211E2,1.8402103E3,1.8321089E3,9.643607E2,1.1828474E3,3.255453E2,5.6444016E0,4.7972644E2,6.799666E1,3.864145E2,1.9614853E2,2.3725815E0,1.4620188E3,3.7819153E2,1.4630807E3,3.690282E2,1.1772133E3,5.6341696E0,1.6442415E2,1.6112112E2,1.9983331E0,3.6460686E0,3.3942706E2,1.402994E2,4.6790066E1,2.120659E1,1.42037115E1,3.722108E2,1.7952238E1,1.7819629E2,8.8621924E2,5.757996E2,4.280565E1,3.3538586E2],"tree_param":{"num_deleted":"0","num_feature":"11","num_nodes":"47","size_leaf_vector":"1"}},{"base_weights":[-2.8939054E-5,9.39751E-1,-1.0444292E0,1.2398137E0,2.1243417E-1,-1.278456E0,-5.6992185E-1,6.99989E-2,1.1176834E0,3.2344952E-1,-1.3179228E-1,-3.0351466E-1,-6.997648E-2,-4.9017778E-1,-9.210646E-1,9.7084886E-1,6.995494E-2,4.281824E-1,-5.604181E-2,1.0508955E0,-1.4776337E-1,-2.4582897E-1,-4.4875586E-1,-6.646017E-2,-5.479367E-1,-9.3060505E-1,1.5270175E-1,5.1975507E-2,3.23295E-2,7.690102E-3,2.361015E-2,4.5948164E-3,-1.4067972E-2,1.52421845E-2,6.542634E-2,-3.995922E-3,-2.16644E-2,6.826903E-3,-1.4899656E-2,-2.4719024E-2,2.6191726E-2,-4.312659E-3,5.606834E-2,-2.4826145E-2,-5.0522376E-2,-6.295362E-2,-4.432268E-2,-2.1994485E-2,4.3501258E-2],"categories":[],"categories_nodes":[],"categories_segments":[],"categories_sizes":[],"default_left":[0,0,0,0,0,0,0,0,0,0,0,0,0,0,0,0,0,0,0,0,0,0,0,0,0,0,0,0,0,0,0,0,0,0,0,0,0,0,0,0,0,0,0,0,0,0,0,0,0],"id":11,"left_children":[1,3,5,7,9,11,13,-1,15,17,19,21,-1,23,25,27,-1,29,31,33,35,37,39,41,43,45,47,-1,-1,-1,-1,-1,-1,-1,-1,-1,-1,-1,-1,-1,-1,-1,-1,-1,-1,-1,-1,-1,-1],"loss_changes":[1.2699422E4,1.4860562E3,6.797969E2,9.27417E1,7.610126E1,4.8392676E2,5.6278076E1,0E0,1.1187549E2,5.985022E1,9.336539E0,3.6981049E0,0E0,4.042169E1,3.971405E0,3.949243E1,0E0,1.4177338E1,1.0907551E1,8.6961174E-1,9.27272E0,6.573988E0,5.9390583E0,4.7859755E0,3.4089966E1,4.2591553E0,2.1472354E0,0E0,0E0,0E0,0E0,0E0,0E0,0E0,0E0,0E0,0E0,0E0,0E0,0E0,0E0,0E0,0E0,0E0,0E0,0E0,0E0,0E0,0E0],"parents":[2147483647,0,0,1,1,2,2,3,3,4,4,5,5,6,6,8,8,9,9,10,10,11,11,13,13,14,14,15,15,17,17,18,18,19,19,20,20,21,21,22,22,23,23,24,24,25,25,26,26],"right_children":[2,4,6,8,10,12,14,-1,16,18,20,22,-1,24,26,28,-1,30,32,34,36,38,40,42,44,46,48,-1,-1,-1,-1,-1,-1,-1,-1,-1,-1,-1,-1,-1,-1,-1,-1,-1,-1,-1,-1,-1,-1],"split_conditions":[9.6E1,9.4E1,7.1E1,4.9748363E1,2E0,8E1,9.9E1,6.99989E-2,7.1E1,1E0,2.82E2,7.4E1,-6.997648E-2,8E1,4.19E1,1E0,6.995494E-2,1.94E1,7.11E1,2.72E2,1E0,2.7E1,3.73E1,9.7E1,1E0,5.14E2,2.57E0,5.1975507E-2,3.23295E-2,7.690102E-3,2.361015E-2,4.5948164E-3,-1.4067972E-2,1.52421845E-2,6.542634E-2,-3.995922E-3,-2.16644E-2,6.826903E-3,-1.4899656E-2,-2.4719024E-2,2.6191726E-2,-4.312659E-3,5.606834E-2,-2.4826145E-2,-5.0522376E-2,-6.295362E-2,-4.432268E-2,-2.1994485E-2,4.3501258E-2],"split_indices":[9,9,10,7,3,7,9,0,10,4,6,8,0,7,2,4,0,2,7,6,4,0,2,9,4,6,5,0,0,0,0,0,0,0,0,0,0,0,0,0,0,0,0,0,0,0,0,0,0],"split_type":[0,0,0,0,0,0,0,0,0,0,0,0,0,0,0,0,0,0,0,0,0,0,0,0,0,0,0,0,0,0,0,0,0,0,0,0,0,0,0,0,0,0,0,0,0,0,0,0,0],"sum_hessian":[1.2936705E4,6.8094634E3,6.127241E3,4.8201514E3,1.9893119E3,4.1022964E3,2.0249447E3,2.0808357E3,2.7393157E3,1.5042435E3,4.8506836E2,4.535562E2,3.6487402E3,1.6521416E3,3.7280316E2,1.8030076E3,9.363082E2,1.17879E3,3.2545346E2,5.5997157E0,4.7946863E2,3.2655167E2,1.2700456E2,1.9845215E2,1.4536895E3,3.6965213E2,3.151034E0,1.4861184E3,3.1688913E2,1.6359528E2,1.0151948E3,1.96819E2,1.2863448E2,1.9977791E0,3.6019366E0,3.8844757E2,9.102107E1,3.900738E1,2.8754428E2,1.2178334E2,5.2212205E0,1.9611168E2,2.3404648E0,1.3101263E3,1.4356313E2,4.053937E1,3.2911276E2,1.9373355E0,1.2136987E0],"tree_param":{"num_deleted":"0","num_feature":"11","num_nodes":"49","size_leaf_vector":"1"}},{"base_weights":[-3.15283E-5,9.1021955E-1,-1.0137354E0,1.2090976E0,2.0234637E-1,-1.2496208E0,-5.4532725E-1,1.3673478E0,1.0810351E0,3.082014E-1,-1.2518303E-1,-2.8892094E-1,-6.8622164E-2,-4.6811196E-1,-8.8870203E-1,6.864422E-2,1.2124316E0,9.2949456E-1,6.859897E-2,4.0829644E-1,-5.328413E-2,1.1417543E-2,-2.5991517E-1,-5.023711E-1,-2.502315E-1,-6.289246E-2,-5.2364784E-1,-9.0705097E-1,-2.6197496E-1,6.2289964E-2,-1.7030586E-2,4.9891844E-2,3.0555228E-2,2.5532782E-2,1.4517474E-2,4.1472306E-3,-1.4102063E-2,-6.7319884E-3,1.761877E-2,-1.0161628E-4,-2.0044748E-2,-1.3803734E-2,-4.8515167E-2,1.9991053E-2,-1.3806782E-2,5.2049323E-3,-1.01977205E-2,-2.016358E-2,-3.5458233E-2,-3.6513418E-2,-4.9111404E-2,5.6275386E-2,-3.8060132E-2],"categories":[],"categories_nodes":[],"categories_segments":[],"categories_sizes":[],"default_left":[0,0,0,0,0,0,0,0,0,0,0,0,0,0,0,0,0,0,0,0,0,0,0,0,0,0,0,0,0,0,0,0,0,0,0,0,0,0,0,0,0,0,0,0,0,0,0,0,0,0,0,0,0],"id":12,"left_children":[1,3,5,7,9,11,13,15,17,19,21,23,-1,25,27,-1,29,31,-1,33,35,37,39,41,43,45,47,49,51,-1,-1,-1,-1,-1,-1,-1,-1,-1,-1,-1,-1,-1,-1,-1,-1,-1,-1,-1,-1,-1,-1,-1,-1],"loss_changes":[1.1706527E4,1.4139897E3,6.6252295E2,9.376953E1,6.8882935E1,4.7055225E2,5.293268E1,1.3500977E-1,1.1346777E2,5.4330597E1,8.942294E0,3.621006E0,0E0,3.6982666E1,3.997589E0,0E0,4.6198807E0,3.6692627E1,0E0,1.4044479E1,1.0194172E1,1.2106006E1,8.890896E0,6.998846E0,6.611437E0,4.718107E0,3.2015533E1,4.0326233E0,9.086967E0,0E0,0E0,0E0,0E0,0E0,0E0,0E0,0E0,0E0,0E0,0E0,0E0,0E0,0E0,0E0,0E0,0E0,0E0,0E0,0E0,0E0,0E0,0E0,0E0],"parents":[2147483647,0,0,1,1,2,2,3,3,4,4,5,5,6,6,7,7,8,8,9,9,10,10,11,11,13,13,14,14,16,16,17,17,19,19,20,20,21,21,22,22,23,23,24,24,25,25,26,26,27,27,28,28],"right_children":[2,4,6,8,10,12,14,16,18,20,22,24,-1,26,28,-1,30,32,-1,34,36,38,40,42,44,46,48,50,52,-1,-1,-1,-1,-1,-1,-1,-1,-1,-1,-1,-1,-1,-1,-1,-1,-1,-1,-1,-1,-1,-1,-1,-1],"split_conditions":[9.6E1,9.4E1,7.1E1,5.11E1,2E0,8E1,9.9E1,4.9748363E1,7.1E1,1E0,9.5E1,3.78E2,-6.8622164E-2,8E1,1.032E3,6.864422E-2,3.73E1,1E0,6.859897E-2,9.5E1,2.7E1,7.2E1,4.3E1,3.56E2,1.29E0,1E0,1E0,8E1,1.91E1,6.2289964E-2,-1.7030586E-2,4.9891844E-2,3.0555228E-2,2.5532782E-2,1.4517474E-2,4.1472306E-3,-1.4102063E-2,-6.7319884E-3,1.761877E-2,-1.0161628E-4,-2.0044748E-2,-1.3803734E-2,-4.8515167E-2,1.9991053E-2,-1.3806782E-2,5.2049323E-3,-1.01977205E-2,-2.016358E-2,-3.5458233E-2,-3.6513418E-2,-4.9111404E-2,5.6275386E-2,-3.8060132E-2],"split_indices":[9,9,10,8,3,7,9,7,10,4,9,6,0,7,6,0,2,4,0,9,2,10,0,6,5,3,3,10,2,0,0,0,0,0,0,0,0,0,0,0,0,0,0,0,0,0,0,0,0,0,0,0,0],"split_type":[0,0,0,0,0,0,0,0,0,0,0,0,0,0,0,0,0,0,0,0,0,0,0,0,0,0,0,0,0,0,0,0,0,0,0,0,0,0,0,0,0,0,0,0,0,0,0,0,0,0,0,0,0],"sum_hessian":[1.2684906E4,6.6835464E3,6.00136E3,4.698879E3,1.9846675E3,3.9902463E3,2.0111134E3,2.0973945E3,2.6014844E3,1.499953E3,4.8471445E2,4.5269336E2,3.537553E3,1.6438267E3,3.6728677E2,2.0174333E3,7.996125E1,1.7132957E3,8.8818866E2,1.1745826E3,3.2537042E2,2.4114279E2,2.4357164E2,6.7624344E1,3.8506903E2,1.9839114E2,1.4454354E3,3.5640488E2,1.0881892E1,7.847305E1,1.4881948E0,1.4087695E3,3.0452612E2,6.2706244E2,5.475202E2,2.0432741E2,1.21043015E2,1.6924698E2,7.189581E1,8.6450035E1,1.5712161E2,4.6652668E1,2.0971674E1,1.4203508E1,3.708655E2,9.096616E1,1.0742497E2,8.7854675E2,5.668887E2,1.0953708E2,2.468678E2,2.5474296E0,8.334463E0],"tree_param":{"num_deleted":"0","num_feature":"11","num_nodes":"53","size_leaf_vector":"1"}},{"base_weights":[-4.1936866E-5,8.821008E-1,-9.8465E-1,1.1802623E0,1.9271027E-1,-1.2227812E0,-5.219267E-1,6.740459E-2,1.0548086E0,2.9368326E-1,-1.1902783E-1,-2.7516028E-1,-6.738276E-2,-4.471571E-1,-8.5777783E-1,9.0669024E-1,6.736424E-2,3.8934642E-1,-5.066807E-2,1.0246474E0,-1.343951E-1,-2.8292668E-1,6.7690986E-1,-5.978778E-2,-5.0055045E-1,-8.673552E-1,1.84757E-1,4.925389E-2,2.9939687E-2,1.9862136E-2,-5.276239E-2,-2.299047E-4,-3.574497E-2,1.5237473E-2,6.367465E-2,-4.4517247E-3,-2.6174081E-2,-2.4560837E-2,-1.2279838E-2,-1.2193553E-3,6.1366946E-2,-5.7647284E-3,1.7219989E-2,-2.2533583E-2,-4.766458E-2,-5.9907258E-2,-4.1166615E-2,-1.9987162E-2,4.3519583E-2],"categories":[],"categories_nodes":[],"categories_segments":[],"categories_sizes":[],"default_left":[0,0,0,0,0,0,0,0,0,0,0,0,0,0,0,0,0,0,0,0,0,0,0,0,0,0,0,0,0,0,0,0,0,0,0,0,0,0,0,0,0,0,0,0,0,0,0,0,0],"id":13,"left_children":[1,3,5,7,9,11,13,-1,15,17,19,21,-1,23,25,27,-1,29,31,33,35,37,39,41,43,45,47,-1,-1,-1,-1,-1,-1,-1,-1,-1,-1,-1,-1,-1,-1,-1,-1,-1,-1,-1,-1,-1,-1],"loss_changes":[1.0798535E4,1.347669E3,6.4673193E2,9.4956055E1,6.239241E1,4.5854443E2,4.978772E1,0E0,1.124541E2,4.9322037E1,8.668486E0,3.5396118E0,0E0,3.381201E1,3.7818604E0,4.152478E1,0E0,1.3781082E1,9.980954E0,7.855649E-1,8.422131E0,3.377102E0,1.5579947E0,4.5120583E0,3.2040894E1,4.25E0,2.0015216E0,0E0,0E0,0E0,0E0,0E0,0E0,0E0,0E0,0E0,0E0,0E0,0E0,0E0,0E0,0E0,0E0,0E0,0E0,0E0,0E0,0E0,0E0],"parents":[2147483647,0,0,1,1,2,2,3,3,4,4,5,5,6,6,8,8,9,9,10,10,11,11,13,13,14,14,15,15,17,17,18,18,19,19,20,20,21,21,22,22,23,23,24,24,25,25,26,26],"right_children":[2,4,6,8,10,12,14,-1,16,18,20,22,-1,24,26,28,-1,30,32,34,36,38,40,42,44,46,48,-1,-1,-1,-1,-1,-1,-1,-1,-1,-1,-1,-1,-1,-1,-1,-1,-1,-1,-1,-1,-1,-1],"split_conditions":[9.6E1,9.4E1,7.1E1,4.9748363E1,2E0,8E1,9.9E1,6.740459E-2,7.1E1,1E0,2.82E2,4.4E1,-6.738276E-2,8E1,4.19E1,2E0,6.736424E-2,8.9E1,7.9E1,2.72E2,8.2E1,3.78E2,1.5932779E0,3.2429652E0,1E0,5.14E2,2.57E0,4.925389E-2,2.9939687E-2,1.9862136E-2,-5.276239E-2,-2.299047E-4,-3.574497E-2,1.5237473E-2,6.367465E-2,-4.4517247E-3,-2.6174081E-2,-2.4560837E-2,-1.2279838E-2,-1.2193553E-3,6.1366946E-2,-5.7647284E-3,1.7219989E-2,-2.2533583E-2,-4.766458E-2,-5.9907258E-2,-4.1166615E-2,-1.9987162E-2,4.3519583E-2],"split_indices":[9,9,10,7,3,7,9,0,10,4,6,2,0,7,2,3,0,0,7,6,0,6,5,5,4,6,5,0,0,0,0,0,0,0,0,0,0,0,0,0,0,0,0,0,0,0,0,0,0],"split_type":[0,0,0,0,0,0,0,0,0,0,0,0,0,0,0,0,0,0,0,0,0,0,0,0,0,0,0,0,0,0,0,0,0,0,0,0,0,0,0,0,0,0,0,0,0,0,0,0,0],"sum_hessian":[1.2430617E4,6.5565195E3,5.8740977E3,4.5764795E3,1.98004E3,3.8771555E3,1.996942E3,1.9534491E3,2.6230303E3,1.4956515E3,4.8438858E2,4.5180273E2,3.4253528E3,1.6352273E3,3.6171472E2,1.7439462E3,8.790842E2,1.170381E3,3.2527048E2,5.551518E0,4.7883707E2,4.4884418E2,2.9585676E0,1.983457E2,1.4368816E3,3.5858853E2,3.1261976E0,1.3882992E3,3.5564697E2,1.1647395E3,5.64158E0,3.051151E2,2.0155354E1,1.9975009E0,3.5540168E0,4.2994226E2,4.889482E1,6.6368484E1,3.8247568E2,1.7212421E0,1.2373255E0,1.7502448E2,2.3321236E1,1.2960863E3,1.4079523E2,3.903819E1,3.1955032E2,1.912648E0,1.2135495E0],"tree_param":{"num_deleted":"0","num_feature":"11","num_nodes":"49","size_leaf_vector":"1"}},{"base_weights":[-5.2609423E-5,8.5524136E-1,-9.5688313E-1,1.153112E0,1.835023E-1,-1.197641E0,-4.995257E-1,6.62673E-2,1.0257465E0,2.797736E-1,-1.13036655E-1,-2.542601E-1,-1.3238965E0,-4.2710805E-1,-8.2821393E-1,8.768479E-1,6.622678E-2,3.7121522E-1,-4.8254862E-2,1.6801417E-2,-2.4123853E-1,-1.9392025E-1,-3.9039117E-1,-6.8632936E-1,-6.6245556E-2,-5.675689E-2,-4.784406E-1,-8.4659016E-1,-2.1348557E-1,4.7729205E-2,2.8725345E-2,-9.931414E-3,1.9577594E-2,-4.945244E-3,2.740924E-2,-6.1149113E-3,1.7062161E-2,9.5699215E-5,-1.8721972E-2,-3.5784591E-3,-1.7283307E-2,-2.3211518E-2,8.265131E-4,-4.8546243E-2,2.0555712E-2,-3.7819517E-3,5.4416157E-2,-1.807889E-2,-3.299477E-2,-2.9830128E-2,-4.4941906E-2,5.5569965E-2,-3.5278436E-2],"categories":[],"categories_nodes":[],"categories_segments":[],"categories_sizes":[],"default_left":[0,0,0,0,0,0,0,0,0,0,0,0,0,0,0,0,0,0,0,0,0,0,0,0,0,0,0,0,0,0,0,0,0,0,0,0,0,0,0,0,0,0,0,0,0,0,0,0,0,0,0,0,0],"id":14,"left_children":[1,3,5,7,9,11,13,-1,15,17,19,21,23,25,27,29,-1,31,33,35,37,39,41,43,-1,45,47,49,51,-1,-1,-1,-1,-1,-1,-1,-1,-1,-1,-1,-1,-1,-1,-1,-1,-1,-1,-1,-1,-1,-1,-1,-1],"loss_changes":[9.965912E3,1.2863838E3,6.3229443E2,9.635742E1,5.6458282E1,4.4807666E2,4.686905E1,0E0,1.1296362E2,4.478347E1,8.079271E0,3.5846615E0,1.2382812E0,3.0918976E1,3.8534393E0,3.975891E1,0E0,1.3604004E1,9.909235E0,1.09614E1,7.908862E0,5.7446785E0,4.0901356E0,2.6947117E0,0E0,4.3912773E0,3.0074432E1,3.9884338E0,8.413875E0,0E0,0E0,0E0,0E0,0E0,0E0,0E0,0E0,0E0,0E0,0E0,0E0,0E0,0E0,0E0,0E0,0E0,0E0,0E0,0E0,0E0,0E0,0E0,0E0],"parents":[2147483647,0,0,1,1,2,2,3,3,4,4,5,5,6,6,8,8,9,9,10,10,11,11,12,12,13,13,14,14,15,15,17,17,18,18,19,19,20,20,21,21,22,22,23,23,25,25,26,26,27,27,28,28],"right_children":[2,4,6,8,10,12,14,-1,16,18,20,22,24,26,28,30,-1,32,34,36,38,40,42,44,-1,46,48,50,52,-1,-1,-1,-1,-1,-1,-1,-1,-1,-1,-1,-1,-1,-1,-1,-1,-1,-1,-1,-1,-1,-1,-1,-1],"split_conditions":[9.6E1,9.4E1,7.1E1,4.9748363E1,2E0,7.95E1,9.9E1,6.62673E-2,7.1E1,1E0,9.5E1,2E0,8E1,8E1,1.032E3,2E0,6.622678E-2,1.56E1,3.37E0,7.2E1,4.3E1,7.09E1,6.03E2,3.5E0,-6.6245556E-2,9.7E1,1E0,7.6E1,1.91E1,4.7729205E-2,2.8725345E-2,-9.931414E-3,1.9577594E-2,-4.945244E-3,2.740924E-2,-6.1149113E-3,1.7062161E-2,9.5699215E-5,-1.8721972E-2,-3.5784591E-3,-1.7283307E-2,-2.3211518E-2,8.265131E-4,-4.8546243E-2,2.0555712E-2,-3.7819517E-3,5.4416157E-2,-1.807889E-2,-3.299477E-2,-2.9830128E-2,-4.4941906E-2,5.5569965E-2,-3.5278436E-2],"split_indices":[9,9,10,7,3,8,9,0,10,4,9,3,7,7,6,3,0,2,5,10,0,7,6,5,0,9,3,10,2,0,0,0,0,0,0,0,0,0,0,0,0,0,0,0,0,0,0,0,0,0,0,0,0],"split_type":[0,0,0,0,0,0,0,0,0,0,0,0,0,0,0,0,0,0,0,0,0,0,0,0,0,0,0,0,0,0,0,0,0,0,0,0,0,0,0,0,0,0,0,0,0,0,0,0,0,0,0,0,0],"sum_hessian":[1.2175739E4,6.4290396E3,5.746699E3,4.4534985E3,1.975541E3,3.7637842E3,1.9829149E3,1.8892705E3,2.564228E3,1.4914113E3,4.8412967E2,4.446177E2,3.3191665E3,1.6267938E3,3.5612115E2,1.7140056E3,8.502225E2,1.1661908E3,3.252205E2,2.4096167E2,2.4316801E2,3.0974728E2,1.348704E2,6.349817E0,3.3128167E3,1.9828986E2,1.4285039E3,3.454183E2,1.0702837E1,1.3617286E3,3.5227707E2,3.9883E1,1.1263079E3,3.005332E2,2.4687288E1,1.690899E2,7.187176E1,8.641208E1,1.5675594E2,1.722974E2,1.3744989E2,1.140367E2,2.0833715E1,5.1337795E0,1.2160368E0,1.9599193E2,2.297923E0,8.707226E2,5.577814E2,6.1859882E1,2.8355844E2,2.557761E0,8.145076E0],"tree_param":{"num_deleted":"0","num_feature":"11","num_nodes":"53","size_leaf_vector":"1"}},{"base_weights":[-6.1800514E-5,8.295363E-1,-9.303719E-1,1.1274073E0,1.747694E-1,-1.1740562E0,-4.7812444E-1,1.2993015E0,9.940926E-1,2.6659957E-1,-1.0748404E-1,-2.4938318E-1,-6.5199584E-2,-4.0798786E-1,-7.998145E-1,6.522133E-2,1.1317632E0,8.407809E-1,6.5176934E-2,3.5399154E-1,-4.5777287E-2,9.9963367E-1,-1.2227129E-1,-3.0284178E-1,-1.01737134E-1,-5.3677395E-2,-4.5737794E-1,-7.613046E-1,-1.1514031E0,6.466635E-2,2.3371449E-2,4.5594327E-2,2.5700722E-2,2.012698E-2,5.9412974E-3,-1.1078453E-2,6.2690275E-3,1.5198059E-2,6.2037922E-2,-2.9064657E-3,-1.9682351E-2,-1.1733491E-2,-2.5570497E-2,-8.291553E-3,1.807071E-2,5.2322377E-3,-9.37567E-3,-2.0448009E-2,-4.506275E-2,-3.8545053E-2,2.228471E-2,-6.2640876E-2,-1.2872343E-2],"categories":[],"categories_nodes":[],"categories_segments":[],"categories_sizes":[],"default_left":[0,0,0,0,0,0,0,0,0,0,0,0,0,0,0,0,0,0,0,0,0,0,0,0,0,0,0,0,0,0,0,0,0,0,0,0,0,0,0,0,0,0,0,0,0,0,0,0,0,0,0,0,0],"id":15,"left_children":[1,3,5,7,9,11,13,15,17,19,21,23,-1,25,27,-1,29,31,-1,33,35,37,39,41,43,45,47,49,51,-1,-1,-1,-1,-1,-1,-1,-1,-1,-1,-1,-1,-1,-1,-1,-1,-1,-1,-1,-1,-1,-1,-1,-1],"loss_changes":[9.202004E3,1.2290508E3,6.188345E2,9.7975586E1,5.113918E1,4.384165E2,4.411429E1,1.4550781E-1,1.1484741E2,4.0640945E1,8.058607E0,3.530096E0,0E0,2.8309784E1,3.8830109E0,0E0,6.2241135E0,3.756836E1,0E0,1.3229095E1,9.842516E0,7.1295214E-1,8.3197E0,4.5822945E0,3.6646874E0,4.2410655E0,3.0169434E1,4.0475616E0,2.6466675E0,0E0,0E0,0E0,0E0,0E0,0E0,0E0,0E0,0E0,0E0,0E0,0E0,0E0,0E0,0E0,0E0,0E0,0E0,0E0,0E0,0E0,0E0,0E0,0E0],"parents":[2147483647,0,0,1,1,2,2,3,3,4,4,5,5,6,6,7,7,8,8,9,9,10,10,11,11,13,13,14,14,16,16,17,17,19,19,20,20,21,21,22,22,23,23,24,24,25,25,26,26,27,27,28,28],"right_children":[2,4,6,8,10,12,14,16,18,20,22,24,-1,26,28,-1,30,32,-1,34,36,38,40,42,44,46,48,50,52,-1,-1,-1,-1,-1,-1,-1,-1,-1,-1,-1,-1,-1,-1,-1,-1,-1,-1,-1,-1,-1,-1,-1,-1],"split_conditions":[9.6E1,9.4E1,7.1E1,5.09E1,2E0,8E1,9.9E1,4.9748363E1,7.1E1,1E0,2.82E2,5.3E1,-6.5199584E-2,8E1,2E0,6.522133E-2,2E0,1E0,6.5176934E-2,7.66E1,5.3E1,2.72E2,1E0,7.2E1,3.36E1,1E0,1E0,4.19E1,7.8E1,6.466635E-2,2.3371449E-2,4.5594327E-2,2.5700722E-2,2.012698E-2,5.9412974E-3,-1.1078453E-2,6.2690275E-3,1.5198059E-2,6.2037922E-2,-2.9064657E-3,-1.9682351E-2,-1.1733491E-2,-2.5570497E-2,-8.291553E-3,1.807071E-2,5.2322377E-3,-9.37567E-3,-2.0448009E-2,-4.506275E-2,-3.8545053E-2,2.228471E-2,-6.2640876E-2,-1.2872343E-2],"split_indices":[9,9,10,7,3,7,9,7,10,4,6,10,0,7,3,0,3,4,0,7,10,6,4,0,2,3,4,2,0,0,0,0,0,0,0,0,0,0,0,0,0,0,0,0,0,0,0,0,0,0,0,0,0],"split_type":[0,0,0,0,0,0,0,0,0,0,0,0,0,0,0,0,0,0,0,0,0,0,0,0,0,0,0,0,0,0,0,0,0,0,0,0,0,0,0,0,0,0,0,0,0,0,0,0,0,0,0,0,0],"sum_hessian":[1.1921038E4,6.301671E3,5.6193667E3,4.330767E3,1.9709038E3,3.6506777E3,1.9686891E3,1.8878512E3,2.4429158E3,1.4871276E3,4.837762E2,4.5015018E2,3.2005276E3,1.618158E3,3.5053116E2,1.8252297E3,6.2621502E1,1.6360634E3,8.0685254E2,1.161928E3,3.2519955E2,5.4985704E0,4.7827765E2,3.297174E2,1.2043276E2,1.9822615E2,1.4199318E3,3.1878018E2,3.1751001E1,4.9609764E1,1.3011737E1,1.3422041E3,2.938592E2,9.625131E2,1.9941484E2,1.6028278E2,1.649168E2,1.9971529E0,3.5014176E0,3.8782587E2,9.0451775E1,2.5009673E2,7.962069E1,1.06356415E2,1.4076347E1,9.09062E1,1.07319954E2,1.2820122E3,1.379196E2,3.166241E2,2.156054E0,2.8155487E1,3.595515E0],"tree_param":{"num_deleted":"0","num_feature":"11","num_nodes":"53","size_leaf_vector":"1"}},{"base_weights":[-6.5115404E-5,8.0482423E-1,-9.049168E-1,1.1029353E0,1.6647221E-1,-1.1518216E0,-4.576425E-1,6.425726E-2,9.713141E-1,2.5402206E-1,-1.0207679E-1,-2.3742877E-1,-6.423538E-2,-3.897136E-1,-7.7255464E-1,8.20612E-1,6.42183E-2,3.3754548E-1,-4.3510523E-2,1.0701076E0,-1.1531896E-1,-2.254568E-1,-9.316795E-1,-2.8337556E-1,-5.436826E-1,-1.0895827E0,-7.295937E-1,4.4982538E-2,2.5884306E-2,1.6361447E-2,7.515324E-2,4.824323E-3,-1.2854553E-2,6.272449E-2,2.0041952E-2,-3.4389931E-3,-2.5949636E-2,-1.4238337E-2,-2.546529E-3,-6.135136E-2,1.2987667E-3,-1.1393859E-2,-3.6410317E-2,-2.1678118E-2,-4.165669E-2,-5.985682E-2,5.4673557E-3,-2.3860734E-2,-3.9235625E-2],"categories":[],"categories_nodes":[],"categories_segments":[],"categories_sizes":[],"default_left":[0,0,0,0,0,0,0,0,0,0,0,0,0,0,0,0,0,0,0,0,0,0,0,0,0,0,0,0,0,0,0,0,0,0,0,0,0,0,0,0,0,0,0,0,0,0,0,0,0],"id":16,"left_children":[1,3,5,7,9,11,13,-1,15,17,19,21,-1,23,25,27,-1,29,31,33,35,37,39,41,43,45,47,-1,-1,-1,-1,-1,-1,-1,-1,-1,-1,-1,-1,-1,-1,-1,-1,-1,-1,-1,-1,-1,-1],"loss_changes":[8.499701E3,1.1751885E3,6.062085E2,9.9720215E1,4.628144E1,4.2975586E2,4.15365E1,0E0,1.1445801E2,3.6892418E1,7.642481E0,3.5327835E0,0E0,2.6218948E1,3.917572E0,3.917334E1,0E0,1.3441772E1,9.777E0,1.7690516E-1,8.979951E0,4.581436E0,2.100741E0,2.3406853E1,2.0578186E1,5.194153E0,3.906433E0,0E0,0E0,0E0,0E0,0E0,0E0,0E0,0E0,0E0,0E0,0E0,0E0,0E0,0E0,0E0,0E0,0E0,0E0,0E0,0E0,0E0,0E0],"parents":[2147483647,0,0,1,1,2,2,3,3,4,4,5,5,6,6,8,8,9,9,10,10,11,11,13,13,14,14,15,15,17,17,18,18,19,19,20,20,21,21,22,22,23,23,24,24,25,25,26,26],"right_children":[2,4,6,8,10,12,14,-1,16,18,20,22,-1,24,26,28,-1,30,32,34,36,38,40,42,44,46,48,-1,-1,-1,-1,-1,-1,-1,-1,-1,-1,-1,-1,-1,-1,-1,-1,-1,-1,-1,-1,-1,-1],"split_conditions":[9.6E1,9.4E1,7.1E1,4.9748363E1,2E0,8E1,9.9E1,6.425726E-2,7.1E1,1E0,8.329484E-1,3.89E0,-6.423538E-2,1E0,5.14E2,2E0,6.42183E-2,8.01E1,7.11E1,6.5E1,8.2E1,2.652555E0,7.88E1,1E0,1.003E2,9.3E1,7.6E1,4.4982538E-2,2.5884306E-2,1.6361447E-2,7.515324E-2,4.824323E-3,-1.2854553E-2,6.272449E-2,2.0041952E-2,-3.4389931E-3,-2.5949636E-2,-1.4238337E-2,-2.546529E-3,-6.135136E-2,1.2987667E-3,-1.1393859E-2,-3.6410317E-2,-2.1678118E-2,-4.165669E-2,-5.985682E-2,5.4673557E-3,-2.3860734E-2,-3.9235625E-2],"split_indices":[9,9,10,7,3,7,9,0,10,4,5,5,0,3,6,3,0,8,7,10,0,5,7,4,7,8,10,0,0,0,0,0,0,0,0,0,0,0,0,0,0,0,0,0,0,0,0,0,0],"split_type":[0,0,0,0,0,0,0,0,0,0,0,0,0,0,0,0,0,0,0,0,0,0,0,0,0,0,0,0,0,0,0,0,0,0,0,0,0,0,0,0,0,0,0,0,0,0,0,0,0],"sum_hessian":[1.1668516E4,6.1754243E3,5.493092E3,4.209061E3,1.9663633E3,3.5383005E3,1.954791E3,1.761611E3,2.44745E3,1.4829574E3,4.8340588E2,4.4931802E2,3.0889827E3,1.6097856E3,3.450053E2,1.6545681E3,7.92882E2,1.1578038E3,3.251535E2,4.508485E0,4.788974E2,4.4300345E2,6.3145947E0,9.5385205E2,6.559336E2,3.826541E1,3.067399E2,1.3106311E3,3.4393698E2,1.148915E3,8.888827E0,1.96742E2,1.2841148E2,2.8491347E0,1.6593504E0,4.3044257E2,4.8454857E1,3.301691E2,1.12834335E2,4.611188E0,1.703407E0,8.493918E2,1.0446027E2,4.7697055E2,1.7896304E2,3.5116657E1,3.1487527E0,5.6714085E1,2.5002582E2],"tree_param":{"num_deleted":"0","num_feature":"11","num_nodes":"49","size_leaf_vector":"1"}},{"base_weights":[-8.1109916E-5,7.8103393E-1,-8.803691E-1,1.0796224E0,1.5859142E-1,-1.130794E0,-4.3796492E-1,6.336685E-2,9.457187E-1,2.4207899E-1,-9.691406E-2,-2.1877353E-1,-1.265796E0,-3.7217158E-1,-7.463693E-1,7.941007E-1,6.332706E-2,3.219066E-1,-4.1373387E-2,-3.7091613E-2,-3.4978697E-1,-5.630797E-1,-1.9522302E-1,-6.4316124E-1,-6.334474E-2,-3.080339E-2,-4.200503E-1,-7.07928E-1,-1.1009986E0,4.3628644E-2,2.4830211E-2,2.110083E-2,1.0356165E-2,-4.50446E-3,2.6584907E-2,5.911696E-3,-9.720403E-3,-2.5782157E-2,-4.4779992E-4,4.2857416E-2,-3.3011004E-2,5.0805393E-3,-1.2741381E-2,-4.6026614E-2,2.0329399E-2,2.1248118E-3,-1.7311668E-2,-1.8707005E-2,-4.2358603E-2,-3.5877E-2,2.2817072E-2,-6.019485E-2,-1.0984867E-2],"categories":[],"categories_nodes":[],"categories_segments":[],"categories_sizes":[],"default_left":[0,0,0,0,0,0,0,0,0,0,0,0,0,0,0,0,0,0,0,0,0,0,0,0,0,0,0,0,0,0,0,0,0,0,0,0,0,0,0,0,0,0,0,0,0,0,0,0,0,0,0,0,0],"id":17,"left_children":[1,3,5,7,9,11,13,-1,15,17,19,21,23,25,27,29,-1,31,33,35,37,39,41,43,-1,45,47,49,51,-1,-1,-1,-1,-1,-1,-1,-1,-1,-1,-1,-1,-1,-1,-1,-1,-1,-1,-1,-1,-1,-1,-1,-1],"loss_changes":[7.8531396E3,1.1245002E3,5.943994E2,1.0159131E2,4.1896416E1,4.2180957E2,3.913733E1,0E0,1.1528638E2,3.349736E1,7.311054E0,3.4840221E0,1.2280273E0,2.6186142E1,3.8630066E0,3.753003E1,0E0,1.3181709E1,9.150741E0,9.617442E0,5.2246447E0,4.4074583E0,7.3928013E0,2.497315E0,0E0,4.598377E0,2.7247803E1,3.7970886E0,2.5923767E0,0E0,0E0,0E0,0E0,0E0,0E0,0E0,0E0,0E0,0E0,0E0,0E0,0E0,0E0,0E0,0E0,0E0,0E0,0E0,0E0,0E0,0E0,0E0,0E0],"parents":[2147483647,0,0,1,1,2,2,3,3,4,4,5,5,6,6,8,8,9,9,10,10,11,11,12,12,13,13,14,14,15,15,17,17,18,18,19,19,20,20,21,21,22,22,23,23,25,25,26,26,27,27,28,28],"right_children":[2,4,6,8,10,12,14,-1,16,18,20,22,24,26,28,30,-1,32,34,36,38,40,42,44,-1,46,48,50,52,-1,-1,-1,-1,-1,-1,-1,-1,-1,-1,-1,-1,-1,-1,-1,-1,-1,-1,-1,-1,-1,-1,-1,-1],"split_conditions":[9.6E1,9.4E1,7.1E1,4.9748363E1,2E0,7.95E1,9.9E1,6.336685E-2,7.1E1,1E0,1E0,4E0,8E1,7.98E1,2E0,2E0,6.332706E-2,9.5E1,3.37E0,9.5E1,6.8E1,3.07E2,1.5E1,3.5E0,-6.334474E-2,7.6E1,1E0,4.19E1,7.8E1,4.3628644E-2,2.4830211E-2,2.110083E-2,1.0356165E-2,-4.50446E-3,2.6584907E-2,5.911696E-3,-9.720403E-3,-2.5782157E-2,-4.4779992E-4,4.2857416E-2,-3.3011004E-2,5.0805393E-3,-1.2741381E-2,-4.6026614E-2,2.0329399E-2,2.1248118E-3,-1.7311668E-2,-1.8707005E-2,-4.2358603E-2,-3.5877E-2,2.2817072E-2,-6.019485E-2,-1.0984867E-2],"split_indices":[9,9,10,7,3,8,9,0,10,4,4,10,7,8,3,3,0,9,5,9,0,6,10,5,0,0,4,2,0,0,0,0,0,0,0,0,0,0,0,0,0,0,0,0,0,0,0,0,0,0,0,0,0],"split_type":[0,0,0,0,0,0,0,0,0,0,0,0,0,0,0,0,0,0,0,0,0,0,0,0,0,0,0,0,0,0,0,0,0,0,0,0,0,0,0,0,0,0,0,0,0,0,0,0,0,0,0,0,0],"sum_hessian":[1.1418984E4,6.0503647E3,5.3686196E3,4.0884045E3,1.96196E3,3.427124E3,1.9414957E3,1.698656E3,2.3897485E3,1.4788059E3,4.8315402E2,4.422274E2,2.9848967E3,1.6019509E3,3.3954477E2,1.6251781E3,7.6457043E2,1.1537454E3,3.2506055E2,3.9164804E2,9.1505974E1,2.6845106E1,4.1538226E2,6.2914033E0,2.9786052E3,1.9724763E2,1.4047032E3,3.0904138E2,3.0503399E1,1.2844415E3,3.4073654E2,6.1483295E2,5.389125E2,3.0036948E2,2.469109E1,1.9719606E2,1.94452E2,6.1207905E1,3.0298067E1,1.2177241E0,2.5627382E1,6.93435E1,3.4603876E2,5.0738525E0,1.2175505E0,1.6075635E2,3.6491287E1,1.2700634E3,1.346399E2,3.0689145E2,2.149938E0,2.6986483E1,3.5169163E0],"tree_param":{"num_deleted":"0","num_feature":"11","num_nodes":"53","size_leaf_vector":"1"}},{"base_weights":[-9.701138E-5,7.580635E-1,-8.567427E-1,1.0573018E0,1.5103517E-1,-1.1108181E0,-4.1918823E-1,1.2440691E0,9.160406E-1,2.3067743E-1,-9.22077E-2,-2.1528856E-1,-6.252048E-2,-3.5548916E-1,-7.210468E-1,6.254291E-2,1.0685776E0,7.593815E-1,6.2496156E-2,3.069565E-1,-3.9241243E-2,1.0397288E0,-1.04923874E-1,-1.6024503E-1,-3.5485798E-1,-2.5220117E-1,-5.0591934E-1,-1.0427068E0,-6.7796844E-1,5.5314362E-2,-2.4741603E-2,4.1608628E-2,2.1472199E-2,7.066635E-3,1.873409E-2,6.276523E-3,-1.0373308E-2,6.1013427E-2,1.9434402E-2,-3.011369E-3,-2.4667576E-2,9.976919E-3,-1.049568E-2,-5.1808607E-2,-1.4019208E-2,-1.0026474E-2,-3.3597805E-2,-1.5005275E-3,-2.8431682E-2,-5.7598453E-2,6.494883E-3,-2.1395272E-2,-3.665577E-2],"categories":[],"categories_nodes":[],"categories_segments":[],"categories_sizes":[],"default_left":[0,0,0,0,0,0,0,0,0,0,0,0,0,0,0,0,0,0,0,0,0,0,0,0,0,0,0,0,0,0,0,0,0,0,0,0,0,0,0,0,0,0,0,0,0,0,0,0,0,0,0,0,0],"id":18,"left_children":[1,3,5,7,9,11,13,15,17,19,21,23,-1,25,27,-1,29,31,-1,33,35,37,39,41,43,45,47,49,51,-1,-1,-1,-1,-1,-1,-1,-1,-1,-1,-1,-1,-1,-1,-1,-1,-1,-1,-1,-1,-1,-1,-1,-1],"loss_changes":[7.2573984E3,1.0766165E3,5.827837E2,1.0361133E2,3.796176E1,4.1456738E2,3.6832794E1,6.970215E-1,1.174917E2,3.0395256E1,7.0727134E0,3.3903885E0,0E0,2.46512E1,3.9369965E0,0E0,4.700203E0,3.6718994E1,0E0,1.2853905E1,9.063209E0,1.6818428E-1,8.291992E0,5.8251314E0,6.1073427E0,2.0416672E1,1.9330124E1,4.9828873E0,3.8015442E0,0E0,0E0,0E0,0E0,0E0,0E0,0E0,0E0,0E0,0E0,0E0,0E0,0E0,0E0,0E0,0E0,0E0,0E0,0E0,0E0,0E0,0E0,0E0,0E0],"parents":[2147483647,0,0,1,1,2,2,3,3,4,4,5,5,6,6,7,7,8,8,9,9,10,10,11,11,13,13,14,14,16,16,17,17,19,19,20,20,21,21,22,22,23,23,24,24,25,25,26,26,27,27,28,28],"right_children":[2,4,6,8,10,12,14,16,18,20,22,24,-1,26,28,-1,30,32,-1,34,36,38,40,42,44,46,48,50,52,-1,-1,-1,-1,-1,-1,-1,-1,-1,-1,-1,-1,-1,-1,-1,-1,-1,-1,-1,-1,-1,-1,-1,-1],"split_conditions":[9.6E1,9.4E1,7.1E1,5.11E1,2E0,8E1,9.9E1,4.9748363E1,7.1E1,1E0,8.329484E-1,7.4E1,-6.252048E-2,1E0,5.14E2,6.254291E-2,3.73E1,1E0,6.2496156E-2,2.2344036E1,2.53E1,6.5E1,8.2E1,2.7E1,2.5E1,1E0,7.25E1,9.3E1,7.6E1,5.5314362E-2,-2.4741603E-2,4.1608628E-2,2.1472199E-2,7.066635E-3,1.873409E-2,6.276523E-3,-1.0373308E-2,6.1013427E-2,1.9434402E-2,-3.011369E-3,-2.4667576E-2,9.976919E-3,-1.049568E-2,-5.1808607E-2,-1.4019208E-2,-1.0026474E-2,-3.3597805E-2,-1.5005275E-3,-2.8431682E-2,-5.7598453E-2,6.494883E-3,-2.1395272E-2,-3.665577E-2],"split_indices":[9,9,10,8,3,7,9,7,10,4,5,8,0,3,6,0,2,4,0,2,2,10,0,0,0,4,7,8,10,0,0,0,0,0,0,0,0,0,0,0,0,0,0,0,0,0,0,0,0,0,0,0,0],"split_type":[0,0,0,0,0,0,0,0,0,0,0,0,0,0,0,0,0,0,0,0,0,0,0,0,0,0,0,0,0,0,0,0,0,0,0,0,0,0,0,0,0,0,0,0,0,0,0,0,0,0,0,0,0],"sum_hessian":[1.1172255E4,5.92688E3,5.245375E3,3.9693992E3,1.9574807E3,3.3174734E3,1.9279017E3,1.7060077E3,2.2633916E3,1.474691E3,4.8278967E2,4.477212E2,2.8697522E3,1.5937596E3,3.3414206E2,1.6365686E3,6.943911E1,1.5427848E3,7.2060675E2,1.1496598E3,3.2503128E2,4.4661803E0,4.783235E2,3.2263013E2,1.2509105E2,9.465312E2,6.472284E2,3.6724007E1,2.9741806E2,6.808918E1,1.3499283E0,1.2626874E3,2.800974E2,3.345636E2,8.150962E2,1.6432916E2,1.6070212E2,2.8120399E0,1.6541404E0,4.2999847E2,4.8325016E1,3.8770615E1,2.8385953E2,1.1053778E1,1.1403727E2,8.4410046E2,1.02430756E2,7.5531784E1,5.716966E2,3.360987E1,3.1141386E0,5.5321724E1,2.4209634E2],"tree_param":{"num_deleted":"0","num_feature":"11","num_nodes":"53","size_leaf_vector":"1"}},{"base_weights":[-1.1281473E-4,7.3581845E-1,-8.338928E-1,1.0357972E0,1.438608E-1,-1.0918146E0,-4.011832E-1,6.177915E-2,8.970846E-1,2.197962E-1,-8.753575E-2,-2.0506844E-1,-6.1756313E-2,-3.3951315E-1,-6.96657E-1,7.4361926E-1,6.173959E-2,2.9268405E-1,-3.7305646E-2,-1.6526791E-1,1.009119E-1,-1.9183342E-1,-7.9678303E-1,-1.7805908E-2,-3.8532886E-1,-7.1607184E-1,-7.741589E-2,4.1180678E-2,2.2246601E-2,1.4132954E-2,7.2011694E-2,4.8670713E-3,-1.214766E-2,-5.827107E-3,-2.9050225E-2,1.6911535E-2,-7.3643737E-3,-1.1330847E-2,3.266884E-3,-1.9437559E-2,-6.3938156E-2,-2.321898E-2,1.4385333E-3,-4.9016397E-2,-1.7733788E-2,-2.698741E-2,-3.9650824E-2,5.9815396E-2,-2.9131046E-2],"categories":[],"categories_nodes":[],"categories_segments":[],"categories_sizes":[],"default_left":[0,0,0,0,0,0,0,0,0,0,0,0,0,0,0,0,0,0,0,0,0,0,0,0,0,0,0,0,0,0,0,0,0,0,0,0,0,0,0,0,0,0,0,0,0,0,0,0,0],"id":19,"left_children":[1,3,5,7,9,11,13,-1,15,17,19,21,-1,23,25,27,-1,29,31,33,35,37,39,41,43,45,47,-1,-1,-1,-1,-1,-1,-1,-1,-1,-1,-1,-1,-1,-1,-1,-1,-1,-1,-1,-1,-1,-1],"loss_changes":[6.707917E3,1.0309778E3,5.715686E2,1.05686035E2,3.4355E1,4.0775488E2,3.4670288E1,0E0,1.1714746E2,2.758741E1,7.0996614E0,3.354742E0,0E0,2.3381653E1,3.910019E0,3.7118042E1,0E0,1.2783997E1,9.048448E0,6.874506E0,8.403707E0,3.9454575E0,1.3676E0,4.149673E0,2.4984802E1,3.9092102E0,7.870673E0,0E0,0E0,0E0,0E0,0E0,0E0,0E0,0E0,0E0,0E0,0E0,0E0,0E0,0E0,0E0,0E0,0E0,0E0,0E0,0E0,0E0,0E0],"parents":[2147483647,0,0,1,1,2,2,3,3,4,4,5,5,6,6,8,8,9,9,10,10,11,11,13,13,14,14,15,15,17,17,18,18,19,19,20,20,21,21,22,22,23,23,24,24,25,25,26,26],"right_children":[2,4,6,8,10,12,14,-1,16,18,20,22,-1,24,26,28,-1,30,32,34,36,38,40,42,44,46,48,-1,-1,-1,-1,-1,-1,-1,-1,-1,-1,-1,-1,-1,-1,-1,-1,-1,-1,-1,-1,-1,-1],"split_conditions":[9.6E1,9.4E1,7.1E1,4.9748363E1,2E0,8E1,9.9E1,6.177915E-2,7.1E1,1E0,7.2E1,8.9E1,-6.1756313E-2,8E1,1.032E3,2E0,6.173959E-2,8.01E1,7.11E1,8.2E1,9.5E1,3.33E1,7.25E1,1.24E0,1.6119636E0,8E1,1.91E1,4.1180678E-2,2.2246601E-2,1.4132954E-2,7.2011694E-2,4.8670713E-3,-1.214766E-2,-5.827107E-3,-2.9050225E-2,1.6911535E-2,-7.3643737E-3,-1.1330847E-2,3.266884E-3,-1.9437559E-2,-6.3938156E-2,-2.321898E-2,1.4385333E-3,-4.9016397E-2,-1.7733788E-2,-2.698741E-2,-3.9650824E-2,5.9815396E-2,-2.9131046E-2],"split_indices":[9,9,10,7,3,7,9,0,10,4,10,0,0,7,6,3,0,8,7,0,9,2,7,5,5,10,2,0,0,0,0,0,0,0,0,0,0,0,0,0,0,0,0,0,0,0,0,0,0],"split_type":[0,0,0,0,0,0,0,0,0,0,0,0,0,0,0,0,0,0,0,0,0,0,0,0,0,0,0,0,0,0,0,0,0,0,0,0,0,0,0,0,0,0,0,0,0,0,0,0,0],"sum_hessian":[1.0929983E4,5.8057173E3,5.1242666E3,3.8526228E3,1.9530944E3,3.2096138E3,1.9146526E3,1.5755197E3,2.277103E3,1.4705627E3,4.825316E2,4.4689087E2,2.762723E3,1.5858167E3,3.288359E2,1.5678308E3,7.092723E2,1.1456382E3,3.249245E2,3.4170557E2,1.4082602E2,4.3840906E2,8.481797E0,1.978624E2,1.3879542E3,3.1868784E2,1.0148053E1,1.2352494E3,3.325814E2,1.1369521E3,8.686065E0,1.9667734E2,1.2824718E2,3.0700397E2,3.4701603E1,7.180555E1,6.902047E1,3.8628162E2,5.212747E1,5.571598E0,2.9101996E0,1.7840302E1,1.800221E2,6.64833E1,1.321471E3,9.9254456E1,2.194334E2,2.493492E0,7.654561E0],"tree_param":{"num_deleted":"0","num_feature":"11","num_nodes":"49","size_leaf_vector":"1"}},{"base_weights":[-1.2916194E-4,7.1427655E-1,-8.1171596E-1,1.0151236E0,1.3701217E-1,-1.0736338E0,-3.838801E-1,6.1070036E-2,8.7394726E-1,2.0944525E-1,-8.327559E-2,-1.953594E-1,-6.1046697E-2,-3.2422018E-1,-6.7294407E-1,7.196541E-1,6.1029106E-2,2.7909356E-1,-3.5475314E-2,-4.122073E-2,-4.303793E-1,-2.4728422E-1,-5.266358E-2,-2.2408378E-1,-4.7100982E-1,-6.3392353E-1,-1.0381075E0,3.9637942E-2,1.9526398E-2,1.6350435E-2,2.39188E-3,-8.395448E-3,8.440125E-3,-6.071313E-3,7.800424E-3,-3.4427747E-2,7.8666833E-4,-5.906344E-3,-1.749528E-2,3.4812946E-2,-4.53198E-3,-9.667027E-3,-4.626711E-2,-1.824448E-2,-3.7669253E-2,-3.2187577E-2,2.4576915E-2,-5.724032E-2,-8.041531E-3],"categories":[],"categories_nodes":[],"categories_segments":[],"categories_sizes":[],"default_left":[0,0,0,0,0,0,0,0,0,0,0,0,0,0,0,0,0,0,0,0,0,0,0,0,0,0,0,0,0,0,0,0,0,0,0,0,0,0,0,0,0,0,0,0,0,0,0,0,0],"id":20,"left_children":[1,3,5,7,9,11,13,-1,15,17,19,21,-1,23,25,27,-1,29,31,33,35,37,39,41,43,45,47,-1,-1,-1,-1,-1,-1,-1,-1,-1,-1,-1,-1,-1,-1,-1,-1,-1,-1,-1,-1,-1,-1],"loss_changes":[6.200551E3,9.8762573E2,5.606167E2,1.07813965E2,3.1128452E1,4.0144238E2,3.259482E1,0E0,1.1802661E2,2.5044655E1,7.035506E0,3.3000298E0,0E0,2.310579E1,3.9668884E0,3.676477E1,0E0,1.2647041E1,8.843017E0,6.853885E0,6.0126257E0,4.300394E0,3.4921713E0,2.0100292E1,1.8887344E1,3.588501E0,2.602253E0,0E0,0E0,0E0,0E0,0E0,0E0,0E0,0E0,0E0,0E0,0E0,0E0,0E0,0E0,0E0,0E0,0E0,0E0,0E0,0E0,0E0,0E0],"parents":[2147483647,0,0,1,1,2,2,3,3,4,4,5,5,6,6,8,8,9,9,10,10,11,11,13,13,14,14,15,15,17,17,18,18,19,19,20,20,21,21,22,22,23,23,24,24,25,25,26,26],"right_children":[2,4,6,8,10,12,14,-1,16,18,20,22,-1,24,26,28,-1,30,32,34,36,38,40,42,44,46,48,-1,-1,-1,-1,-1,-1,-1,-1,-1,-1,-1,-1,-1,-1,-1,-1,-1,-1,-1,-1,-1,-1],"split_conditions":[9.6E1,9.4E1,7.1E1,4.9748363E1,2E0,8E1,9.9E1,6.1070036E-2,7.1E1,1E0,3.41E1,5.3E1,-6.1046697E-2,1E0,2E0,1E0,6.1029106E-2,7.66E1,6.6E1,7.2E1,2.1E0,2.43E1,3.19E2,1.199E2,1.003E2,4.19E1,7.8E1,3.9637942E-2,1.9526398E-2,1.6350435E-2,2.39188E-3,-8.395448E-3,8.440125E-3,-6.071313E-3,7.800424E-3,-3.4427747E-2,7.8666833E-4,-5.906344E-3,-1.749528E-2,3.4812946E-2,-4.53198E-3,-9.667027E-3,-4.626711E-2,-1.824448E-2,-3.7669253E-2,-3.2187577E-2,2.4576915E-2,-5.724032E-2,-8.041531E-3],"split_indices":[9,9,10,7,3,7,9,0,10,4,2,10,0,3,3,4,0,7,10,10,5,2,6,8,7,2,0,0,0,0,0,0,0,0,0,0,0,0,0,0,0,0,0,0,0,0,0,0,0],"split_type":[0,0,0,0,0,0,0,0,0,0,0,0,0,0,0,0,0,0,0,0,0,0,0,0,0,0,0,0,0,0,0,0,0,0,0,0,0,0,0,0,0,0,0,0,0,0,0,0,0],"sum_hessian":[1.0692251E4,5.6866514E3,5.0055996E3,3.7378662E3,1.9487849E3,3.1039038E3,1.9016958E3,1.515651E3,2.222215E3,1.4665997E3,4.8218518E2,4.4613834E2,2.6577656E3,1.578111E3,3.2358487E2,1.5398689E3,6.823463E2,1.1417731E3,3.248267E2,4.3107516E2,5.1110023E1,3.2657114E2,1.19567184E2,9.396386E2,6.3847235E2,2.9481735E2,2.8767515E1,1.2588478E3,2.810211E2,9.454635E2,1.9630954E2,1.9717552E2,1.27651184E2,3.067259E2,1.2434927E2,3.203005E1,1.9079977E1,1.4554369E2,1.8102745E2,4.933804E0,1.1463338E2,9.01397E2,3.824166E1,4.657353E2,1.7273708E2,2.9268945E2,2.127892E0,2.5376179E1,3.3913348E0],"tree_param":{"num_deleted":"0","num_feature":"11","num_nodes":"49","size_leaf_vector":"1"}},{"base_weights":[-1.4981744E-4,6.933026E-1,-7.901242E-1,9.9506974E-1,1.3044322E-1,-1.0561811E0,-3.6726448E-1,6.0410667E-2,8.51377E-1,1.9952962E-1,-7.92234E-2,-1.8591818E-1,-6.0386736E-2,-3.0955926E-1,-6.500247E-1,6.9630533E-1,6.036827E-2,2.6606628E-1,-3.3707757E-2,9.432774E-1,-9.270691E-2,-3.9071476E-1,-1.4923522E-1,-2.081197E-3,-3.5358572E-1,-9.8273355E-1,-6.061769E-1,3.8886067E-2,1.985186E-2,1.3693238E-2,-5.5777557E-2,4.4790097E-4,-3.2612815E-2,1.3773508E-2,5.9171237E-2,-2.4930234E-3,-2.2479279E-2,-8.6430255E-3,-4.2674165E-2,2.4089357E-2,-8.743665E-3,3.3629641E-3,-1.5102617E-2,-1.5479024E-2,-3.8544416E-2,-5.4814722E-2,8.806305E-3,1.521986E-2,-3.1018352E-2],"categories":[],"categories_nodes":[],"categories_segments":[],"categories_sizes":[],"default_left":[0,0,0,0,0,0,0,0,0,0,0,0,0,0,0,0,0,0,0,0,0,0,0,0,0,0,0,0,0,0,0,0,0,0,0,0,0,0,0,0,0,0,0,0,0,0,0,0,0],"id":21,"left_children":[1,3,5,7,9,11,13,-1,15,17,19,21,-1,23,25,27,-1,29,31,33,35,37,39,41,43,45,47,-1,-1,-1,-1,-1,-1,-1,-1,-1,-1,-1,-1,-1,-1,-1,-1,-1,-1,-1,-1,-1,-1],"loss_changes":[5.7313223E3,9.462029E2,5.498452E2,1.1005078E2,2.819928E1,3.9563843E2,3.064267E1,0E0,1.18936646E2,2.2724636E1,6.7456403E0,3.2949018E0,0E0,2.1277573E1,4.065048E0,3.6573547E1,0E0,1.2577347E1,8.603333E0,6.963706E-1,7.279963E0,6.625929E0,6.234581E0,4.1362815E0,2.5010452E1,4.8770027E0,3.8699265E0,0E0,0E0,0E0,0E0,0E0,0E0,0E0,0E0,0E0,0E0,0E0,0E0,0E0,0E0,0E0,0E0,0E0,0E0,0E0,0E0,0E0,0E0],"parents":[2147483647,0,0,1,1,2,2,3,3,4,4,5,5,6,6,8,8,9,9,10,10,11,11,13,13,14,14,15,15,17,17,18,18,19,19,20,20,21,21,22,22,23,23,24,24,25,25,26,26],"right_children":[2,4,6,8,10,12,14,-1,16,18,20,22,-1,24,26,28,-1,30,32,34,36,38,40,42,44,46,48,-1,-1,-1,-1,-1,-1,-1,-1,-1,-1,-1,-1,-1,-1,-1,-1,-1,-1,-1,-1,-1,-1],"split_conditions":[9.6E1,9.4E1,7.1E1,4.9748363E1,2E0,8E1,9.9E1,6.0410667E-2,7.1E1,1E0,2.82E2,3.78E2,-6.0386736E-2,7.98E1,5.14E2,2E0,6.036827E-2,8.9E1,7.9E1,2.72E2,3.41E1,3.56E2,1.29E0,7.6E1,1E0,9.3E1,1.9E1,3.8886067E-2,1.985186E-2,1.3693238E-2,-5.5777557E-2,4.4790097E-4,-3.2612815E-2,1.3773508E-2,5.9171237E-2,-2.4930234E-3,-2.2479279E-2,-8.6430255E-3,-4.2674165E-2,2.4089357E-2,-8.743665E-3,3.3629641E-3,-1.5102617E-2,-1.5479024E-2,-3.8544416E-2,-5.4814722E-2,8.806305E-3,1.521986E-2,-3.1018352E-2],"split_indices":[9,9,10,7,3,7,9,0,10,4,6,6,0,8,6,3,0,0,7,6,2,6,5,0,4,8,0,0,0,0,0,0,0,0,0,0,0,0,0,0,0,0,0,0,0,0,0,0,0],"split_type":[0,0,0,0,0,0,0,0,0,0,0,0,0,0,0,0,0,0,0,0,0,0,0,0,0,0,0,0,0,0,0,0,0,0,0,0,0,0,0,0,0,0,0,0,0,0,0,0,0],"sum_hessian":[1.0460252E4,5.5704995E3,4.889753E3,3.6258147E3,1.9446847E3,3.0004302E3,1.8893228E3,1.457079E3,2.1687356E3,1.4627485E3,4.8193613E2,4.453478E2,2.5550823E3,1.5708427E3,3.1848022E2,1.5127322E3,6.560034E2,1.1379731E3,3.247754E2,5.374981E0,4.7656116E2,6.6186325E1,3.7916147E2,1.9688159E2,1.373961E3,3.4591793E1,2.8388843E2,1.187951E3,3.2478113E2,1.1323833E3,5.5898886E0,3.0474072E2,2.0034658E1,1.9895324E0,3.3854487E0,4.2649622E2,5.0064934E1,4.593525E1,2.0251078E1,1.4109001E1,3.6505246E2,1.6054602E2,3.633558E1,1.2444713E3,1.2948972E2,3.155372E1,3.0380735E0,4.042332E0,2.798461E2],"tree_param":{"num_deleted":"0","num_feature":"11","num_nodes":"49","size_leaf_vector":"1"}},{"base_weights":[-1.7026719E-4,6.7293847E-1,-7.6919335E-1,9.756814E-1,1.24180526E-1,-1.0394168E0,-3.5139656E-1,5.979668E-2,8.2949287E-1,4.407234E-2,2.9000705E-1,-1.7704551E-1,-5.9772093E-2,-2.9560375E-1,-6.277769E-1,6.737434E-1,5.9752703E-2,1.1051741E-1,-1.926042E-1,2.7223313E-1,7.244958E-2,-1.6562018E-1,-8.5212326E-1,-1.9848727E-1,-4.3882596E-1,-9.5937246E-1,-5.8455235E-1,3.738145E-2,1.7282076E-2,6.674883E-3,-3.1596363E-2,-1.2633613E-2,3.3200376E-2,1.5891328E-2,-1.2525278E-2,-1.1129798E-2,5.7705645E-5,-5.725218E-2,3.1980935E-3,-8.4468955E-3,-4.395711E-2,-1.515082E-2,-3.239726E-2,-5.366966E-2,8.450822E-3,-1.6809393E-2,-3.201965E-2],"categories":[],"categories_nodes":[],"categories_segments":[],"categories_sizes":[],"default_left":[0,0,0,0,0,0,0,0,0,0,0,0,0,0,0,0,0,0,0,0,0,0,0,0,0,0,0,0,0,0,0,0,0,0,0,0,0,0,0,0,0,0,0,0,0,0,0],"id":22,"left_children":[1,3,5,7,9,11,13,-1,15,17,19,21,-1,23,25,27,-1,29,31,33,-1,35,37,39,41,43,45,-1,-1,-1,-1,-1,-1,-1,-1,-1,-1,-1,-1,-1,-1,-1,-1,-1,-1,-1,-1],"loss_changes":[5.2979727E3,9.0660156E2,5.389634E2,1.1225586E2,2.5779852E1,3.9003662E2,2.8769302E1,0E0,1.1974573E2,2.0627966E1,1.2629993E1,3.29523E0,0E0,2.167035E1,3.9469757E0,3.5789917E1,0E0,1.75513E1,1.4966166E1,1.4950413E1,0E0,4.1750546E0,1.9982009E0,1.8636677E1,1.773159E1,4.6470833E0,3.6789703E0,0E0,0E0,0E0,0E0,0E0,0E0,0E0,0E0,0E0,0E0,0E0,0E0,0E0,0E0,0E0,0E0,0E0,0E0,0E0,0E0],"parents":[2147483647,0,0,1,1,2,2,3,3,4,4,5,5,6,6,8,8,9,9,10,10,11,11,13,13,14,14,15,15,17,17,18,18,19,19,21,21,22,22,23,23,24,24,25,25,26,26],"right_children":[2,4,6,8,10,12,14,-1,16,18,20,22,-1,24,26,28,-1,30,32,34,-1,36,38,40,42,44,46,-1,-1,-1,-1,-1,-1,-1,-1,-1,-1,-1,-1,-1,-1,-1,-1,-1,-1,-1,-1],"split_conditions":[9.6E1,9.4E1,7.1E1,4.9748363E1,7.2E1,8E1,9.9E1,5.979668E-2,7.1E1,1E0,8.01E1,3.89E0,-5.9772093E-2,1E0,5.14E2,1E0,5.9752703E-2,8.7E1,6.68E2,7.8E1,7.244958E-2,2.652555E0,7.88E1,1.199E2,9.52E1,9.3E1,7.6E1,3.738145E-2,1.7282076E-2,6.674883E-3,-3.1596363E-2,-1.2633613E-2,3.3200376E-2,1.5891328E-2,-1.2525278E-2,-1.1129798E-2,5.7705645E-5,-5.725218E-2,3.1980935E-3,-8.4468955E-3,-4.395711E-2,-1.515082E-2,-3.239726E-2,-5.366966E-2,8.450822E-3,-1.6809393E-2,-3.201965E-2],"split_indices":[9,9,10,7,10,7,9,0,10,4,8,5,0,3,6,4,0,0,6,7,0,5,7,8,7,8,10,0,0,0,0,0,0,0,0,0,0,0,0,0,0,0,0,0,0,0,0],"split_type":[0,0,0,0,0,0,0,0,0,0,0,0,0,0,0,0,0,0,0,0,0,0,0,0,0,0,0,0,0,0,0,0,0,0,0,0,0,0,0,0,0,0,0,0,0,0,0],"sum_hessian":[1.0232936E4,5.456824E3,4.7761113E3,3.5162014E3,1.9406229E3,2.8993662E3,1.8767452E3,1.3998956E3,2.116306E3,1.3093583E3,6.3126465E2,4.4452908E2,2.4548372E3,1.5632435E3,3.1350174E2,1.4860211E3,6.302847E2,1.0227596E3,2.8659866E2,6.2294617E2,8.318468E0,4.3835547E2,6.1735935E0,9.3298694E2,6.3025653E2,3.3709053E1,2.797927E2,1.2118457E3,2.741755E2,9.9284894E2,2.9910603E1,2.684773E2,1.812136E1,5.73332E2,4.961422E1,3.2648303E2,1.1187244E2,4.4884653E0,1.6851285E0,8.9536456E2,3.762237E1,3.8358902E2,2.466675E2,3.0659706E1,3.0493464E0,5.264813E1,2.2714458E2],"tree_param":{"num_deleted":"0","num_feature":"11","num_nodes":"47","size_leaf_vector":"1"}},{"base_weights":[-1.920187E-4,7.856623E-1,-6.2297297E-1,9.567633E-1,2.1188131E-1,-4.4873368E-2,-8.458894E-1,5.9224226E-2,8.080614E-1,2.879171E-1,-6.603645E-2,2.3250194E-2,-2.2296378E-1,-5.9171807E-2,-3.7003025E-1,6.517171E-1,5.917855E-2,-3.0385444E-1,3.204615E-1,8.303204E-1,-1.0115725E-1,1.19309396E-1,-1.4585567E-1,-4.8575316E-2,-3.2554543E-1,-3.317665E-1,-8.3858067E-1,3.6721908E-2,1.7623788E-2,7.96301E-3,-3.0251786E-2,1.6538342E-2,-4.0604413E-2,6.409634E-2,-3.743715E-2,-7.453069E-3,2.9519593E-2,-1.4974194E-3,1.2494522E-2,-2.469699E-3,-2.1226943E-2,-2.8835395E-2,2.4864376E-3,1.3220134E-2,-1.8480746E-2,-1.4491684E-2,-3.500275E-2,-2.299844E-2,-4.8511613E-2],"categories":[],"categories_nodes":[],"categories_segments":[],"categories_sizes":[],"default_left":[0,0,0,0,0,0,0,0,0,0,0,0,0,0,0,0,0,0,0,0,0,0,0,0,0,0,0,0,0,0,0,0,0,0,0,0,0,0,0,0,0,0,0,0,0,0,0,0,0],"id":23,"left_children":[1,3,5,7,9,11,13,-1,15,17,19,21,23,-1,25,27,-1,29,31,33,35,37,39,41,43,45,47,-1,-1,-1,-1,-1,-1,-1,-1,-1,-1,-1,-1,-1,-1,-1,-1,-1,-1,-1,-1,-1,-1],"loss_changes":[4.90173E3,4.3451514E2,7.2000806E2,1.1453467E2,2.1539703E1,1.8882885E1,6.472761E2,0E0,1.20546265E2,1.5501038E1,6.9967437E0,1.831466E1,7.687519E0,0E0,2.9749268E1,3.591107E1,0E0,5.983384E0,9.122635E0,6.941425E0,7.11773E0,1.40188465E1,1.0960369E1,8.36993E0,7.14217E0,2.3735168E1,5.823906E0,0E0,0E0,0E0,0E0,0E0,0E0,0E0,0E0,0E0,0E0,0E0,0E0,0E0,0E0,0E0,0E0,0E0,0E0,0E0,0E0,0E0,0E0],"parents":[2147483647,0,0,1,1,2,2,3,3,4,4,5,5,6,6,8,8,9,9,10,10,11,11,12,12,14,14,15,15,17,17,18,18,19,19,20,20,21,21,22,22,23,23,24,24,25,25,26,26],"right_children":[2,4,6,8,10,12,14,-1,16,18,20,22,24,-1,26,28,-1,30,32,34,36,38,40,42,44,46,48,-1,-1,-1,-1,-1,-1,-1,-1,-1,-1,-1,-1,-1,-1,-1,-1,-1,-1,-1,-1,-1,-1],"split_conditions":[9.5E1,9.4E1,8E1,4.9748363E1,1E0,2E0,7.1E1,5.9224226E-2,7.1E1,1.63E1,3.03E2,7.25E1,4.4E1,-5.9171807E-2,2E0,2E0,5.917855E-2,4.7E1,4.01E0,8.4E1,3.37E0,5.2E1,1E0,2.03E1,1.68E1,1E0,3.5E1,3.6721908E-2,1.7623788E-2,7.96301E-3,-3.0251786E-2,1.6538342E-2,-4.0604413E-2,6.409634E-2,-3.743715E-2,-7.453069E-3,2.9519593E-2,-1.4974194E-3,1.2494522E-2,-2.469699E-3,-2.1226943E-2,-2.8835395E-2,2.4864376E-3,1.3220134E-2,-1.8480746E-2,-1.4491684E-2,-3.500275E-2,-2.299844E-2,-4.8511613E-2],"split_indices":[9,9,7,7,4,3,10,0,10,2,6,7,0,0,3,3,0,0,5,10,5,10,4,2,2,4,0,0,0,0,0,0,0,0,0,0,0,0,0,0,0,0,0,0,0,0,0,0,0],"split_type":[0,0,0,0,0,0,0,0,0,0,0,0,0,0,0,0,0,0,0,0,0,0,0,0,0,0,0,0,0,0,0,0,0,0,0,0,0,0,0,0,0,0,0,0,0,0,0,0,0],"sum_hessian":[1.0013486E4,4.427012E3,5.586474E3,3.409604E3,1.0174083E3,1.5550059E3,4.0314685E3,1.3441759E3,2.065428E3,7.988219E2,2.1858647E2,1.1253889E3,4.2961697E2,2.3576218E3,1.6738467E3,1.4602041E3,6.052238E2,4.1206512E1,7.5761536E2,7.387974E0,2.1119849E2,7.178912E2,4.0749774E2,1.5966335E2,2.699536E2,1.5490527E3,1.24793976E2,1.1428306E3,3.1737357E2,1.642368E1,2.4782831E1,7.514854E2,6.129993E0,5.891266E0,1.496708E0,1.9825002E2,1.2948478E1,3.3534882E2,3.8254236E2,3.0359164E2,1.039061E2,2.4291607E1,1.3537173E2,1.8416504E1,2.5153711E2,1.3923129E3,1.567398E2,3.3357166E1,9.143681E1],"tree_param":{"num_deleted":"0","num_feature":"11","num_nodes":"49","size_leaf_vector":"1"}},{"base_weights":[-2.0844315E-4,7.654432E-1,-6.040082E-1,9.383757E-1,2.018073E-1,-4.269779E-2,-8.261238E-1,1.1664584E0,7.8232574E-1,2.7431354E-1,-6.254329E-2,2.2087386E-2,-2.1224324E-1,-5.8634985E-2,-3.5405236E-1,5.8689814E-2,9.5907235E-1,6.2196743E-1,5.8636487E-2,-2.887867E-1,3.0542204E-1,-2.2567589E-2,-8.1321573E-1,1.1751338E-1,-1.321915E-1,-4.6333E-2,-3.1003532E-1,-3.1712726E-1,-8.1127745E-1,5.7819616E-2,1.1601265E-2,3.488865E-2,1.4618545E-2,7.594271E-3,-2.8718194E-2,1.5766308E-2,-3.8577594E-2,3.404054E-3,-1.8592665E-2,1.7531246E-2,-5.3231876E-2,2.2859907E-2,2.7653605E-3,-2.112314E-3,-1.9690448E-2,-1.9397607E-2,4.666127E-3,1.2573786E-2,-1.7607758E-2,-3.5733856E-2,-1.3970183E-2,-2.2085752E-2,-4.7058627E-2],"categories":[],"categories_nodes":[],"categories_segments":[],"categories_sizes":[],"default_left":[0,0,0,0,0,0,0,0,0,0,0,0,0,0,0,0,0,0,0,0,0,0,0,0,0,0,0,0,0,0,0,0,0,0,0,0,0,0,0,0,0,0,0,0,0,0,0,0,0,0,0,0,0],"id":24,"left_children":[1,3,5,7,9,11,13,15,17,19,21,23,25,-1,27,-1,29,31,-1,33,35,37,39,41,43,45,47,49,51,-1,-1,-1,-1,-1,-1,-1,-1,-1,-1,-1,-1,-1,-1,-1,-1,-1,-1,-1,-1,-1,-1,-1,-1],"loss_changes":[4.531308E3,4.2104248E2,6.831935E2,1.1678052E2,1.9489128E1,1.7082079E1,6.4196045E2,9.1516113E-1,1.2237781E2,1.40568695E1,6.568002E0,1.6590002E1,6.9611855E0,0E0,2.7830048E1,0E0,7.0916977E0,3.4675842E1,0E0,5.405672E0,8.308922E0,6.655818E0,3.6121283E0,1.4683804E1,1.0118409E1,7.698913E0,6.4818363E0,2.2910202E1,5.5210876E0,0E0,0E0,0E0,0E0,0E0,0E0,0E0,0E0,0E0,0E0,0E0,0E0,0E0,0E0,0E0,0E0,0E0,0E0,0E0,0E0,0E0,0E0,0E0,0E0],"parents":[2147483647,0,0,1,1,2,2,3,3,4,4,5,5,6,6,7,7,8,8,9,9,10,10,11,11,12,12,14,14,16,16,17,17,19,19,20,20,21,21,22,22,23,23,24,24,25,25,26,26,27,27,28,28],"right_children":[2,4,6,8,10,12,14,16,18,20,22,24,26,-1,28,-1,30,32,-1,34,36,38,40,42,44,46,48,50,52,-1,-1,-1,-1,-1,-1,-1,-1,-1,-1,-1,-1,-1,-1,-1,-1,-1,-1,-1,-1,-1,-1,-1,-1],"split_conditions":[9.5E1,9.4E1,8E1,5.09E1,1E0,2E0,7.1E1,4.9748363E1,7.1E1,1.63E1,7.91E1,7.208884E1,4.4E1,-5.8634985E-2,2E0,5.8689814E-2,2E0,1E0,5.8636487E-2,4.7E1,4.01E0,2E0,1.9E1,2.8E1,1E0,2.2544172E1,1.68E1,1.79E0,3.5E1,5.7819616E-2,1.1601265E-2,3.488865E-2,1.4618545E-2,7.594271E-3,-2.8718194E-2,1.5766308E-2,-3.8577594E-2,3.404054E-3,-1.8592665E-2,1.7531246E-2,-5.3231876E-2,2.2859907E-2,2.7653605E-3,-2.112314E-3,-1.9690448E-2,-1.9397607E-2,4.666127E-3,1.2573786E-2,-1.7607758E-2,-3.5733856E-2,-1.3970183E-2,-2.2085752E-2,-4.7058627E-2],"split_indices":[9,9,7,7,4,3,10,7,10,2,8,7,0,0,3,0,3,4,0,0,5,3,10,0,4,2,2,5,0,0,0,0,0,0,0,0,0,0,0,0,0,0,0,0,0,0,0,0,0,0,0,0,0],"split_type":[0,0,0,0,0,0,0,0,0,0,0,0,0,0,0,0,0,0,0,0,0,0,0,0,0,0,0,0,0,0,0,0,0,0,0,0,0,0,0,0,0,0,0,0,0,0,0,0,0,0,0,0,0],"sum_hessian":[9.799655E3,4.320612E3,5.479044E3,3.305704E3,1.01490765E3,1.5537471E3,3.9252969E3,1.3402782E3,1.9654259E3,7.9642584E2,2.1848184E2,1.1248132E3,4.2893378E2,2.262659E3,1.6626378E3,1.2899751E3,5.030321E1,1.3950165E3,5.704094E2,4.1261482E1,7.5516437E2,2.0841322E2,1.0068606E1,6.9510736E2,4.2970593E2,1.596135E2,2.6932028E2,1.5399652E3,1.22672585E2,3.910076E1,1.120245E1,1.133256E3,2.617605E2,1.6409008E1,2.4852474E1,7.489837E2,6.1806397E0,1.6610878E2,4.2304443E1,1.7185959E0,8.35001E0,1.06608475E2,5.884989E2,3.2063254E2,1.0907337E2,4.580048E1,1.1381301E2,1.8445665E1,2.5087462E2,1.3190811E2,1.408057E3,3.3048206E1,8.962438E1],"tree_param":{"num_deleted":"0","num_feature":"11","num_nodes":"53","size_leaf_vector":"1"}},{"base_weights":[-2.2473246E-4,6.1545914E-1,-7.099432E-1,9.203651E-1,1.0929884E-1,-9.934709E-1,-3.0760074E-1,5.8190364E-2,7.6676637E-1,1.7207123E-1,-8.000871E-2,-1.6099249E-1,-5.816373E-2,-2.5362918E-1,-5.8037424E-1,6.0956156E-1,5.814276E-2,2.2917001E-1,-2.6269047E-2,9.148451E-1,-9.2963405E-2,-1.3102303E-1,-4.0779486E-1,-1.6234538E-1,-3.8967398E-1,-6.0076416E-1,3.8334727E-2,3.4663364E-2,1.5590838E-2,1.0972624E-2,6.8347275E-2,4.823339E-3,-1.1662609E-2,1.3544847E-2,5.7455998E-2,-2.6143466E-3,-2.1621004E-2,-8.9067E-3,2.0822028E-2,-6.8830974E-2,-1.5057056E-2,-6.2813247E-3,-3.579103E-2,-1.4418552E-2,-3.3203047E-2,-2.102102E-2,-3.405137E-2,4.1430842E-2,-4.000671E-2],"categories":[],"categories_nodes":[],"categories_segments":[],"categories_sizes":[],"default_left":[0,0,0,0,0,0,0,0,0,0,0,0,0,0,0,0,0,0,0,0,0,0,0,0,0,0,0,0,0,0,0,0,0,0,0,0,0,0,0,0,0,0,0,0,0,0,0,0,0],"id":25,"left_children":[1,3,5,7,9,11,13,-1,15,17,19,21,-1,23,25,27,-1,29,31,33,35,37,39,41,43,45,47,-1,-1,-1,-1,-1,-1,-1,-1,-1,-1,-1,-1,-1,-1,-1,-1,-1,-1,-1,-1,-1,-1],"loss_changes":[4.1923223E3,7.927711E2,5.0810205E2,1.1898755E2,2.2977915E1,3.6931738E2,2.6997345E1,0E0,1.2187366E2,1.6445045E1,6.2958293E0,3.230712E0,0E0,1.907425E1,3.8553848E0,3.4960327E1,0E0,1.21628E1,8.288273E0,6.371355E-1,6.5584617E0,1.0323892E1,4.5044184E0,1.8687315E1,1.6988914E1,3.9715118E0,7.7080264E0,0E0,0E0,0E0,0E0,0E0,0E0,0E0,0E0,0E0,0E0,0E0,0E0,0E0,0E0,0E0,0E0,0E0,0E0,0E0,0E0,0E0,0E0],"parents":[2147483647,0,0,1,1,2,2,3,3,4,4,5,5,6,6,8,8,9,9,10,10,11,11,13,13,14,14,15,15,17,17,18,18,19,19,20,20,21,21,22,22,23,23,24,24,25,25,26,26],"right_children":[2,4,6,8,10,12,14,-1,16,18,20,22,-1,24,26,28,-1,30,32,34,36,38,40,42,44,46,48,-1,-1,-1,-1,-1,-1,-1,-1,-1,-1,-1,-1,-1,-1,-1,-1,-1,-1,-1,-1,-1,-1],"split_conditions":[9.6E1,9.4E1,7.1E1,4.9748363E1,2E0,8E1,9.9E1,5.8190364E-2,7.1E1,1E0,2.82E2,3.21E0,-5.816373E-2,1E0,1.032E3,2E0,5.814276E-2,8.01E1,2.7E1,2.72E2,3.41E1,2.92E0,5.99E2,9.8E1,1.003E2,8E1,1.198E2,3.4663364E-2,1.5590838E-2,1.0972624E-2,6.8347275E-2,4.823339E-3,-1.1662609E-2,1.3544847E-2,5.7455998E-2,-2.6143466E-3,-2.1621004E-2,-8.9067E-3,2.0822028E-2,-6.8830974E-2,-1.5057056E-2,-6.2813247E-3,-3.579103E-2,-1.4418552E-2,-3.3203047E-2,-2.102102E-2,-3.405137E-2,4.1430842E-2,-4.000671E-2],"split_indices":[9,9,10,7,3,7,9,0,10,4,6,5,0,3,6,3,0,8,2,6,2,5,6,10,7,10,7,0,0,0,0,0,0,0,0,0,0,0,0,0,0,0,0,0,0,0,0,0,0],"split_type":[0,0,0,0,0,0,0,0,0,0,0,0,0,0,0,0,0,0,0,0,0,0,0,0,0,0,0,0,0,0,0,0,0,0,0,0,0,0,0,0,0,0,0,0,0,0,0,0,0],"sum_hessian":[9.592243E3,5.136468E3,4.4557754E3,3.2049934E3,1.9314745E3,2.6129675E3,1.842808E3,1.2373352E3,1.9676581E3,1.4505713E3,4.809031E2,4.4301105E2,2.1699565E3,1.5400251E3,3.0278284E2,1.410414E3,5.572442E2,1.1262017E3,3.243697E2,5.286782E0,4.7561633E2,3.9640598E2,4.6605087E1,9.229407E2,6.170845E2,2.9315088E2,9.631958E0,1.0998751E3,3.1053882E2,1.1178472E3,8.354466E0,2.0396028E2,1.2040941E2,1.985523E0,3.301259E0,4.2575314E2,4.9863194E1,3.65618E2,3.0787958E1,3.440926E0,4.316416E1,8.666706E2,5.627007E1,4.5218857E2,1.648959E2,9.22075E1,2.0094337E2,4.964509E0,4.667449E0],"tree_param":{"num_deleted":"0","num_feature":"11","num_nodes":"49","size_leaf_vector":"1"}},{"base_weights":[-2.3619401E-4,7.2720695E-1,-5.683938E-1,9.027528E-1,1.869863E-1,-3.984065E-2,-7.8844446E-1,5.7723083E-2,7.467814E-1,2.5451076E-1,-5.8170065E-2,-1.1194286E-1,9.440437E-2,-5.766436E-2,-3.2539737E-1,5.893563E-1,5.7673324E-2,-2.822556E-1,2.8433555E-1,7.9830784E-1,-9.169378E-2,-9.454288E-2,-8.8581926E-1,1.6822185E-1,-1.2227305E-1,-2.898412E-1,-7.721401E-1,3.3228036E-2,1.3246176E-2,6.872104E-3,-2.7650243E-2,1.0663067E-2,2.2020884E-2,6.155303E-2,-3.576442E-2,-6.860451E-3,2.8216992E-2,-7.8669866E-5,-9.52272E-3,-5.737877E-2,-1.6385397E-2,-3.6662813E-2,9.520596E-3,9.150524E-3,-1.5205807E-2,-1.2452648E-2,-3.265691E-2,-2.0422574E-2,-4.5082733E-2],"categories":[],"categories_nodes":[],"categories_segments":[],"categories_sizes":[],"default_left":[0,0,0,0,0,0,0,0,0,0,0,0,0,0,0,0,0,0,0,0,0,0,0,0,0,0,0,0,0,0,0,0,0,0,0,0,0,0,0,0,0,0,0,0,0,0,0,0,0],"id":26,"left_children":[1,3,5,7,9,11,13,-1,15,17,19,21,23,-1,25,27,-1,29,31,33,35,37,39,41,43,45,47,-1,-1,-1,-1,-1,-1,-1,-1,-1,-1,-1,-1,-1,-1,-1,-1,-1,-1,-1,-1,-1,-1],"loss_changes":[3.881555E3,3.9039966E2,6.132742E2,1.2116089E2,1.6756554E1,1.50239315E1,6.285908E2,0E0,1.2236133E2,1.2777317E1,6.367398E0,1.351027E1,8.697947E0,0E0,2.585994E1,3.3678802E1,0E0,4.8771124E0,8.246899E0,6.356629E0,6.4033403E0,8.813727E0,2.849615E0,8.242809E0,7.7408857E0,2.2400131E1,5.305649E0,0E0,0E0,0E0,0E0,0E0,0E0,0E0,0E0,0E0,0E0,0E0,0E0,0E0,0E0,0E0,0E0,0E0,0E0,0E0,0E0,0E0,0E0],"parents":[2147483647,0,0,1,1,2,2,3,3,4,4,5,5,6,6,8,8,9,9,10,10,11,11,12,12,14,14,15,15,17,17,18,18,19,19,20,20,21,21,22,22,23,23,24,24,25,25,26,26],"right_children":[2,4,6,8,10,12,14,-1,16,18,20,22,24,-1,26,28,-1,30,32,34,36,38,40,42,44,46,48,-1,-1,-1,-1,-1,-1,-1,-1,-1,-1,-1,-1,-1,-1,-1,-1,-1,-1,-1,-1,-1,-1],"split_conditions":[9.5E1,9.4E1,8E1,4.9748363E1,1E0,6.8E1,7.1E1,5.7723083E-2,7.1E1,1.63E1,3.03E2,8.8E1,2E0,-5.766436E-2,2E0,1E0,5.7673324E-2,4.7E1,7.4E1,8.4E1,3.37E0,2.54E1,1E0,5.14E1,4.4E1,1E0,3.5E1,3.3228036E-2,1.3246176E-2,6.872104E-3,-2.7650243E-2,1.0663067E-2,2.2020884E-2,6.155303E-2,-3.576442E-2,-6.860451E-3,2.8216992E-2,-7.8669866E-5,-9.52272E-3,-5.737877E-2,-1.6385397E-2,-3.6662813E-2,9.520596E-3,9.150524E-3,-1.5205807E-2,-1.2452648E-2,-3.265691E-2,-2.0422574E-2,-4.5082733E-2],"split_indices":[9,9,7,7,4,10,10,0,10,2,6,0,3,0,3,4,0,0,10,10,5,2,4,7,0,4,0,0,0,0,0,0,0,0,0,0,0,0,0,0,0,0,0,0,0,0,0,0,0],"split_type":[0,0,0,0,0,0,0,0,0,0,0,0,0,0,0,0,0,0,0,0,0,0,0,0,0,0,0,0,0,0,0,0,0,0,0,0,0,0,0,0,0,0,0,0,0,0,0,0,0],"sum_hessian":[9.389562E3,4.117466E3,5.2720957E3,3.1071272E3,1.0103387E3,1.5500693E3,3.7220264E3,1.1862842E3,1.920843E3,7.921228E2,2.1821588E2,1.00854944E3,5.4151984E2,2.0809329E3,1.6410933E3,1.3865627E3,5.342802E2,4.1251038E1,7.5087177E2,7.3602386E0,2.1085565E2,9.874692E2,2.1080269E1,4.0408136E2,1.3743846E2,1.5216355E3,1.19457825E2,1.124786E3,2.617767E2,1.63691E1,2.4881935E1,5.175599E2,2.333119E2,5.868919E0,1.4913199E0,1.9791525E2,1.2940393E1,5.0194122E2,4.8552798E2,1.3631073E1,7.4491954E0,8.937759E0,3.9514362E2,5.130302E1,8.613544E1,1.3695574E3,1.5207808E2,3.246024E1,8.699758E1],"tree_param":{"num_deleted":"0","num_feature":"11","num_nodes":"49","size_leaf_vector":"1"}},{"base_weights":[-2.5407615E-4,7.0819074E-1,-5.507196E-1,8.8539946E-1,1.7815293E-1,-3.7940778E-2,-7.698183E-1,5.728544E-2,7.2710234E-1,2.4254784E-1,-5.5076003E-2,2.0035354E-2,-1.898503E-1,-5.7223734E-2,-3.112222E-1,5.6958693E-1,5.7233423E-2,-2.6840675E-1,2.7105138E-1,-1.691697E-2,-7.755705E-1,1.0722623E-1,-1.334771E-1,-1.3744639E-1,-4.713027E-1,-7.0833725E-1,-2.73094E-1,3.2713354E-2,1.3663339E-2,6.553647E-3,-2.6272092E-2,1.4032041E-2,-3.7870556E-2,3.4263656E-3,-1.7389333E-2,1.72536E-2,-5.1025625E-2,2.0576833E-2,2.5958715E-3,-2.4115646E-3,-1.9045403E-2,-9.181308E-3,6.1718854E-3,-9.754676E-3,-4.6067886E-2,-3.923441E-2,3.7265923E-3,-1.2755825E-2,-5.3587355E-2],"categories":[],"categories_nodes":[],"categories_segments":[],"categories_sizes":[],"default_left":[0,0,0,0,0,0,0,0,0,0,0,0,0,0,0,0,0,0,0,0,0,0,0,0,0,0,0,0,0,0,0,0,0,0,0,0,0,0,0,0,0,0,0,0,0,0,0,0,0],"id":27,"left_children":[1,3,5,7,9,11,13,-1,15,17,19,21,23,-1,25,27,-1,29,31,33,35,37,39,41,43,45,47,-1,-1,-1,-1,-1,-1,-1,-1,-1,-1,-1,-1,-1,-1,-1,-1,-1,-1,-1,-1,-1,-1],"loss_changes":[3.5865493E3,3.7756055E2,5.814335E2,1.2334326E2,1.5165138E1,1.36585045E1,6.226621E2,0E0,1.22783936E2,1.158942E1,6.0105314E0,1.5046245E1,6.2532253E0,0E0,2.4513672E1,3.406375E1,0E0,4.4106274E0,7.604191E0,5.9351935E0,3.3709636E0,1.20431185E1,8.571594E0,4.3903394E0,8.127392E0,8.5653E0,2.1126205E1,0E0,0E0,0E0,0E0,0E0,0E0,0E0,0E0,0E0,0E0,0E0,0E0,0E0,0E0,0E0,0E0,0E0,0E0,0E0,0E0,0E0,0E0],"parents":[2147483647,0,0,1,1,2,2,3,3,4,4,5,5,6,6,8,8,9,9,10,10,11,11,12,12,14,14,15,15,17,17,18,18,19,19,20,20,21,21,22,22,23,23,24,24,25,25,26,26],"right_children":[2,4,6,8,10,12,14,-1,16,18,20,22,24,-1,26,28,-1,30,32,34,36,38,40,42,44,46,48,-1,-1,-1,-1,-1,-1,-1,-1,-1,-1,-1,-1,-1,-1,-1,-1,-1,-1,-1,-1,-1,-1],"split_conditions":[9.5E1,9.4E1,8E1,4.9748363E1,1E0,2E0,7.1E1,5.728544E-2,7.1E1,1.63E1,7.91E1,7.25E1,7.8E1,-5.7223734E-2,1.79E0,2E0,5.7233423E-2,4.7E1,4.01E0,2E0,1.9E1,2.8E1,1E0,6.07E2,7.09E1,5.72E2,1.2E2,3.2713354E-2,1.3663339E-2,6.553647E-3,-2.6272092E-2,1.4032041E-2,-3.7870556E-2,3.4263656E-3,-1.7389333E-2,1.72536E-2,-5.1025625E-2,2.0576833E-2,2.5958715E-3,-2.4115646E-3,-1.9045403E-2,-9.181308E-3,6.1718854E-3,-9.754676E-3,-4.6067886E-2,-3.923441E-2,3.7265923E-3,-1.2755825E-2,-5.3587355E-2],"split_indices":[9,9,7,7,4,3,10,0,10,2,8,7,0,0,5,3,0,0,5,3,10,0,4,6,8,6,8,0,0,0,0,0,0,0,0,0,0,0,0,0,0,0,0,0,0,0,0,0,0],"split_type":[0,0,0,0,0,0,0,0,0,0,0,0,0,0,0,0,0,0,0,0,0,0,0,0,0,0,0,0,0,0,0,0,0,0,0,0,0,0,0,0,0,0,0,0,0,0,0,0,0],"sum_hessian":[9.194883E3,4.0203884E3,5.174494E3,3.0125312E3,1.00785706E3,1.5494149E3,3.6250793E3,1.136838E3,1.8756932E3,7.897623E2,2.1809467E2,1.1220526E3,4.2736227E2,1.9943075E3,1.6307719E3,1.3636555E3,5.1203766E2,4.128422E1,7.4847815E2,2.0809686E2,9.997806E0,7.157996E2,4.0625305E2,3.615359E2,6.582639E1,1.4131914E2,1.4894528E3,1.0596334E3,3.040221E2,1.6355238E1,2.4928982E1,7.422842E2,6.1939692E0,1.6601721E2,4.207965E1,1.7199608E0,8.277844E0,1.0909814E2,6.067015E2,3.0304263E2,1.0321043E2,3.0741562E2,5.4120266E1,4.167994E1,2.4146456E1,1.287593E2,1.2559838E1,1.457954E3,3.1498816E1],"tree_param":{"num_deleted":"0","num_feature":"11","num_nodes":"49","size_leaf_vector":"1"}},{"base_weights":[-2.8047868E-4,5.6215036E-1,-6.5444374E-1,8.683854E-1,9.6528165E-2,-9.509793E-1,-2.692602E-1,5.687518E-2,7.0786357E-1,2.4664326E-2,2.4597354E-1,-1.4597802E-1,-5.6845646E-2,-2.1727373E-1,-5.3708196E-1,5.5041075E-1,5.682078E-2,7.811592E-2,-1.6489546E-1,2.2864403E-1,7.006755E-2,-1.773101E-1,8.4009126E-2,-1.7791256E-1,-5.201083E-1,-8.731096E-1,-4.9494475E-1,3.130443E-2,1.1439542E-2,4.985494E-3,-3.0671904E-2,-1.1112646E-2,3.244916E-2,1.3573499E-2,-1.2969538E-2,-6.5797637E-3,-2.7602047E-2,-1.6747087E-2,1.9261247E-2,-3.935702E-3,-1.6384967E-2,-1.2243217E-2,-4.18861E-2,-4.9968794E-2,1.443431E-2,2.0113664E-2,-2.5487393E-2],"categories":[],"categories_nodes":[],"categories_segments":[],"categories_sizes":[],"default_left":[0,0,0,0,0,0,0,0,0,0,0,0,0,0,0,0,0,0,0,0,0,0,0,0,0,0,0,0,0,0,0,0,0,0,0,0,0,0,0,0,0,0,0,0,0,0,0],"id":28,"left_children":[1,3,5,7,9,11,13,-1,15,17,19,21,-1,23,25,27,-1,29,31,33,-1,35,37,39,41,43,45,-1,-1,-1,-1,-1,-1,-1,-1,-1,-1,-1,-1,-1,-1,-1,-1,-1,-1,-1,-1],"loss_changes":[3.314297E3,6.9057776E2,4.754121E2,1.25416016E2,2.0644958E1,3.5196436E2,2.5123993E1,0E0,1.23047485E2,1.318059E1,1.2179085E1,3.204095E0,0E0,1.8024002E1,3.7308426E0,3.25278E1,0E0,1.5209741E1,1.3503271E1,1.2950459E1,0E0,6.605504E0,6.9111514E0,1.9982098E1,1.5032532E1,4.9023037E0,3.7055511E0,0E0,0E0,0E0,0E0,0E0,0E0,0E0,0E0,0E0,0E0,0E0,0E0,0E0,0E0,0E0,0E0,0E0,0E0,0E0,0E0],"parents":[2147483647,0,0,1,1,2,2,3,3,4,4,5,5,6,6,8,8,9,9,10,10,11,11,13,13,14,14,15,15,17,17,18,18,19,19,21,21,22,22,23,23,24,24,25,25,26,26],"right_children":[2,4,6,8,10,12,14,-1,16,18,20,22,-1,24,26,28,-1,30,32,34,-1,36,38,40,42,44,46,-1,-1,-1,-1,-1,-1,-1,-1,-1,-1,-1,-1,-1,-1,-1,-1,-1,-1,-1,-1],"split_conditions":[9.6E1,9.4E1,7.1E1,4.9748363E1,7.2E1,8E1,9.9E1,5.687518E-2,7.1E1,1E0,8.01E1,3.33E1,-5.6845646E-2,3.3E1,5.14E2,1E0,5.682078E-2,8.7E1,6.68E2,7.8E1,7.006755E-2,3.01E1,3.3E1,1E0,5.4E1,9.3E1,1.9E1,3.130443E-2,1.1439542E-2,4.985494E-3,-3.0671904E-2,-1.1112646E-2,3.244916E-2,1.3573499E-2,-1.2969538E-2,-6.5797637E-3,-2.7602047E-2,-1.6747087E-2,1.9261247E-2,-3.935702E-3,-1.6384967E-2,-1.2243217E-2,-4.18861E-2,-4.9968794E-2,1.443431E-2,2.0113664E-2,-2.5487393E-2],"split_indices":[9,9,10,7,10,7,9,0,10,4,8,2,0,2,6,4,0,0,6,7,0,2,10,3,0,8,0,0,0,0,0,0,0,0,0,0,0,0,0,0,0,0,0,0,0,0,0],"split_type":[0,0,0,0,0,0,0,0,0,0,0,0,0,0,0,0,0,0,0,0,0,0,0,0,0,0,0,0,0,0,0,0,0,0,0,0,0,0,0,0,0,0,0,0,0,0,0],"sum_hessian":[9.006162E3,4.8426934E3,4.1634683E3,2.9208286E3,1.9218647E3,2.3516045E3,1.8118636E3,1.0890039E3,1.8318247E3,1.2985809E3,6.2328394E2,4.4157733E2,1.9100272E3,1.5188528E3,2.930109E2,1.3413047E3,4.9052002E2,1.01341E3,2.851709E2,6.152536E2,8.030296E0,3.8883398E2,5.2743366E1,1.3455511E3,1.7330162E2,3.04515E1,2.625594E2,1.0850444E3,2.5626022E2,9.835541E2,2.9855913E1,2.6707587E2,1.8095041E1,5.660274E2,4.9226208E1,3.4776053E2,4.1073444E1,2.2013529E1,3.0729837E1,8.103863E2,5.351649E2,9.379223E1,7.950939E1,2.7592493E1,2.859007E0,3.8367748E0,2.5872263E2],"tree_param":{"num_deleted":"0","num_feature":"11","num_nodes":"47","size_leaf_vector":"1"}},{"base_weights":[-2.9128254E-4,6.7201555E-1,-5.1746845E-1,8.5155725E-1,1.651661E-1,-3.520478E-2,-7.341416E-1,5.6490224E-2,6.8888706E-1,2.2490005E-1,-5.0509643E-2,-1.282813E-1,5.506492E-2,-5.6422617E-2,-2.860674E-1,5.316414E-1,5.6433327E-2,-2.605871E-1,2.5211972E-1,8.7485325E-1,-7.896612E-2,-5.9532296E-2,-3.339666E-1,1.2494757E-1,-1.4831582E-1,-2.5177687E-1,-7.245619E-1,3.0854544E-2,1.1875206E-2,1.9455245E-2,-2.074185E-2,-4.6263866E-2,1.3012829E-2,6.589707E-2,-2.8875498E-2,-6.0425117E-3,2.6459614E-2,-4.720944E-3,2.5056144E-2,-5.5288382E-2,-1.3594572E-2,3.715255E-2,4.6458896E-3,2.2098688E-2,-9.743239E-3,-1.1002685E-2,-3.617003E-2,-1.8366432E-2,-4.2701177E-2],"categories":[],"categories_nodes":[],"categories_segments":[],"categories_sizes":[],"default_left":[0,0,0,0,0,0,0,0,0,0,0,0,0,0,0,0,0,0,0,0,0,0,0,0,0,0,0,0,0,0,0,0,0,0,0,0,0,0,0,0,0,0,0,0,0,0,0,0,0],"id":29,"left_children":[1,3,5,7,9,11,13,-1,15,17,19,21,23,-1,25,27,-1,29,31,33,35,37,39,41,43,45,47,-1,-1,-1,-1,-1,-1,-1,-1,-1,-1,-1,-1,-1,-1,-1,-1,-1,-1,-1,-1,-1,-1],"loss_changes":[3.0687603E3,3.4906506E2,5.2123425E2,1.2746826E2,1.2958969E1,1.3009033E1,6.0780347E2,0E0,1.23227234E2,1.046851E1,5.8304596E0,1.075811E1,1.1193878E1,0E0,2.406314E1,3.305258E1,0E0,4.3989825E0,7.3870125E0,5.015021E0,5.494175E0,1.1244568E1,8.836815E0,1.1527483E1,5.6238475E0,2.2238945E1,5.0704193E0,0E0,0E0,0E0,0E0,0E0,0E0,0E0,0E0,0E0,0E0,0E0,0E0,0E0,0E0,0E0,0E0,0E0,0E0,0E0,0E0,0E0,0E0],"parents":[2147483647,0,0,1,1,2,2,3,3,4,4,5,5,6,6,8,8,9,9,10,10,11,11,12,12,14,14,15,15,17,17,18,18,19,19,20,20,21,21,22,22,23,23,24,24,25,25,26,26],"right_children":[2,4,6,8,10,12,14,-1,16,18,20,22,24,-1,26,28,-1,30,32,34,36,38,40,42,44,46,48,-1,-1,-1,-1,-1,-1,-1,-1,-1,-1,-1,-1,-1,-1,-1,-1,-1,-1,-1,-1,-1,-1],"split_conditions":[9.5E1,9.4E1,8E1,4.9748363E1,1E0,5.2E1,7.1E1,5.6490224E-2,7.1E1,1.63E1,2.95E2,2.9380705E1,2E0,-5.6422617E-2,2E0,2E0,5.6433327E-2,3.67E2,1E0,8.4E1,3.37E0,2.8634836E1,3E0,3.23E2,1.68E1,9.8E1,3.5E1,3.0854544E-2,1.1875206E-2,1.9455245E-2,-2.074185E-2,-4.6263866E-2,1.3012829E-2,6.589707E-2,-2.8875498E-2,-6.0425117E-3,2.6459614E-2,-4.720944E-3,2.5056144E-2,-5.5288382E-2,-1.3594572E-2,3.715255E-2,4.6458896E-3,2.2098688E-2,-9.743239E-3,-1.1002685E-2,-3.617003E-2,-1.8366432E-2,-4.2701177E-2],"split_indices":[9,9,7,7,4,10,10,0,10,2,6,2,3,0,3,3,0,6,10,10,5,2,10,6,2,10,0,0,0,0,0,0,0,0,0,0,0,0,0,0,0,0,0,0,0,0,0,0,0],"split_type":[0,0,0,0,0,0,0,0,0,0,0,0,0,0,0,0,0,0,0,0,0,0,0,0,0,0,0,0,0,0,0,0,0,0,0,0,0,0,0,0,0,0,0,0,0,0,0,0,0],"sum_hessian":[8.823841E3,3.836398E3,4.9874424E3,2.832396E3,1.00400214E3,1.546487E3,3.4409556E3,1.0427786E3,1.7896173E3,7.8620935E2,2.177928E2,7.6119867E2,7.852883E2,1.8294761E3,1.6114795E3,1.3198915E3,4.6972583E2,4.1284794E1,7.4492456E2,5.6103067E0,2.121825E2,5.7147595E2,1.8972275E2,5.847507E2,2.0053764E2,1.4960609E3,1.15418594E2,1.0219175E3,2.97974E2,7.6290603E0,3.3655735E1,4.3391523E0,7.405854E2,4.3697376E0,1.2405689E0,1.9926062E2,1.2921874E1,5.38782E2,3.2693935E1,1.2871673E1,1.7685107E2,2.7714958E1,5.570357E2,1.4037139E1,1.865005E2,1.4031466E3,9.2914314E1,3.1722271E1,8.369632E1],"tree_param":{"num_deleted":"0","num_feature":"11","num_nodes":"49","size_leaf_vector":"1"}},{"base_weights":[-2.9799476E-4,6.5400094E-1,-5.009332E-1,8.350022E-1,1.5731151E-1,-3.3458028E-2,-7.163278E-1,5.612872E-2,6.703077E-1,2.1422835E-1,-4.77472E-2,-9.797779E-2,8.679328E-2,-5.6057464E-2,-2.7344298E-1,5.1342887E-1,5.6069177E-2,-2.4731247E-1,2.4021026E-1,-1.1310976E-2,-7.4012303E-1,-8.595776E-2,-1.0772074E0,1.08359516E-1,-6.3986266E-1,-6.598924E-1,-2.3686798E-1,2.9471207E-2,9.766382E-3,6.6500544E-3,-2.4602097E-2,-2.0863642E-3,1.3721145E-2,-2.8199067E-2,1.9557164E-3,1.684013E-2,-4.892656E-2,-6.5299124E-4,-9.53862E-3,-6.1104693E-2,-2.1805031E-2,-2.8922323E-2,6.384933E-3,1.6319036E-2,-4.5328356E-2,-3.6788706E-2,4.996016E-3,-1.0968852E-2,-5.133581E-2],"categories":[],"categories_nodes":[],"categories_segments":[],"categories_sizes":[],"default_left":[0,0,0,0,0,0,0,0,0,0,0,0,0,0,0,0,0,0,0,0,0,0,0,0,0,0,0,0,0,0,0,0,0,0,0,0,0,0,0,0,0,0,0,0,0,0,0,0,0],"id":30,"left_children":[1,3,5,7,9,11,13,-1,15,17,19,21,23,-1,25,27,-1,29,31,33,35,37,39,41,43,45,47,-1,-1,-1,-1,-1,-1,-1,-1,-1,-1,-1,-1,-1,-1,-1,-1,-1,-1,-1,-1,-1,-1],"loss_changes":[2.833406E3,3.369558E2,4.934038E2,1.2938977E2,1.1712723E1,1.2009146E1,6.0114246E2,0E0,1.23239746E2,9.47308E0,5.5078535E0,1.1761561E1,8.541805E0,0E0,2.25057E1,3.1312256E1,0E0,4.0051775E0,7.1849136E0,5.839417E0,3.132256E0,7.6076546E0,5.9337425E-1,7.0591373E0,4.348963E0,8.033768E0,2.0031387E1,0E0,0E0,0E0,0E0,0E0,0E0,0E0,0E0,0E0,0E0,0E0,0E0,0E0,0E0,0E0,0E0,0E0,0E0,0E0,0E0,0E0,0E0],"parents":[2147483647,0,0,1,1,2,2,3,3,4,4,5,5,6,6,8,8,9,9,10,10,11,11,12,12,14,14,15,15,17,17,18,18,19,19,20,20,21,21,22,22,23,23,24,24,25,25,26,26],"right_children":[2,4,6,8,10,12,14,-1,16,18,20,22,24,-1,26,28,-1,30,32,34,36,38,40,42,44,46,48,-1,-1,-1,-1,-1,-1,-1,-1,-1,-1,-1,-1,-1,-1,-1,-1,-1,-1,-1,-1,-1,-1],"split_conditions":[9.5E1,9.4E1,8E1,4.9748363E1,1E0,6.8E1,7.1E1,5.612872E-2,7.1E1,1.63E1,7.91E1,8.9E1,3.87E1,-5.6057464E-2,1.79E0,1E0,5.6069177E-2,4.7E1,2.5E1,1.73E1,1.9E1,7.11E1,3.14E1,5.14E1,3.56E2,5.72E2,1.2E2,2.9471207E-2,9.766382E-3,6.6500544E-3,-2.4602097E-2,-2.0863642E-3,1.3721145E-2,-2.8199067E-2,1.9557164E-3,1.684013E-2,