{"learner":{"attributes":{"scikit_learn":"{\"_estimator_type\": \"classifier\"}"},"feature_names":["Age","Gender","Ethnicity","Smoking","PollutionExposure","MosquitoCoil","PREFVC","PREFEV","Budesonide","Wheezing","BMI","ShortnessOfBreath","Nedocromil"],"feature_types":["float","int","int","int","float","float","float","float","float","float","float","float","float"],"gradient_booster":{"model":{"cats":{"enc":[],"feature_segments":[],"sorted_idx":[]},"gbtree_model_param":{"num_parallel_tree":"1","num_trees":"100"},"iteration_indptr":[0,1,2,3,4,5,6,7,8,9,10,11,12,13,14,15,16,17,18,19,20,21,22,23,24,25,26,27,28,29,30,31,32,33,34,35,36,37,38,39,40,41,42,43,44,45,46,47,48,49,50,51,52,53,54,55,56,57,58,59,60,61,62,63,64,65,66,67,68,69,70,71,72,73,74,75,76,77,78,79,80,81,82,83,84,85,86,87,88,89,90,91,92,93,94,95,96,97,98,99,100],"tree_info":[0,0,0,0,0,0,0,0,0,0,0,0,0,0,0,0,0,0,0,0,0,0,0,0,0,0,0,0,0,0,0,0,0,0,0,0,0,0,0,0,0,0,0,0,0,0,0,0,0,0,0,0,0,0,0,0,0,0,0,0,0,0,0,0,0,0,0,0,0,0,0,0,0,0,0,0,0,0,0,0,0,0,0,0,0,0,0,0,0,0,0,0,0,0,0,0,0,0,0,0],"trees":[{"base_weights":[-2.46615E-8,9.1450524E-1,-6.1621124E-1,1.6097565E0,1.4565188E-1,-3.8756866E-2,-1.353682E0,1.9680393E0,1.2659075E0,1.0052823E0,-2.663521E-1,3.771529E-1,-1.3869448E0,-1.513342E0,-4.722516E-1,1.6015732E-1,2.0161669E-1,-1.3460965E-3,1.6188388E-1,1.4624996E-1,2.7111357E-2,-7.801636E-2,5.657152E-2,1.873375E-2,1.4744136E-1,-6.54789E-2,-1.8821667E-1,-1.3051137E-1,-1.8045904E-1,1.23960655E-2,-1.3877246E-1],"categories":[],"categories_nodes":[],"categories_segments":[],"categories_sizes":[],"default_left":[0,0,0,0,0,0,0,0,0,0,0,0,0,0,0,0,0,0,0,0,0,0,0,0,0,0,0,0,0,0,0],"id":0,"left_children":[1,3,5,7,9,11,13,15,17,19,21,23,25,27,29,-1,-1,-1,-1,-1,-1,-1,-1,-1,-1,-1,-1,-1,-1,-1,-1],"loss_changes":[5.5466187E3,2.1177979E3,2.5041333E3,2.5383447E2,6.6704974E2,1.8503575E3,3.6269727E2,1.4710205E1,4.806797E2,2.044259E2,5.4488403E2,5.250002E2,2.8085413E2,1.3021045E2,2.1712256E2,0E0,0E0,0E0,0E0,0E0,0E0,0E0,0E0,0E0,0E0,0E0,0E0,0E0,0E0,0E0,0E0],"parents":[2147483647,0,0,1,1,2,2,3,3,4,4,5,5,6,6,7,7,8,8,9,9,10,10,11,11,12,12,13,13,14,14],"right_children":[2,4,6,8,10,12,14,16,18,20,22,24,26,28,30,-1,-1,-1,-1,-1,-1,-1,-1,-1,-1,-1,-1,-1,-1,-1,-1],"split_conditions":[2.26E0,1E0,1E0,1.8E0,1.58E0,3.5067666E0,1E0,2.164662E0,2.51607E0,2E0,3.0056696E0,1E0,8.902218E0,2E0,2E0,1.6015732E-1,2.0161669E-1,-1.3460965E-3,1.6188388E-1,1.4624996E-1,2.7111357E-2,-7.801636E-2,5.657152E-2,1.873375E-2,1.4744136E-1,-6.54789E-2,-1.8821667E-1,-1.3051137E-1,-1.8045904E-1,1.23960655E-2,-1.3877246E-1],"split_indices":[7,8,8,7,7,7,3,6,6,8,6,3,4,8,8,0,0,0,0,0,0,0,0,0,0,0,0,0,0,0,0],"split_type":[0,0,0,0,0,0,0,0,0,0,0,0,0,0,0,0,0,0,0,0,0,0,0,0,0,0,0,0,0,0,0],"sum_hessian":[9.84066E3,3.9612998E3,5.879361E3,2.079645E3,1.8816548E3,3.2980078E3,2.581353E3,1.0161335E3,1.0635115E3,6.091814E2,1.2724734E3,2.5210085E3,7.7699927E2,2.184874E3,3.9647906E2,1.2193602E2,8.9419745E2,2.3015735E2,8.333541E2,3.7478494E2,2.3439644E2,7.867242E2,4.857492E2,2.1502131E3,3.707952E2,3.1444034E2,4.6255893E2,1.2772112E3,9.076628E2,2.4063039E2,1.558487E2],"tree_param":{"num_deleted":"0","num_feature":"13","num_nodes":"31","size_leaf_vector":"1"}},{"base_weights":[-3.7386414E-4,8.23121E-1,-5.5879915E-1,1.1433684E0,-5.848634E-1,-3.5236496E-2,-1.2340921E0,1.4476031E0,5.898892E-1,5.8074045E-1,-9.1757435E-1,3.4573728E-1,-1.2463313E0,-1.3815614E0,-4.274405E-1,1.7707849E-1,1.13776244E-1,1.2150569E-1,1.0323325E-2,1.960472E-2,1.5558748E-1,-1.4762726E-1,-6.1251026E-2,1.7415084E-2,1.3289127E-1,-6.0328115E-2,-1.7451988E-1,-1.1881284E-1,-1.6538548E-1,1.1154662E-2,-1.2653124E-1],"categories":[],"categories_nodes":[],"categories_segments":[],"categories_sizes":[],"default_left":[0,0,0,0,0,0,0,0,0,0,0,0,0,0,0,0,0,0,0,0,0,0,0,0,0,0,0,0,0,0,0],"id":1,"left_children":[1,3,5,7,9,11,13,15,17,19,21,23,25,27,29,-1,-1,-1,-1,-1,-1,-1,-1,-1,-1,-1,-1,-1,-1,-1,-1],"loss_changes":[4.508435E3,1.7870142E3,2.0655205E3,5.42688E2,2.8548688E2,1.5192712E3,3.029121E2,2.0649414E2,3.487321E2,6.113151E1,9.65874E1,4.2234467E2,2.5171521E2,1.11623535E2,1.7888068E2,0E0,0E0,0E0,0E0,0E0,0E0,0E0,0E0,0E0,0E0,0E0,0E0,0E0,0E0,0E0,0E0],"parents":[2147483647,0,0,1,1,2,2,3,3,4,4,5,5,6,6,7,7,8,8,9,9,10,10,11,11,12,12,13,13,14,14],"right_children":[2,4,6,8,10,12,14,16,18,20,22,24,26,28,30,-1,-1,-1,-1,-1,-1,-1,-1,-1,-1,-1,-1,-1,-1,-1,-1],"split_conditions":[2.26E0,2E0,1E0,1E0,1.4452761E0,3.4838955E0,1E0,1.8E0,1.73E0,2.91E0,2.6638947E0,1E0,9.636108E0,2E0,2E0,1.7707849E-1,1.13776244E-1,1.2150569E-1,1.0323325E-2,1.960472E-2,1.5558748E-1,-1.4762726E-1,-6.1251026E-2,1.7415084E-2,1.3289127E-1,-6.0328115E-2,-1.7451988E-1,-1.1881284E-1,-1.6538548E-1,1.1154662E-2,-1.2653124E-1],"split_indices":[7,8,8,8,7,7,3,7,7,6,6,3,4,8,8,0,0,0,0,0,0,0,0,0,0,0,0,0,0,0,0],"split_type":[0,0,0,0,0,0,0,0,0,0,0,0,0,0,0,0,0,0,0,0,0,0,0,0,0,0,0,0,0,0,0],"sum_hessian":[9.801922E3,3.9607039E3,5.8412183E3,3.2269248E3,7.33779E2,3.2908416E3,2.5503765E3,2.0812786E3,1.1456464E3,1.6277504E2,5.710039E2,2.5039038E3,7.869378E2,2.1555867E3,3.947898E2,1.0163995E3,1.064879E3,5.008054E2,6.4484094E2,1.17587494E2,4.518755E1,2.0031158E2,3.7069235E2,2.13285E3,3.710537E2,3.447533E2,4.4218454E2,1.2634293E3,8.921574E2,2.4077237E2,1.5401743E2],"tree_param":{"num_deleted":"0","num_feature":"13","num_nodes":"31","size_leaf_vector":"1"}},{"base_weights":[-6.806215E-4,7.068183E-1,-5.4022634E-1,1.0026653E0,-5.876236E-1,-6.9965124E-2,-1.1602522E0,1.2843727E0,4.9261203E-1,4.2670935E-1,-9.1304296E-1,2.7599669E-1,-1.1655421E0,-1.292972E0,-3.926919E-1,8.834866E-2,1.5327086E-1,9.748714E-2,-5.8350735E-3,7.881372E-3,1.2642144E-1,-1.11219704E-1,-2.6408304E-2,1.3088985E-2,1.17522836E-1,-5.354188E-2,-1.609071E-1,-1.119413E-1,-1.5401164E-1,7.074871E-3,-1.143937E-1],"categories":[],"categories_nodes":[],"categories_segments":[],"categories_sizes":[],"default_left":[0,0,0,0,0,0,0,0,0,0,0,0,0,0,0,0,0,0,0,0,0,0,0,0,0,0,0,0,0,0,0],"id":2,"left_children":[1,3,5,7,9,11,13,15,17,19,21,23,25,27,29,-1,-1,-1,-1,-1,-1,-1,-1,-1,-1,-1,-1,-1,-1,-1,-1],"loss_changes":[3.7058398E3,1.6091172E3,1.6058441E3,4.9066675E2,2.5852307E2,1.1879047E3,2.4148999E2,2.1787158E2,3.2373874E2,5.5443577E1,7.626892E1,3.1067145E2,2.0934827E2,8.5132324E1,1.2250703E2,0E0,0E0,0E0,0E0,0E0,0E0,0E0,0E0,0E0,0E0,0E0,0E0,0E0,0E0,0E0,0E0],"parents":[2147483647,0,0,1,1,2,2,3,3,4,4,5,5,6,6,7,7,8,8,9,9,10,10,11,11,12,12,13,13,14,14],"right_children":[2,4,6,8,10,12,14,16,18,20,22,24,26,28,30,-1,-1,-1,-1,-1,-1,-1,-1,-1,-1,-1,-1,-1,-1,-1,-1],"split_conditions":[2.3158944E0,2E0,1E0,1E0,1.4965776E0,3.5067666E0,1E0,2.6723642E0,1.87E0,2.91E0,3.231206E0,1E0,8.902218E0,2E0,2E0,8.834866E-2,1.5327086E-1,9.748714E-2,-5.8350735E-3,7.881372E-3,1.2642144E-1,-1.11219704E-1,-2.6408304E-2,1.3088985E-2,1.17522836E-1,-5.354188E-2,-1.609071E-1,-1.119413E-1,-1.5401164E-1,7.074871E-3,-1.143937E-1],"split_indices":[7,8,8,8,7,7,3,6,7,6,6,3,4,8,8,0,0,0,0,0,0,0,0,0,0,0,0,0,0,0,0],"split_type":[0,0,0,0,0,0,0,0,0,0,0,0,0,0,0,0,0,0,0,0,0,0,0,0,0,0,0,0,0,0,0],"sum_hessian":[9.706064E3,4.199287E3,5.5067773E3,3.4182625E3,7.8102454E2,3.1322341E3,2.3745432E3,2.201071E3,1.2171914E3,1.8963148E2,5.91393E2,2.3810828E3,7.5115137E2,2.0239032E3,3.5063992E2,8.436815E2,1.3573894E3,6.486536E2,5.685378E2,1.3475076E2,5.4880722E1,4.5197598E2,1.3941704E2,2.0512268E3,3.2985596E2,3.1121463E2,4.399367E2,1.1922007E3,8.317026E2,2.1742004E2,1.3321988E2],"tree_param":{"num_deleted":"0","num_feature":"13","num_nodes":"31","size_leaf_vector":"1"}},{"base_weights":[-9.592325E-4,7.408055E-1,-4.3739244E-1,1.0047984E0,-4.0546426E-1,1.0458051E-2,-1.0322251E0,6.610616E-1,1.3520613E0,5.502421E-1,-6.809748E-1,3.1074652E-1,-1.0641139E0,-1.1760403E0,-3.3893812E-1,1.2747204E-1,4.8448513E-3,1.5174937E-1,1.054569E-1,2.2811385E-2,1.6378257E-1,-1.24445036E-1,-3.6122754E-2,1.53458165E-2,1.13780774E-1,-4.9650565E-2,-1.5324785E-1,-9.9363245E-2,-1.4417772E-1,1.2210428E-2,-1.0863849E-1],"categories":[],"categories_nodes":[],"categories_segments":[],"categories_sizes":[],"default_left":[0,0,0,0,0,0,0,0,0,0,0,0,0,0,0,0,0,0,0,0,0,0,0,0,0,0,0,0,0,0,0],"id":3,"left_children":[1,3,5,7,9,11,13,15,17,19,21,23,25,27,29,-1,-1,-1,-1,-1,-1,-1,-1,-1,-1,-1,-1,-1,-1,-1,-1],"loss_changes":[3.0991157E3,1.0734882E3,1.6055818E3,3.431931E2,1.7534897E2,1.1101272E3,2.5770947E2,5.4527356E2,6.892383E1,5.1916435E1,9.2566864E1,3.4961368E2,1.9900098E2,1.02471924E2,1.5387769E2,0E0,0E0,0E0,0E0,0E0,0E0,0E0,0E0,0E0,0E0,0E0,0E0,0E0,0E0,0E0,0E0],"parents":[2147483647,0,0,1,1,2,2,3,3,4,4,5,5,6,6,7,7,8,8,9,9,10,10,11,11,12,12,13,13,14,14],"right_children":[2,4,6,8,10,12,14,16,18,20,22,24,26,28,30,-1,-1,-1,-1,-1,-1,-1,-1,-1,-1,-1,-1,-1,-1,-1,-1],"split_conditions":[2.1874452E0,2E0,1E0,2.7913718E0,1.41E0,3.4838955E0,1E0,1.73E0,1E0,1E0,2.6638947E0,1E0,9.636108E0,2E0,2E0,1.2747204E-1,4.8448513E-3,1.5174937E-1,1.054569E-1,2.2811385E-2,1.6378257E-1,-1.24445036E-1,-3.6122754E-2,1.53458165E-2,1.13780774E-1,-4.9650565E-2,-1.5324785E-1,-9.9363245E-2,-1.4417772E-1,1.2210428E-2,-1.0863849E-1],"split_indices":[7,8,8,6,7,7,3,7,8,5,6,3,4,8,8,0,0,0,0,0,0,0,0,0,0,0,0,0,0,0,0],"split_type":[0,0,0,0,0,0,0,0,0,0,0,0,0,0,0,0,0,0,0,0,0,0,0,0,0,0,0,0,0,0,0],"sum_hessian":[9.571126E3,3.5451199E3,6.0260063E3,2.8815947E3,6.635253E2,3.4382927E3,2.5877136E3,1.449609E3,1.4319857E3,1.4825453E2,5.1527075E2,2.6878777E3,7.50415E2,2.1425647E3,4.45149E2,7.236464E2,7.259625E2,9.1761084E2,5.143749E2,1.15310715E2,3.2943813E1,1.8549307E2,3.297777E2,2.2593801E3,4.2849756E2,3.4019492E2,4.102201E2,1.2732891E3,8.692756E2,2.7584073E2,1.6930827E2],"tree_param":{"num_deleted":"0","num_feature":"13","num_nodes":"31","size_leaf_vector":"1"}},{"base_weights":[-1.1443043E-3,8.1495E-1,-3.361731E-1,1.0606663E0,-2.2438878E-1,8.865354E-2,-9.0079635E-1,4.5875582E-1,1.2303312E0,5.387662E-1,-4.951017E-1,4.3780604E-1,-7.2226787E-1,-1.0724221E0,-2.0636515E-1,1.1140746E-1,-4.078121E-2,1.4157067E-1,9.13706E-2,2.2189934E-2,1.5887214E-1,-1.0351483E-1,-1.5070515E-2,2.627173E-2,1.1108303E-1,-3.4461297E-2,-1.4430527E-1,-8.85376E-2,-1.3545495E-1,1.9544935E-2,-8.60785E-2],"categories":[],"categories_nodes":[],"categories_segments":[],"categories_sizes":[],"default_left":[0,0,0,0,0,0,0,0,0,0,0,0,0,0,0,0,0,0,0,0,0,0,0,0,0,0,0,0,0,0,0],"id":4,"left_children":[1,3,5,7,9,11,13,15,17,19,21,23,25,27,29,-1,-1,-1,-1,-1,-1,-1,-1,-1,-1,-1,-1,-1,-1,-1,-1],"loss_changes":[2.5729045E3,6.996815E2,1.6003384E3,2.2566821E2,1.0862938E2,1.0784741E3,3.4117798E2,2.7799036E2,1.00105225E2,4.5499763E1,7.1951355E1,3.1344977E2,3.115796E2,1.1999512E2,1.497627E2,0E0,0E0,0E0,0E0,0E0,0E0,0E0,0E0,0E0,0E0,0E0,0E0,0E0,0E0,0E0,0E0],"parents":[2147483647,0,0,1,1,2,2,3,3,4,4,5,5,6,6,7,7,8,8,9,9,10,10,11,11,12,12,13,13,14,14],"right_children":[2,4,6,8,10,12,14,16,18,20,22,24,26,28,30,-1,-1,-1,-1,-1,-1,-1,-1,-1,-1,-1,-1,-1,-1,-1,-1],"split_conditions":[2.0184472E0,2E0,1E0,2.3689387E0,1.3769091E0,3.1464832E0,1E0,1.6337343E0,1E0,1E0,2.6638947E0,1E0,9.636108E0,2E0,2E0,1.1140746E-1,-4.078121E-2,1.4157067E-1,9.13706E-2,2.2189934E-2,1.5887214E-1,-1.0351483E-1,-1.5070515E-2,2.627173E-2,1.1108303E-1,-3.4461297E-2,-1.4430527E-1,-8.85376E-2,-1.3545495E-1,1.9544935E-2,-8.60785E-2],"split_indices":[7,8,8,6,7,7,3,7,8,5,6,3,4,8,8,0,0,0,0,0,0,0,0,0,0,0,0,0,0,0,0],"split_type":[0,0,0,0,0,0,0,0,0,0,0,0,0,0,0,0,0,0,0,0,0,0,0,0,0,0,0,0,0,0,0],"sum_hessian":[9.408249E3,2.7378083E3,6.6704404E3,2.2142935E3,5.235149E2,3.8069255E3,2.8635151E3,4.8772455E2,1.7265688E3,1.3682037E2,3.8669452E2,2.6614602E3,1.1454653E3,2.2956184E3,5.6789667E2,2.7754953E2,2.10175E2,1.0868033E3,6.3976556E2,1.0603217E2,3.0788195E1,1.497954E2,2.3689914E2,2.1131182E3,5.48342E2,7.526125E2,3.928529E2,1.3829095E3,9.127089E2,3.5229095E2,2.156057E2],"tree_param":{"num_deleted":"0","num_feature":"13","num_nodes":"31","size_leaf_vector":"1"}},{"base_weights":[-1.2617138E-3,4.19975E-1,-5.640113E-1,9.0506846E-1,-1.1182137E-1,-2.3437628E-1,-1.0493687E0,1.326146E0,6.3648075E-1,5.2560496E-1,-4.0010116E-1,-2.3887973E-2,-1.3830543E0,-1.1148465E0,-4.8421717E-1,8.981275E-2,1.3851248E-1,-8.920216E-3,9.408978E-2,8.341094E-2,4.290304E-3,-7.3140375E-2,1.7939381E-2,-3.2702282E-2,2.1327384E-2,6.7256026E-2,-1.3919769E-1,-9.903754E-2,-1.3026194E-1,-8.350307E-2,4.2885587E-2],"categories":[],"categories_nodes":[],"categories_segments":[],"categories_sizes":[],"default_left":[0,0,0,0,0,0,0,0,0,0,0,0,0,0,0,0,0,0,0,0,0,0,0,0,0,0,0,0,0,0,0],"id":5,"left_children":[1,3,5,7,9,11,13,15,17,19,21,23,25,27,29,-1,-1,-1,-1,-1,-1,-1,-1,-1,-1,-1,-1,-1,-1,-1,-1],"loss_changes":[2.1879133E3,1.3618152E3,6.31905E2,3.1136963E2,4.6308575E2,5.692101E2,5.858716E1,2.5872559E1,3.7285187E2,1.1684433E2,3.332457E2,1.4318959E2,7.623413E0,3.21593E1,5.4065247E1,0E0,0E0,0E0,0E0,0E0,0E0,0E0,0E0,0E0,0E0,0E0,0E0,0E0,0E0,0E0,0E0],"parents":[2147483647,0,0,1,1,2,2,3,3,4,4,5,5,6,6,7,7,8,8,9,9,10,10,11,11,12,12,13,13,14,14],"right_children":[2,4,6,8,10,12,14,16,18,20,22,24,26,28,30,-1,-1,-1,-1,-1,-1,-1,-1,-1,-1,-1,-1,-1,-1,-1,-1],"split_conditions":[2.592782E0,1E0,1E0,1.88E0,1.73E0,1.0285015E1,1E0,2.164662E0,2.7256866E0,2E0,3.12E0,4.7497373E0,2.7343318E0,2E0,6.0202827E0,8.981275E-2,1.3851248E-1,-8.920216E-3,9.408978E-2,8.341094E-2,4.290304E-3,-7.3140375E-2,1.7939381E-2,-3.2702282E-2,2.1327384E-2,6.7256026E-2,-1.3919769E-1,-9.903754E-2,-1.3026194E-1,-8.350307E-2,4.2885587E-2],"split_indices":[7,8,8,7,7,4,3,6,6,8,6,4,7,8,4,0,0,0,0,0,0,0,0,0,0,0,0,0,0,0,0],"split_type":[0,0,0,0,0,0,0,0,0,0,0,0,0,0,0,0,0,0,0,0,0,0,0,0,0,0,0,0,0,0,0],"sum_hessian":[9.227726E3,5.2775547E3,3.9501711E3,2.7596018E3,2.5179526E3,2.3533528E3,1.5968184E3,1.0731838E3,1.6864181E3,7.8387463E2,1.734078E3,1.9897617E3,3.6359103E2,1.4301504E3,1.6666801E2,1.3193529E2,9.4124854E2,4.9858228E2,1.1878358E3,4.777848E2,3.060898E2,1.1031404E3,6.309376E2,8.732344E2,1.1165273E3,1.2499651E0,3.623411E2,8.6381726E2,5.6633307E2,1.2046818E2,4.6199833E1],"tree_param":{"num_deleted":"0","num_feature":"13","num_nodes":"31","size_leaf_vector":"1"}},{"base_weights":[-1.3065053E-3,5.908307E-1,-3.4832323E-1,1.0404971E0,1.3475792E-1,5.6950096E-4,-8.4064806E-1,1.2993032E0,7.592849E-1,-2.7726015E-1,5.204318E-1,2.0099472E-1,-1.0423453E0,-6.1982185E-1,-1.1919588E0,9.935289E-2,1.3424489E-1,-1.9343892E-2,1.06169224E-1,3.6317337E-2,-7.376786E-2,8.6547546E-2,-3.1584315E-3,8.041094E-3,9.093358E-2,-2.9259324E-2,-1.2837586E-1,-7.9048745E-2,1.103008E-2,-1.2076024E-1,5.3997647E-2],"categories":[],"categories_nodes":[],"categories_segments":[],"categories_sizes":[],"default_left":[0,0,0,0,0,0,0,0,0,0,0,0,0,0,0,0,0,0,0,0,0,0,0,0,0,0,0,0,0,0,0],"id":6,"left_children":[1,3,5,7,9,11,13,15,17,19,21,23,25,27,29,-1,-1,-1,-1,-1,-1,-1,-1,-1,-1,-1,-1,-1,-1,-1,-1],"loss_changes":[1.8606167E3,6.8601526E2,9.806487E2,1.2161597E2,2.6427692E2,6.9883435E2,1.8295544E2,1.0220825E1,2.3350183E2,2.3743246E2,1.6362166E2,2.3945856E2,9.717151E1,1.8151678E2,2.5384033E1,0E0,0E0,0E0,0E0,0E0,0E0,0E0,0E0,0E0,0E0,0E0,0E0,0E0,0E0,0E0,0E0],"parents":[2147483647,0,0,1,1,2,2,3,3,4,4,5,5,6,6,7,7,8,8,9,9,10,10,11,11,12,12,13,13,14,14],"right_children":[2,4,6,8,10,12,14,16,18,20,22,24,26,28,30,-1,-1,-1,-1,-1,-1,-1,-1,-1,-1,-1,-1,-1,-1,-1,-1],"split_conditions":[2.1874452E0,1E0,1E0,1.8E0,2.7634304E0,3.643243E0,2E0,2.164662E0,2.51607E0,1.591509E0,2E0,1E0,4.383865E0,1E0,9.369113E0,9.935289E-2,1.3424489E-1,-1.9343892E-2,1.06169224E-1,3.6317337E-2,-7.376786E-2,8.6547546E-2,-3.1584315E-3,8.041094E-3,9.093358E-2,-2.9259324E-2,-1.2837586E-1,-7.9048745E-2,1.103008E-2,-1.2076024E-1,5.3997647E-2],"split_indices":[7,8,8,7,6,7,8,6,6,7,8,3,6,3,4,0,0,0,0,0,0,0,0,0,0,0,0,0,0,0,0],"split_type":[0,0,0,0,0,0,0,0,0,0,0,0,0,0,0,0,0,0,0,0,0,0,0,0,0,0,0,0,0,0,0],"sum_hessian":[9.05291E3,3.3447844E3,5.7081255E3,1.6835758E3,1.6612086E3,3.3412805E3,2.3668452E3,8.748297E2,8.087461E2,8.033091E2,8.5789954E2,2.8033464E3,5.379341E2,1.4550172E3,9.118278E2,1.11148224E2,7.636815E2,1.9494356E2,6.1380255E2,3.3606296E2,4.6724612E2,5.27569E2,3.3033054E2,2.396495E3,4.0685153E2,1.3156076E2,4.0637332E2,1.179279E3,2.757382E2,9.039656E2,7.86226E0],"tree_param":{"num_deleted":"0","num_feature":"13","num_nodes":"31","size_leaf_vector":"1"}},{"base_weights":[-1.3075501E-3,4.441291E-1,-4.0127447E-1,6.514542E-1,-4.4463736E-1,-9.1358535E-2,-8.63978E-1,3.1745476E-1,9.504085E-1,3.13114E-1,-6.8021023E-1,9.96504E-2,-1.0819144E0,-9.641982E-1,-2.7813455E-1,9.493512E-2,-1.3728045E-2,1.1267958E-1,6.6131316E-2,-9.412417E-3,9.82094E-2,-8.6661585E-2,-1.9550474E-2,-1.2208176E-2,4.2687815E-2,-6.6695833E-3,-1.2240086E-1,-8.1026755E-2,-1.208927E-1,-6.0856026E-2,5.5289514E-2],"categories":[],"categories_nodes":[],"categories_segments":[],"categories_sizes":[],"default_left":[0,0,0,0,0,0,0,0,0,0,0,0,0,0,0,0,0,0,0,0,0,0,0,0,0,0,0,0,0,0,0],"id":7,"left_children":[1,3,5,7,9,11,13,15,17,19,21,23,25,27,29,-1,-1,-1,-1,-1,-1,-1,-1,-1,-1,-1,-1,-1,-1,-1,-1],"loss_changes":[1.5785928E3,7.727207E2,6.693872E2,3.3913867E2,1.4185844E2,5.2931445E2,1.0967517E2,4.6193265E2,9.070276E1,5.1547012E1,5.4550995E1,1.7025322E2,6.5157104E1,5.92417E1,7.583512E1,0E0,0E0,0E0,0E0,0E0,0E0,0E0,0E0,0E0,0E0,0E0,0E0,0E0,0E0,0E0,0E0],"parents":[2147483647,0,0,1,1,2,2,3,3,4,4,5,5,6,6,7,7,8,8,9,9,10,10,11,11,12,12,13,13,14,14],"right_children":[2,4,6,8,10,12,14,16,18,20,22,24,26,28,30,-1,-1,-1,-1,-1,-1,-1,-1,-1,-1,-1,-1,-1,-1,-1,-1],"split_conditions":[2.3952935E0,2E0,1E0,2.7913718E0,1.4965776E0,4.315223E0,1E0,1.7514887E0,1E0,2.7634304E0,6.3E0,5.471055E0,1.6565031E1,2E0,6.0202827E0,9.493512E-2,-1.3728045E-2,1.1267958E-1,6.6131316E-2,-9.412417E-3,9.82094E-2,-8.6661585E-2,-1.9550474E-2,-1.2208176E-2,4.2687815E-2,-6.6695833E-3,-1.2240086E-1,-8.1026755E-2,-1.208927E-1,-6.0856026E-2,5.5289514E-2],"split_indices":[7,8,8,6,7,6,3,7,8,6,4,4,0,8,4,0,0,0,0,0,0,0,0,0,0,0,0,0,0,0,0],"split_type":[0,0,0,0,0,0,0,0,0,0,0,0,0,0,0,0,0,0,0,0,0,0,0,0,0,0,0,0,0,0,0],"sum_hessian":[8.858537E3,4.1909897E3,4.667548E3,3.398483E3,7.9250684E2,2.7960012E3,1.8715465E3,1.6061322E3,1.7923506E3,1.8786977E2,6.046371E2,2.3447603E3,4.5124084E2,1.5975996E3,2.739469E2,6.716814E2,9.344508E2,1.111368E3,6.8098254E2,1.17314476E2,7.055528E1,4.36126E2,1.6851106E2,1.3980543E3,9.46706E2,5.5583496E1,3.9565735E2,9.8337994E2,6.142197E2,1.9620251E2,7.7744385E1],"tree_param":{"num_deleted":"0","num_feature":"13","num_nodes":"31","size_leaf_vector":"1"}},{"base_weights":[-1.3969925E-3,6.582868E-1,-2.4033588E-1,1.0898434E0,2.5862223E-1,6.537027E-2,-6.7282563E-1,6.0242367E-1,1.1656313E0,-4.8760858E-1,4.8819903E-1,3.1790793E-1,-5.76109E-1,-8.3033127E-1,-1.2051548E-1,1.2534092E-1,-2.1124389E-2,1.2396711E-1,9.4335414E-2,1.778437E-2,-9.691957E-2,7.5230055E-2,6.997435E-3,1.784385E-2,8.780304E-2,-2.91659E-2,-1.2584327E-1,-6.478304E-2,-1.1370261E-1,-3.9638843E-2,6.35724E-2],"categories":[],"categories_nodes":[],"categories_segments":[],"categories_sizes":[],"default_left":[0,0,0,0,0,0,0,0,0,0,0,0,0,0,0,0,0,0,0,0,0,0,0,0,0,0,0,0,0,0,0],"id":8,"left_children":[1,3,5,7,9,11,13,15,17,19,21,23,25,27,29,-1,-1,-1,-1,-1,-1,-1,-1,-1,-1,-1,-1,-1,-1,-1,-1],"loss_changes":[1.3681631E3,3.9778705E2,8.4251184E2,4.027893E1,2.0574292E2,6.050954E2,2.2946179E2,8.043466E1,1.4613647E1,9.077601E1,1.01326126E2,2.0920004E2,2.0442203E2,1.1418274E2,1.2265896E2,0E0,0E0,0E0,0E0,0E0,0E0,0E0,0E0,0E0,0E0,0E0,0E0,0E0,0E0,0E0,0E0],"parents":[2147483647,0,0,1,1,2,2,3,3,4,4,5,5,6,6,7,7,8,8,9,9,10,10,11,11,12,12,13,13,14,14],"right_children":[2,4,6,8,10,12,14,16,18,20,22,24,26,28,30,-1,-1,-1,-1,-1,-1,-1,-1,-1,-1,-1,-1,-1,-1,-1,-1],"split_conditions":[1.9732282E0,1E0,1E0,2.189824E0,2.3689387E0,3.1464832E0,1E0,1.55E0,1.82E0,1.43E0,2E0,1E0,9.636108E0,2E0,6.2E0,1.2534092E-1,-2.1124389E-2,1.2396711E-1,9.4335414E-2,1.778437E-2,-9.691957E-2,7.5230055E-2,6.997435E-3,1.784385E-2,8.780304E-2,-2.91659E-2,-1.2584327E-1,-6.478304E-2,-1.1370261E-1,-3.9638843E-2,6.35724E-2],"split_indices":[7,8,8,6,6,7,3,7,7,7,8,3,4,8,4,0,0,0,0,0,0,0,0,0,0,0,0,0,0,0,0],"split_type":[0,0,0,0,0,0,0,0,0,0,0,0,0,0,0,0,0,0,0,0,0,0,0,0,0,0,0,0,0,0,0],"sum_hessian":[8.677906E3,2.3069414E3,6.370965E3,1.1083844E3,1.198557E3,3.7330798E3,2.6378853E3,1.5035364E2,9.580308E2,2.817183E2,9.168387E2,2.678939E3,1.0541407E3,2.052156E3,5.857292E2,8.322662E1,6.712701E1,7.152172E2,2.4281358E2,1.18544876E2,1.6317342E2,5.61477E2,3.5536166E2,2.145926E3,5.33013E2,7.4499255E2,3.091482E2,1.2885236E3,7.6363257E2,4.295185E2,1.5621068E2],"tree_param":{"num_deleted":"0","num_feature":"13","num_nodes":"31","size_leaf_vector":"1"}},{"base_weights":[-1.3564473E-3,3.1817046E-1,-4.3134513E-1,6.929722E-1,-7.373395E-2,-1.8405016E-1,-8.3904207E-1,1.0829266E0,4.6262887E-1,-3.4320942E-1,3.0984426E-1,-3.4990292E-2,-1.2269702E0,-6.9495434E-1,-1.084416E0,6.6053644E-2,1.1590612E-1,6.1062737E-3,8.9138635E-2,-6.0803063E-2,2.611506E-2,9.908631E-3,8.2895614E-2,-3.922932E-2,1.2504349E-2,5.9848048E-2,-1.2372004E-1,-9.238905E-2,-4.7335163E-2,-1.0945065E-1,-4.6746068E-2],"categories":[],"categories_nodes":[],"categories_segments":[],"categories_sizes":[],"default_left":[0,0,0,0,0,0,0,0,0,0,0,0,0,0,0,0,0,0,0,0,0,0,0,0,0,0,0,0,0,0,0],"id":9,"left_children":[1,3,5,7,9,11,13,15,17,19,21,23,25,27,29,-1,-1,-1,-1,-1,-1,-1,-1,-1,-1,-1,-1,-1,-1,-1,-1],"loss_changes":[1.1667338E3,7.156433E2,3.648402E2,2.2318628E2,2.4636667E2,3.5046188E2,4.7561096E1,2.8949219E1,2.69793E2,2.2419702E2,1.07531845E2,1.1290879E2,6.0052185E0,4.3383392E1,2.6246948E0,0E0,0E0,0E0,0E0,0E0,0E0,0E0,0E0,0E0,0E0,0E0,0E0,0E0,0E0,0E0,0E0],"parents":[2147483647,0,0,1,1,2,2,3,3,4,4,5,5,6,6,7,7,8,8,9,9,10,10,11,11,12,12,13,13,14,14],"right_children":[2,4,6,8,10,12,14,16,18,20,22,24,26,28,30,-1,-1,-1,-1,-1,-1,-1,-1,-1,-1,-1,-1,-1,-1,-1,-1],"split_conditions":[2.592782E0,1E0,1E0,1.898948E0,1E0,1.0285015E1,2E0,2.211653E0,2.9374082E0,3.12E0,6.0202827E0,3.918845E0,2.7343318E0,4.9175587E0,8.902218E0,6.6053644E-2,1.1590612E-1,6.1062737E-3,8.9138635E-2,-6.0803063E-2,2.611506E-2,9.908631E-3,8.2895614E-2,-3.922932E-2,1.2504349E-2,5.9848048E-2,-1.2372004E-1,-9.238905E-2,-4.7335163E-2,-1.0945065E-1,-4.6746068E-2],"split_indices":[7,8,8,7,3,4,8,6,6,6,4,4,7,4,4,0,0,0,0,0,0,0,0,0,0,0,0,0,0,0,0],"split_type":[0,0,0,0,0,0,0,0,0,0,0,0,0,0,0,0,0,0,0,0,0,0,0,0,0,0,0,0,0,0,0],"sum_hessian":[8.489948E3,4.8707373E3,3.619211E3,2.489301E3,2.3814365E3,2.2536658E3,1.3655452E3,9.230104E2,1.5662908E3,1.3988245E3,9.8261194E2,1.972744E3,2.8092184E2,8.627538E2,5.0279132E2,1.4243973E2,7.805706E2,8.093816E2,7.569091E2,9.7262787E2,4.261966E2,6.9971893E2,2.82893E2,6.09803E2,1.362941E3,1.2451112E0,2.7967673E2,4.2279663E2,4.3995715E2,4.939387E2,8.852632E0],"tree_param":{"num_deleted":"0","num_feature":"13","num_nodes":"31","size_leaf_vector":"1"}},{"base_weights":[-1.3337483E-3,5.119946E-1,-2.3900162E-1,8.962807E-1,1.7766243E-1,2.4171975E-2,-6.363314E-1,4.1597712E-1,1.0249505E0,-2.4126607E-1,4.7354737E-1,1.6051805E-1,-8.7067413E-1,-4.2753392E-1,-1.0078706E0,1.0359478E-1,-4.5753982E-2,1.1587942E-1,8.3511256E-2,2.2803953E-2,-6.5769054E-2,7.258155E-2,7.298158E-3,5.265531E-3,7.706909E-2,-2.3653707E-2,-1.1240675E-1,-5.8836695E-2,1.4674256E-2,-1.0301856E-1,4.9241833E-2],"categories":[],"categories_nodes":[],"categories_segments":[],"categories_sizes":[],"default_left":[0,0,0,0,0,0,0,0,0,0,0,0,0,0,0,0,0,0,0,0,0,0,0,0,0,0,0,0,0,0,0],"id":10,"left_children":[1,3,5,7,9,11,13,15,17,19,21,23,25,27,29,-1,-1,-1,-1,-1,-1,-1,-1,-1,-1,-1,-1,-1,-1,-1,-1],"loss_changes":[1.01654944E3,3.3862915E2,5.955587E2,7.537561E1,1.7505815E2,4.1826767E2,1.7561438E2,1.4173438E2,2.3595215E1,1.14451065E2,8.356444E1,1.9574219E2,7.257056E1,1.3443518E2,2.78172E1,0E0,0E0,0E0,0E0,0E0,0E0,0E0,0E0,0E0,0E0,0E0,0E0,0E0,0E0,0E0,0E0],"parents":[2147483647,0,0,1,1,2,2,3,3,4,4,5,5,6,6,7,7,8,8,9,9,10,10,11,11,12,12,13,13,14,14],"right_children":[2,4,6,8,10,12,14,16,18,20,22,24,26,28,30,-1,-1,-1,-1,-1,-1,-1,-1,-1,-1,-1,-1,-1,-1,-1,-1],"split_conditions":[2.0855167E0,1E0,1E0,2.34E0,2.6638947E0,3.643243E0,2E0,1.7068974E0,1.82E0,1.591509E0,2E0,1E0,4.383865E0,1E0,9.1918335E0,1.0359478E-1,-4.5753982E-2,1.1587942E-1,8.3511256E-2,2.2803953E-2,-6.5769054E-2,7.258155E-2,7.298158E-3,5.265531E-3,7.706909E-2,-2.3653707E-2,-1.1240675E-1,-5.8836695E-2,1.4674256E-2,-1.0301856E-1,4.9241833E-2],"split_indices":[7,8,8,6,6,7,8,7,7,7,8,3,6,3,4,0,0,0,0,0,0,0,0,0,0,0,0,0,0,0,0],"split_type":[0,0,0,0,0,0,0,0,0,0,0,0,0,0,0,0,0,0,0,0,0,0,0,0,0,0,0,0,0,0,0],"sum_hessian":[8.330257E3,2.635912E3,5.694344E3,1.2255579E3,1.4103542E3,3.426032E3,2.2683125E3,2.5984222E2,9.6571564E2,5.8386865E2,8.2648553E2,2.973748E3,4.5228394E2,1.4535806E3,8.147319E2,1.5186879E2,1.0797345E2,5.633949E2,4.023207E2,2.7471756E2,3.0915112E2,5.066167E2,3.198688E2,2.527957E3,4.45791E2,1.2968086E2,3.226031E2,1.1355356E3,3.180449E2,8.0310004E2,1.1631818E1],"tree_param":{"num_deleted":"0","num_feature":"13","num_nodes":"31","size_leaf_vector":"1"}},{"base_weights":[-1.2739665E-3,2.4951927E-1,-4.2802903E-1,4.1668534E-1,-4.892619E-1,-2.2223069E-1,-8.0039847E-1,2.2579277E-1,8.065693E-1,-8.928933E-2,-8.3694196E-1,-8.443637E-2,-1.1852615E0,-9.5306087E-1,-6.238194E-1,8.5126184E-2,-1.6703404E-3,4.7033068E-2,1.0352261E-1,-2.7241725E-2,7.636073E-2,-8.710387E-2,1.0511433E-1,-3.6716495E-2,8.4454E-3,-8.885954E-3,-1.1903794E-1,-7.483449E-2,-1.0577768E-1,-7.084186E-2,2.054446E-2],"categories":[],"categories_nodes":[],"categories_segments":[],"categories_sizes":[],"default_left":[0,0,0,0,0,0,0,0,0,0,0,0,0,0,0,0,0,0,0,0,0,0,0,0,0,0,0,0,0,0,0],"id":11,"left_children":[1,3,5,7,9,11,13,15,17,19,21,23,25,27,29,-1,-1,-1,-1,-1,-1,-1,-1,-1,-1,-1,-1,-1,-1,-1,-1],"loss_changes":[8.7235815E2,6.3422394E2,2.3102411E2,3.11443E2,1.3172217E2,2.579338E2,2.8344177E1,4.2655396E2,1.05291504E2,6.9220505E1,3.3548615E1,8.130965E1,1.259552E0,1.1510193E1,3.5269455E1,0E0,0E0,0E0,0E0,0E0,0E0,0E0,0E0,0E0,0E0,0E0,0E0,0E0,0E0,0E0,0E0],"parents":[2147483647,0,0,1,1,2,2,3,3,4,4,5,5,6,6,7,7,8,8,9,9,10,10,11,11,12,12,13,13,14,14],"right_children":[2,4,6,8,10,12,14,16,18,20,22,24,26,28,30,-1,-1,-1,-1,-1,-1,-1,-1,-1,-1,-1,-1,-1,-1,-1,-1],"split_conditions":[2.7E0,2E0,1E0,3.1274312E0,1.936855E0,1.0285015E1,5.1193953E0,1.73E0,4.476348E0,1E0,9.1918335E0,4.3108735E0,3.49E0,2.9417872E0,1E0,8.5126184E-2,-1.6703404E-3,4.7033068E-2,1.0352261E-1,-2.7241725E-2,7.636073E-2,-8.710387E-2,1.0511433E-1,-3.6716495E-2,8.4454E-3,-8.885954E-3,-1.1903794E-1,-7.483449E-2,-1.0577768E-1,-7.084186E-2,2.054446E-2],"split_indices":[7,8,8,6,7,4,4,7,4,5,4,4,6,7,3,0,0,0,0,0,0,0,0,0,0,0,0,0,0,0,0],"split_type":[0,0,0,0,0,0,0,0,0,0,0,0,0,0,0,0,0,0,0,0,0,0,0,0,0,0,0,0,0,0,0],"sum_hessian":[8.148804E3,5.132801E3,3.016003E3,4.1860483E3,9.4675287E2,1.9434878E3,1.0725153E3,2.8112166E3,1.3748315E3,4.408519E2,5.0590097E2,1.7011658E3,2.4232198E2,5.7285394E2,4.996613E2,7.847094E2,2.0265071E3,5.577381E2,8.170935E2,3.6348712E2,7.7364784E1,4.9745612E2,8.444846E0,6.3574005E2,1.0654258E3,1.2111833E0,2.411108E2,1.9661833E2,3.762356E2,4.5353833E2,4.6122944E1],"tree_param":{"num_deleted":"0","num_feature":"13","num_nodes":"31","size_leaf_vector":"1"}},{"base_weights":[-1.3706211E-3,4.979473E-1,-1.8743448E-1,8.8612026E-1,1.8540893E-1,4.2291768E-2,-5.3839505E-1,4.60783E-1,9.986187E-1,-4.469733E-1,3.768303E-1,3.015344E-1,-3.2784328E-1,-3.548972E-1,-8.875505E-1,1.1117506E-1,-1.3105799E-2,1.12048864E-1,8.351901E-2,9.327716E-3,-8.248376E-2,9.6260525E-2,2.407678E-2,7.477447E-3,8.143591E-2,-1.7171992E-2,-1.1597333E-1,-8.401676E-2,-1.8434372E-2,-9.998437E-2,-5.266585E-2],"categories":[],"categories_nodes":[],"categories_segments":[],"categories_sizes":[],"default_left":[0,0,0,0,0,0,0,0,0,0,0,0,0,0,0,0,0,0,0,0,0,0,0,0,0,0,0,0,0,0,0],"id":12,"left_children":[1,3,5,7,9,11,13,15,17,19,21,23,25,27,29,-1,-1,-1,-1,-1,-1,-1,-1,-1,-1,-1,-1,-1,-1,-1,-1],"loss_changes":[7.4348773E2,2.6340387E2,4.7007678E2,4.5894043E1,1.4600839E2,3.3830078E2,1.4746338E2,7.892873E1,1.4305847E1,5.7318733E1,7.352237E1,2.4104213E2,1.8841817E2,1.2511833E2,3.1648071E1,0E0,0E0,0E0,0E0,0E0,0E0,0E0,0E0,0E0,0E0,0E0,0E0,0E0,0E0,0E0,0E0],"parents":[2147483647,0,0,1,1,2,2,3,3,4,4,5,5,6,6,7,7,8,8,9,9,10,10,11,11,12,12,13,13,14,14],"right_children":[2,4,6,8,10,12,14,16,18,20,22,24,26,28,30,-1,-1,-1,-1,-1,-1,-1,-1,-1,-1,-1,-1,-1,-1,-1,-1],"split_conditions":[2E0,1E0,1E0,2.3051841E0,2.3689387E0,2.9056904E0,2E0,1.55E0,1.7514887E0,1.43E0,1.3140091E0,3.263195E0,9.9E0,3.5888157E0,1E0,1.1117506E-1,-1.3105799E-2,1.12048864E-1,8.351901E-2,9.327716E-3,-8.248376E-2,9.6260525E-2,2.407678E-2,7.477447E-3,8.143591E-2,-1.7171992E-2,-1.1597333E-1,-8.401676E-2,-1.8434372E-2,-9.998437E-2,-5.266585E-2],"split_indices":[7,8,8,6,6,7,8,7,7,7,7,6,4,4,3,0,0,0,0,0,0,0,0,0,0,0,0,0,0,0,0],"split_type":[0,0,0,0,0,0,0,0,0,0,0,0,0,0,0,0,0,0,0,0,0,0,0,0,0,0,0,0,0,0,0],"sum_hessian":[8.00066E3,2.1715222E3,5.8291377E3,9.677458E2,1.2037764E3,3.5235967E3,2.305541E3,2.0348819E2,7.642576E2,2.7940274E2,9.2437366E2,2.0723252E3,1.4512716E3,1.5126091E3,7.9293195E2,9.648528E1,1.0700291E2,4.3443793E2,3.298197E2,1.15302475E2,1.6410025E2,1.7309445E2,7.5127924E2,1.4377356E3,6.3458966E2,1.2229612E3,2.2831044E2,3.9234787E2,1.1202612E3,6.034082E2,1.8952376E2],"tree_param":{"num_deleted":"0","num_feature":"13","num_nodes":"31","size_leaf_vector":"1"}},{"base_weights":[-1.2961811E-3,3.293851E-1,-2.501632E-1,6.583887E-1,3.52405E-2,-4.9082484E-2,-5.9148914E-1,3.1246954E-1,9.010371E-1,-2.866691E-1,2.9912627E-1,3.6741722E-2,-1.1220169E0,-4.229326E-1,-9.294446E-1,-3.965907E-3,1.0415273E-1,6.9972835E-2,1.06484525E-1,-6.2007792E-2,2.0944925E-2,1.022696E-2,8.0382384E-2,-2.5760401E-2,1.851296E-2,6.291096E-2,-1.1453219E-1,-1.8616164E-2,-6.889135E-2,-9.481504E-2,1.0153206E-1],"categories":[],"categories_nodes":[],"categories_segments":[],"categories_sizes":[],"default_left":[0,0,0,0,0,0,0,0,0,0,0,0,0,0,0,0,0,0,0,0,0,0,0,0,0,0,0,0,0,0,0],"id":13,"left_children":[1,3,5,7,9,11,13,15,17,19,21,23,25,27,29,-1,-1,-1,-1,-1,-1,-1,-1,-1,-1,-1,-1,-1,-1,-1,-1],"loss_changes":[6.459297E2,3.2614954E2,3.0734534E2,1.3325262E2,1.513385E2,2.5965228E2,9.417731E1,1.6881206E2,3.0070496E1,1.3288828E2,9.717903E1,1.1410883E2,9.2435E0,6.974599E1,2.103003E1,0E0,0E0,0E0,0E0,0E0,0E0,0E0,0E0,0E0,0E0,0E0,0E0,0E0,0E0,0E0,0E0],"parents":[2147483647,0,0,1,1,2,2,3,3,4,4,5,5,6,6,7,7,8,8,9,9,10,10,11,11,12,12,13,13,14,14],"right_children":[2,4,6,8,10,12,14,16,18,20,22,24,26,28,30,-1,-1,-1,-1,-1,-1,-1,-1,-1,-1,-1,-1,-1,-1,-1,-1],"split_conditions":[2.3158944E0,1E0,1E0,2.6638947E0,2.7564702E0,1.0285015E1,2E0,1E0,4.7713943E0,1E0,6.128324E0,4.111515E0,2.7343318E0,2.8424294E0,9.636108E0,-3.965907E-3,1.0415273E-1,6.9972835E-2,1.06484525E-1,-6.2007792E-2,2.0944925E-2,1.022696E-2,8.0382384E-2,-2.5760401E-2,1.851296E-2,6.291096E-2,-1.1453219E-1,-1.8616164E-2,-6.889135E-2,-9.481504E-2,1.0153206E-1],"split_indices":[7,8,8,6,6,4,8,3,4,3,4,4,7,7,4,0,0,0,0,0,0,0,0,0,0,0,0,0,0,0,0],"split_type":[0,0,0,0,0,0,0,0,0,0,0,0,0,0,0,0,0,0,0,0,0,0,0,0,0,0,0,0,0,0,0],"sum_hessian":[7.8468896E3,3.369437E3,4.4774526E3,1.5898906E3,1.7795464E3,2.8182935E3,1.659159E3,6.564064E2,9.334842E2,8.01601E2,9.779454E2,2.610449E3,2.0784451E2,1.108528E3,5.5063104E2,4.4326083E2,2.1314555E2,4.2116882E2,5.1231537E2,4.7926706E2,3.2233398E2,7.043983E2,2.7354706E2,8.7467896E2,1.73577E3,2.3883798E0,2.0545613E2,5.873661E2,5.2116187E2,5.458928E2,4.7382145E0],"tree_param":{"num_deleted":"0","num_feature":"13","num_nodes":"31","size_leaf_vector":"1"}},{"base_weights":[-1.2438965E-3,1.7409195E-1,-4.1348723E-1,3.0732256E-1,-4.4652942E-1,-2.5260395E-1,-7.4735445E-1,1.3655248E-1,6.755922E-1,2.1735866E-1,-6.0560775E-1,-1.2459509E-1,-1.1076027E0,-9.079793E-1,-5.3531355E-1,-8.978604E-3,6.4310946E-2,1.2551206E-2,7.983303E-2,-8.096201E-3,9.5849514E-2,-7.625966E-2,-1.8493576E-2,-4.161188E-2,3.19687E-4,-3.643495E-2,-1.1373254E-1,-6.681947E-2,-9.8161235E-2,-6.22054E-2,5.4867662E-2],"categories":[],"categories_nodes":[],"categories_segments":[],"categories_sizes":[],"default_left":[0,0,0,0,0,0,0,0,0,0,0,0,0,0,0,0,0,0,0,0,0,0,0,0,0,0,0,0,0,0,0],"id":14,"left_children":[1,3,5,7,9,11,13,15,17,19,21,23,25,27,29,-1,-1,-1,-1,-1,-1,-1,-1,-1,-1,-1,-1,-1,-1,-1,-1],"loss_changes":[5.572317E2,4.4736615E2,1.2337756E2,2.799833E2,1.01128555E2,1.699333E2,2.4974976E1,3.49044E2,9.513904E1,4.111107E1,5.082437E1,5.039471E1,4.0530853E0,6.8287354E0,3.086631E1,0E0,0E0,0E0,0E0,0E0,0E0,0E0,0E0,0E0,0E0,0E0,0E0,0E0,0E0,0E0,0E0],"parents":[2147483647,0,0,1,1,2,2,3,3,4,4,5,5,6,6,7,7,8,8,9,9,10,10,11,11,12,12,13,13,14,14],"right_children":[2,4,6,8,10,12,14,16,18,20,22,24,26,28,30,-1,-1,-1,-1,-1,-1,-1,-1,-1,-1,-1,-1,-1,-1,-1,-1],"split_conditions":[2.8424294E0,2E0,1E0,1E0,1.4965776E0,9.636108E0,5.4E0,3.15E0,2.9359899E0,2.91E0,6.3E0,3.8138323E0,3.4639099E0,3.38E0,1E0,-8.978604E-3,6.4310946E-2,1.2551206E-2,7.983303E-2,-8.096201E-3,9.5849514E-2,-7.625966E-2,-1.8493576E-2,-4.161188E-2,3.19687E-4,-3.643495E-2,-1.1373254E-1,-6.681947E-2,-9.8161235E-2,-6.22054E-2,5.4867662E-2],"split_indices":[7,8,8,3,7,4,4,6,4,6,4,4,7,6,3,0,0,0,0,0,0,0,0,0,0,0,0,0,0,0,0],"split_type":[0,0,0,0,0,0,0,0,0,0,0,0,0,0,0,0,0,0,0,0,0,0,0,0,0,0,0,0,0,0,0],"sum_hessian":[7.707242E3,5.4077773E3,2.2994648E3,4.4524595E3,9.553178E2,1.5529088E3,7.46556E2,3.042838E3,1.4096216E3,1.8459088E2,7.707269E2,1.351683E3,2.012258E2,4.22911E2,3.23645E2,2.1036936E3,9.391444E2,2.5751755E2,1.152104E3,1.3224904E2,5.2341843E1,5.6067737E2,2.1004955E2,4.1125555E2,9.404275E2,8.247383E0,1.9297841E2,1.0172376E2,3.2118723E2,3.0006042E2,2.3584566E1],"tree_param":{"num_deleted":"0","num_feature":"13","num_nodes":"31","size_leaf_vector":"1"}},{"base_weights":[-1.3447833E-3,4.5960143E-1,-1.4916354E-1,8.439507E-1,1.8457767E-1,-5.929802E-2,-7.720145E-1,3.0574346E-1,9.2494977E-1,-3.6143115E-1,3.5604277E-1,5.562903E-2,-5.016661E-1,-9.078682E-1,-3.9739218E-1,1.0827346E-1,-3.7255418E-2,9.900208E-2,5.0005294E-2,2.6411695E-2,-6.300709E-2,1.6703552E-2,7.088218E-2,-8.764298E-3,4.178759E-2,-3.79184E-2,-1.10835515E-1,-1.0137109E-1,-7.960119E-2,-4.92257E-2,1.5464482E-1],"categories":[],"categories_nodes":[],"categories_segments":[],"categories_sizes":[],"default_left":[0,0,0,0,0,0,0,0,0,0,0,0,0,0,0,0,0,0,0,0,0,0,0,0,0,0,0,0,0,0,0],"id":15,"left_children":[1,3,5,7,9,11,13,15,17,19,21,23,25,27,29,-1,-1,-1,-1,-1,-1,-1,-1,-1,-1,-1,-1,-1,-1,-1,-1],"loss_changes":[5.1697784E2,1.9459018E2,3.2151978E2,3.3204712E1,1.0078935E2,2.5533295E2,3.6501617E1,5.4148952E1,1.7951538E1,4.3430035E1,5.4473305E1,2.0696301E2,7.65408E1,5.476837E0,3.6634357E1,0E0,0E0,0E0,0E0,0E0,0E0,0E0,0E0,0E0,0E0,0E0,0E0,0E0,0E0,0E0,0E0],"parents":[2147483647,0,0,1,1,2,2,3,3,4,4,5,5,6,6,7,7,8,8,9,9,10,10,11,11,12,12,13,13,14,14],"right_children":[2,4,6,8,10,12,14,16,18,20,22,24,26,28,30,-1,-1,-1,-1,-1,-1,-1,-1,-1,-1,-1,-1,-1,-1,-1,-1],"split_conditions":[1.9449729E0,1E0,2E0,2.1354976E0,2.3689387E0,3.21E0,1E0,1.4965776E0,7.2976494E1,1.2493448E0,5.7483187E0,6.09387E0,1.0285015E1,3.263195E0,8.593097E0,1.0827346E-1,-3.7255418E-2,9.900208E-2,5.0005294E-2,2.6411695E-2,-6.300709E-2,1.6703552E-2,7.088218E-2,-8.764298E-3,4.178759E-2,-3.79184E-2,-1.10835515E-1,-1.0137109E-1,-7.960119E-2,-4.92257E-2,1.5464482E-1],"split_indices":[7,8,8,6,6,7,3,7,0,7,4,4,4,6,4,0,0,0,0,0,0,0,0,0,0,0,0,0,0,0,0],"split_type":[0,0,0,0,0,0,0,0,0,0,0,0,0,0,0,0,0,0,0,0,0,0,0,0,0,0,0,0,0,0,0],"sum_hessian":[7.58538E3,1.8413505E3,5.7440293E3,7.671624E2,1.074188E3,5.020729E3,7.2330023E2,1.0097796E2,6.6618445E2,2.5644946E2,8.177386E2,3.9860334E3,1.0346956E3,5.2976276E2,1.9353749E2,4.6787052E1,5.4190907E1,5.765573E2,8.962714E1,7.704984E1,1.7939961E2,5.334222E2,2.8431638E2,2.856872E3,1.1291614E3,8.622452E2,1.724504E2,2.6805573E2,2.6170703E2,1.8524384E2,8.2936535E0],"tree_param":{"num_deleted":"0","num_feature":"13","num_nodes":"31","size_leaf_vector":"1"}},{"base_weights":[-1.2728174E-3,4.2616048E-1,-1.3617906E-1,8.0544955E-1,1.6743937E-1,4.5847774E-2,-4.2496383E-1,9.8899466E-1,5.5380106E-1,-1.6522771E-1,4.0095332E-1,1.0369871E-1,-1.0521895E0,-5.6113595E-1,-3.4728717E-2,3.1218031E-2,1.0194E-1,-2.6268953E-2,7.411049E-2,-3.5493392E-2,4.449742E-2,9.9235766E-2,2.6558494E-2,1.8596149E-3,6.0383227E-2,4.225215E-2,-1.14810936E-1,-4.2313155E-2,-8.731931E-2,-6.745512E-2,2.0008707E-2],"categories":[],"categories_nodes":[],"categories_segments":[],"categories_sizes":[],"default_left":[0,0,0,0,0,0,0,0,0,0,0,0,0,0,0,0,0,0,0,0,0,0,0,0,0,0,0,0,0,0,0],"id":16,"left_children":[1,3,5,7,9,11,13,15,17,19,21,23,25,27,29,-1,-1,-1,-1,-1,-1,-1,-1,-1,-1,-1,-1,-1,-1,-1,-1],"loss_changes":[4.3117593E2,1.7589636E2,2.987867E2,3.303943E1,8.3006805E1,2.2161754E2,1.1675427E2,8.308594E0,4.7444458E1,5.1214867E1,4.9982536E1,1.4101894E2,2.5185028E1,6.9783264E1,8.5700226E1,0E0,0E0,0E0,0E0,0E0,0E0,0E0,0E0,0E0,0E0,0E0,0E0,0E0,0E0,0E0,0E0],"parents":[2147483647,0,0,1,1,2,2,3,3,4,4,5,5,6,6,7,7,8,8,9,9,10,10,11,11,12,12,13,13,14,14],"right_children":[2,4,6,8,10,12,14,16,18,20,22,24,26,28,30,-1,-1,-1,-1,-1,-1,-1,-1,-1,-1,-1,-1,-1,-1,-1,-1],"split_conditions":[1.9449729E0,1E0,1E0,1.7068974E0,2.6175897E0,4.6887555E0,1E0,2E0,2.29E0,1E0,1.3347347E0,1E0,1.6565031E1,2E0,3.6E0,3.1218031E-2,1.0194E-1,-2.6268953E-2,7.411049E-2,-3.5493392E-2,4.449742E-2,9.9235766E-2,2.6558494E-2,1.8596149E-3,6.0383227E-2,4.225215E-2,-1.14810936E-1,-4.2313155E-2,-8.731931E-2,-6.745512E-2,2.0008707E-2],"split_indices":[7,8,8,7,6,6,3,6,6,5,7,3,0,8,4,0,0,0,0,0,0,0,0,0,0,0,0,0,0,0,0],"split_type":[0,0,0,0,0,0,0,0,0,0,0,0,0,0,0,0,0,0,0,0,0,0,0,0,0,0,0,0,0,0,0],"sum_hessian":[7.475453E3,1.7928564E3,5.6825967E3,7.261688E2,1.0666876E3,3.4860872E3,2.1965095E3,4.1820908E2,3.0795972E2,4.4006198E2,6.266257E2,3.3124727E3,1.7361458E2,1.6279873E3,5.685223E2,1.8464401E1,3.997447E2,5.7388885E1,2.5057083E2,3.36016E2,1.04045975E2,1.1553587E2,5.110898E2,2.831673E3,4.8079938E2,1.0394859E1,1.6321973E2,1.1304238E3,4.975635E2,1.5212949E2,4.163928E2],"tree_param":{"num_deleted":"0","num_feature":"13","num_nodes":"31","size_leaf_vector":"1"}},{"base_weights":[-1.1543032E-3,1.7036453E-1,-2.9712054E-1,2.8688696E-1,-3.6303657E-1,-1.5002759E-1,-6.079359E-1,1.228673E-1,6.323552E-1,-6.307479E-1,-6.0330763E-2,-6.6899054E-2,-1.0844592E0,-5.38808E-1,-1.0366876E0,7.0173904E-2,-4.9556457E-3,3.354955E-2,8.432521E-2,-7.5199984E-2,6.790377E-3,-2.2751689E-2,8.18905E-2,-2.564022E-2,8.570443E-3,-1.0573032E-2,-1.0960802E-1,-7.17971E-2,-3.4892075E-2,-1.0747918E-1,5.43637E-3],"categories":[],"categories_nodes":[],"categories_segments":[],"categories_sizes":[],"default_left":[0,0,0,0,0,0,0,0,0,0,0,0,0,0,0,0,0,0,0,0,0,0,0,0,0,0,0,0,0,0,0],"id":17,"left_children":[1,3,5,7,9,11,13,15,17,19,21,23,25,27,29,-1,-1,-1,-1,-1,-1,-1,-1,-1,-1,-1,-1,-1,-1,-1,-1],"loss_changes":[3.7312277E2,2.8932928E2,1.2320111E2,2.1635947E2,6.7607155E1,1.4221869E2,2.5106964E1,2.586711E2,7.66879E1,3.7567642E1,5.7936512E1,4.8698975E1,1.585434E0,2.5190094E1,5.011917E0,0E0,0E0,0E0,0E0,0E0,0E0,0E0,0E0,0E0,0E0,0E0,0E0,0E0,0E0,0E0,0E0],"parents":[2147483647,0,0,1,1,2,2,3,3,4,4,5,5,6,6,7,7,8,8,9,9,10,10,11,11,12,12,13,13,14,14],"right_children":[2,4,6,8,10,12,14,16,18,20,22,24,26,28,30,-1,-1,-1,-1,-1,-1,-1,-1,-1,-1,-1,-1,-1,-1,-1,-1],"split_conditions":[2.7E0,2E0,1E0,3.1274312E0,1E0,1.0285015E1,3.55E0,1.6827831E0,4.476348E0,3.5307083E0,1E0,4.7713943E0,3.316532E0,5.1193953E0,1E0,7.0173904E-2,-4.9556457E-3,3.354955E-2,8.432521E-2,-7.5199984E-2,6.790377E-3,-2.2751689E-2,8.18905E-2,-2.564022E-2,8.570443E-3,-1.0573032E-2,-1.0960802E-1,-7.17971E-2,-3.4892075E-2,-1.0747918E-1,5.43637E-3],"split_indices":[7,8,8,6,3,4,7,7,4,6,5,4,7,4,5,0,0,0,0,0,0,0,0,0,0,0,0,0,0,0,0],"split_type":[0,0,0,0,0,0,0,0,0,0,0,0,0,0,0,0,0,0,0,0,0,0,0,0,0,0,0,0,0,0,0],"sum_hessian":[7.34818E3,4.6524243E3,2.695756E3,3.8186873E3,8.337369E2,1.8308103E3,8.6494574E2,2.590255E3,1.2284324E3,4.4186777E2,3.9186914E2,1.6822281E3,1.4858214E2,7.4679596E2,1.18149765E2,5.93764E2,1.996491E3,5.113059E2,7.1712646E2,3.7645685E2,6.541091E1,3.298833E2,6.1985867E1,7.5008795E2,9.3214014E2,1.8619952E0,1.4672015E2,3.8281757E2,3.639784E2,1.1417711E2,3.9726593E0],"tree_param":{"num_deleted":"0","num_feature":"13","num_nodes":"31","size_leaf_vector":"1"}},{"base_weights":[-1.1740464E-3,-1.2546314E-1,3.6780033E-1,3.8648803E-2,-3.869925E-1,6.656247E-1,1.5010482E-1,8.409227E-2,-1.0022767E0,-1.7912233E-1,-5.8411217E-1,7.09178E-1,-1.0881736E0,-3.597901E-2,6.08488E-1,5.9069484E-2,1.2049485E-3,3.9029527E-2,-1.1199863E-1,-5.295803E-2,1.32431155E-2,-4.5889925E-2,-8.8595E-2,4.200298E-2,9.309832E-2,-1.3729091E-2,-1.13412075E-1,1.9386739E-2,-3.3552796E-2,4.8243392E-2,1.2379115E-1],"categories":[],"categories_nodes":[],"categories_segments":[],"categories_sizes":[],"default_left":[0,0,0,0,0,0,0,0,0,0,0,0,0,0,0,0,0,0,0,0,0,0,0,0,0,0,0,0,0,0,0],"id":18,"left_children":[1,3,5,7,9,11,13,15,17,19,21,23,25,27,29,-1,-1,-1,-1,-1,-1,-1,-1,-1,-1,-1,-1,-1,-1,-1,-1],"loss_changes":[3.320766E2,2.324954E2,1.18196884E2,1.5755948E2,8.547357E1,5.9602417E1,9.004358E1,1.16444855E2,2.3276611E1,1.1122055E2,4.009137E1,4.784723E1,6.769428E-1,5.1812527E1,2.3585075E1,0E0,0E0,0E0,0E0,0E0,0E0,0E0,0E0,0E0,0E0,0E0,0E0,0E0,0E0,0E0,0E0],"parents":[2147483647,0,0,1,1,2,2,3,3,4,4,5,5,6,6,7,7,8,8,9,9,10,10,11,11,12,12,13,13,14,14],"right_children":[2,4,6,8,10,12,14,16,18,20,22,24,26,28,30,-1,-1,-1,-1,-1,-1,-1,-1,-1,-1,-1,-1,-1,-1,-1,-1],"split_conditions":[1E0,1E0,1E0,4.6887555E0,2.3952935E0,3.4838955E0,6.0202827E0,1.9732282E0,1.6565031E1,2.7564702E0,2E0,4.51038E0,2.0242828E1,2.06E0,8.303329E0,5.9069484E-2,1.2049485E-3,3.9029527E-2,-1.1199863E-1,-5.295803E-2,1.32431155E-2,-4.5889925E-2,-8.8595E-2,4.200298E-2,9.309832E-2,-1.3729091E-2,-1.13412075E-1,1.9386739E-2,-3.3552796E-2,4.8243392E-2,1.2379115E-1],"split_indices":[3,8,8,6,7,7,4,7,0,6,8,4,10,7,4,0,0,0,0,0,0,0,0,0,0,0,0,0,0,0,0],"split_type":[0,0,0,0,0,0,0,0,0,0,0,0,0,0,0,0,0,0,0,0,0,0,0,0,0,0,0,0,0,0,0],"sum_hessian":[7.239169E3,5.4155874E3,1.8235818E3,3.3280557E3,2.0875315E3,7.6919946E2,1.0543823E3,3.189722E3,1.383338E2,1.0169879E3,1.0705437E3,7.511415E2,1.8057993E1,7.5059467E2,3.037876E2,3.9623193E2,2.79349E3,1.0601089E1,1.2773272E2,4.7828192E2,5.38706E2,7.584375E2,3.1210617E2,3.2732715E2,4.2381433E2,1.0161717E0,1.704182E1,4.2491028E2,3.2568442E2,2.5457129E2,4.9216312E1],"tree_param":{"num_deleted":"0","num_feature":"13","num_nodes":"31","size_leaf_vector":"1"}},{"base_weights":[-1.145094E-3,3.009392E-1,-1.3313858E-1,6.0700786E-1,9.352353E-2,-6.266464E-2,-7.294393E-1,1.3880888E-1,7.6775753E-1,-3.7398478E-1,2.2573535E-1,-3.5205055E-3,-6.287897E-1,-7.7403295E-1,1.6549166E-1,1.07725404E-1,-2.1812972E-2,9.98619E-2,5.9482645E-2,2.3265464E-2,-5.918215E-2,6.8055666E-3,5.9440017E-2,-2.1646162E-2,1.8473715E-2,-4.4733923E-2,-1.06956E-1,-8.5061334E-2,-5.6252338E-2,-9.776652E-2,6.670481E-2],"categories":[],"categories_nodes":[],"categories_segments":[],"categories_sizes":[],"default_left":[0,0,0,0,0,0,0,0,0,0,0,0,0,0,0,0,0,0,0,0,0,0,0,0,0,0,0,0,0,0,0],"id":19,"left_children":[1,3,5,7,9,11,13,15,17,19,21,23,25,27,29,-1,-1,-1,-1,-1,-1,-1,-1,-1,-1,-1,-1,-1,-1,-1,-1],"loss_changes":[2.8436404E2,1.3761333E2,2.0852242E2,6.580841E1,8.00545E1,1.4865002E2,2.1059021E1,7.562304E1,2.5425262E1,3.7879612E1,5.862527E1,1.6122087E2,3.3107407E1,7.6163025E0,1.5397544E1,0E0,0E0,0E0,0E0,0E0,0E0,0E0,0E0,0E0,0E0,0E0,0E0,0E0,0E0,0E0,0E0],"parents":[2147483647,0,0,1,1,2,2,3,3,4,4,5,5,6,6,7,7,8,8,9,9,10,10,11,11,12,12,13,13,14,14],"right_children":[2,4,6,8,10,12,14,16,18,20,22,24,26,28,30,-1,-1,-1,-1,-1,-1,-1,-1,-1,-1,-1,-1,-1,-1,-1,-1],"split_conditions":[2.0855167E0,1E0,2E0,2.3689387E0,2.3689387E0,3.59E0,8.49334E0,1.4452761E0,1.7514887E0,1.2493448E0,6.0202827E0,4.8199153E0,9.636108E0,1E0,2.3456762E1,1.07725404E-1,-2.1812972E-2,9.98619E-2,5.9482645E-2,2.3265464E-2,-5.918215E-2,6.8055666E-3,5.9440017E-2,-2.1646162E-2,1.8473715E-2,-4.4733923E-2,-1.06956E-1,-8.5061334E-2,-5.6252338E-2,-9.776652E-2,6.670481E-2],"split_indices":[7,8,8,6,6,7,4,7,7,7,4,4,4,3,10,0,0,0,0,0,0,0,0,0,0,0,0,0,0,0,0],"split_type":[0,0,0,0,0,0,0,0,0,0,0,0,0,0,0,0,0,0,0,0,0,0,0,0,0,0,0,0,0,0,0],"sum_hessian":[7.129711E3,2.1675989E3,4.9621123E3,8.7479663E2,1.2928022E3,4.438636E3,5.2347614E2,2.2406093E2,6.5073566E2,2.8460266E2,1.0081995E3,4.019697E3,4.1893903E2,4.987585E2,2.4717619E1,6.1183163E1,1.6287776E2,2.7664392E2,3.7409177E2,7.517754E1,2.0942513E2,7.069978E2,3.0120172E2,1.8861238E3,2.1335732E3,2.9819638E2,1.2074264E2,3.6395966E2,1.3479886E2,7.248177E0,1.7469442E1],"tree_param":{"num_deleted":"0","num_feature":"13","num_nodes":"31","size_leaf_vector":"1"}},{"base_weights":[-1.0757896E-3,-1.1172028E-1,3.3096486E-1,-4.441621E-2,-6.3875717E-1,4.631156E-1,-9.412063E-2,6.431137E-2,-3.194086E-1,1.4298248E-1,-6.915184E-1,-3.8549315E-2,5.847242E-1,-2.3284324E-1,6.7635536E-1,-9.752317E-3,4.7109004E-2,-2.5433166E-2,-1.0634543E-1,-4.8660222E-2,9.354986E-2,-8.5802756E-2,-4.9934294E-2,7.204979E-2,-4.1939627E-2,6.0815733E-2,-1.0357358E-1,-4.4144288E-2,1.7948097E-2,-1.24038436E-1,1.0058317E-1],"categories":[],"categories_nodes":[],"categories_segments":[],"categories_sizes":[],"default_left":[0,0,0,0,0,0,0,0,0,0,0,0,0,0,0,0,0,0,0,0,0,0,0,0,0,0,0,0,0,0,0],"id":20,"left_children":[1,3,5,7,9,11,13,15,17,19,21,23,25,27,29,-1,-1,-1,-1,-1,-1,-1,-1,-1,-1,-1,-1,-1,-1,-1,-1],"loss_changes":[2.5870346E2,1.8732404E2,9.891304E1,1.4008963E2,2.4765244E1,8.194177E1,4.4858444E1,2.2111362E2,6.401141E1,1.9734644E1,1.7503754E1,7.6311165E1,4.167267E1,3.06266E1,4.170761E1,0E0,0E0,0E0,0E0,0E0,0E0,0E0,0E0,0E0,0E0,0E0,0E0,0E0,0E0,0E0,0E0],"parents":[2147483647,0,0,1,1,2,2,3,3,4,4,5,5,6,6,7,7,8,8,9,9,10,10,11,11,12,12,13,13,14,14],"right_children":[2,4,6,8,10,12,14,16,18,20,22,24,26,28,30,-1,-1,-1,-1,-1,-1,-1,-1,-1,-1,-1,-1,-1,-1,-1,-1],"split_conditions":[1E0,2E0,2E0,3.02E0,1.41E0,2.9359899E0,1E0,3.263195E0,1.0285015E1,1E0,3.263195E0,1.88E0,3.4838955E0,5.9584346E0,2.8301716E0,-9.752317E-3,4.7109004E-2,-2.5433166E-2,-1.0634543E-1,-4.8660222E-2,9.354986E-2,-8.5802756E-2,-4.9934294E-2,7.204979E-2,-4.1939627E-2,6.0815733E-2,-1.0357358E-1,-4.4144288E-2,1.7948097E-2,-1.24038436E-1,1.0058317E-1],"split_indices":[3,8,8,7,7,4,5,6,4,11,6,7,7,4,4,0,0,0,0,0,0,0,0,0,0,0,0,0,0,0,0],"split_type":[0,0,0,0,0,0,0,0,0,0,0,0,0,0,0,0,0,0,0,0,0,0,0,0,0,0,0,0,0,0,0],"sum_hessian":[7.0397534E3,5.280739E3,1.7590145E3,4.683701E3,5.970373E2,1.3417891E3,4.1722546E2,3.3571172E3,1.3265842E3,3.763953E1,5.5939777E2,2.6193335E2,1.0798557E3,3.5415787E2,6.3067596E1,2.4021829E3,9.5493427E2,1.2211223E3,1.0546196E2,2.1191076E1,1.6448452E1,2.9785693E2,2.6154083E2,8.721587E1,1.7471748E2,1.0650785E3,1.4777191E1,2.3513147E2,1.1902639E2,8.845264E0,5.4222336E1],"tree_param":{"num_deleted":"0","num_feature":"13","num_nodes":"31","size_leaf_vector":"1"}},{"base_weights":[-1.0838478E-3,2.099939E-1,-1.5596151E-1,-8.1877016E-2,4.0386695E-1,-2.0149367E-2,-4.2037347E-1,3.5493746E-1,-3.1423515E-1,7.2357553E-1,1.7914186E-1,2.595084E-2,-9.5791864E-1,-3.141693E-1,-7.136999E-1,5.8847398E-2,-1.8764276E-2,-4.716167E-2,2.1481007E-2,5.147177E-2,9.077396E-2,3.474944E-3,5.564606E-2,-5.544957E-2,7.672587E-3,3.824804E-2,-1.07918754E-1,-7.012726E-2,-1.9588951E-2,-7.376659E-2,1.0020162E-1],"categories":[],"categories_nodes":[],"categories_segments":[],"categories_sizes":[],"default_left":[0,0,0,0,0,0,0,0,0,0,0,0,0,0,0,0,0,0,0,0,0,0,0,0,0,0,0,0,0,0,0],"id":21,"left_children":[1,3,5,7,9,11,13,15,17,19,21,23,25,27,29,-1,-1,-1,-1,-1,-1,-1,-1,-1,-1,-1,-1,-1,-1,-1,-1],"loss_changes":[2.2762746E2,1.6678178E2,1.44212E2,1.1957253E2,1.27099E2,1.1477569E2,4.2229843E1,5.195561E1,6.411551E1,2.7635345E1,5.6708458E1,7.463502E1,2.0633568E1,4.575493E1,1.5602432E1,0E0,0E0,0E0,0E0,0E0,0E0,0E0,0E0,0E0,0E0,0E0,0E0,0E0,0E0,0E0,0E0],"parents":[2147483647,0,0,1,1,2,2,3,3,4,4,5,5,6,6,7,7,8,8,9,9,10,10,11,11,12,12,13,13,14,14],"right_children":[2,4,6,8,10,12,14,16,18,20,22,24,26,28,30,-1,-1,-1,-1,-1,-1,-1,-1,-1,-1,-1,-1,-1,-1,-1,-1],"split_conditions":[2.3158944E0,2.6638947E0,1E0,1.6337343E0,1E0,4.6887555E0,2E0,2E0,6.323047E0,4.7713943E0,6.128324E0,2.2177432E0,1.6565031E1,3.5E0,9.636108E0,5.8847398E-2,-1.8764276E-2,-4.716167E-2,2.1481007E-2,5.147177E-2,9.077396E-2,3.474944E-3,5.564606E-2,-5.544957E-2,7.672587E-3,3.824804E-2,-1.07918754E-1,-7.012726E-2,-1.9588951E-2,-7.376659E-2,1.0020162E-1],"split_indices":[7,6,8,7,8,6,8,8,4,4,4,4,0,4,4,0,0,0,0,0,0,0,0,0,0,0,0,0,0,0,0],"split_type":[0,0,0,0,0,0,0,0,0,0,0,0,0,0,0,0,0,0,0,0,0,0,0,0,0,0,0,0,0,0,0],"sum_hessian":[6.9609497E3,2.9458247E3,4.015125E3,1.1759857E3,1.769839E3,2.6533425E3,1.3617825E3,4.081567E2,7.6782904E2,7.296175E2,1.0402216E3,2.5299443E3,1.2339831E2,1.0013107E3,3.6047174E2,2.8528165E2,1.2287506E2,5.9186755E2,1.759615E2,3.4366583E2,3.8595166E2,7.5311237E2,2.8710916E2,2.0270898E2,2.3272354E3,1.0059171E1,1.13339134E2,2.3319307E2,7.681177E2,3.5606805E2,4.403682E0],"tree_param":{"num_deleted":"0","num_feature":"13","num_nodes":"31","size_leaf_vector":"1"}},{"base_weights":[-9.869492E-4,3.334472E-1,-8.949487E-2,7.039993E-1,1.2604563E-1,4.0224303E-2,-3.0413067E-1,4.8065007E-1,9.5260274E-1,-2.8528753E-1,2.5913003E-1,7.177012E-2,-1.0571586E-1,-4.3858537E-1,-2.3740785E-2,9.547516E-2,2.3051979E-2,9.9011764E-2,2.8210694E-2,-1.170665E-2,-1.12242304E-1,7.425554E-2,1.2920873E-2,-1.7914783E-2,1.9849606E-2,-4.9438514E-2,8.811031E-3,-1.6474681E-2,3.5785712E-2],"categories":[],"categories_nodes":[],"categories_segments":[],"categories_sizes":[],"default_left":[0,0,0,0,0,0,0,0,0,0,0,0,0,0,0,0,0,0,0,0,0,0,0,0,0,0,0,0,0],"id":22,"left_children":[1,3,5,7,9,11,13,15,17,19,21,23,-1,25,27,-1,-1,-1,-1,-1,-1,-1,-1,-1,-1,-1,-1,-1,-1],"loss_changes":[2.0344405E2,1.1045015E2,1.5132921E2,2.818924E1,5.0621956E1,1.1737377E2,7.717627E1,3.224743E1,5.8365784E0,3.1722986E1,4.3755184E1,1.047973E2,0E0,4.071173E1,3.5821583E1,0E0,0E0,0E0,0E0,0E0,0E0,0E0,0E0,0E0,0E0,0E0,0E0,0E0,0E0],"parents":[2147483647,0,0,1,1,2,2,3,3,4,4,5,5,6,6,7,7,8,8,9,9,10,10,11,11,13,13,14,14],"right_children":[2,4,6,8,10,12,14,16,18,20,22,24,-1,26,28,-1,-1,-1,-1,-1,-1,-1,-1,-1,-1,-1,-1,-1,-1],"split_conditions":[1.898948E0,1E0,1E0,2.6546378E0,2.3689387E0,1.2285781E1,6.0202827E0,1.4452761E0,7.520409E1,2E0,1.3140091E0,4.111515E0,-1.0571586E-1,1E0,1E0,9.547516E-2,2.3051979E-2,9.9011764E-2,2.8210694E-2,-1.170665E-2,-1.12242304E-1,7.425554E-2,1.2920873E-2,-1.7914783E-2,1.9849606E-2,-4.9438514E-2,8.811031E-3,-1.6474681E-2,3.5785712E-2],"split_indices":[7,8,8,6,6,4,4,7,0,2,7,4,0,5,3,0,0,0,0,0,0,0,0,0,0,0,0,0,0],"split_type":[0,0,0,0,0,0,0,0,0,0,0,0,0,0,0,0,0,0,0,0,0,0,0,0,0,0,0,0,0],"sum_hessian":[6.871086E3,1.4373142E3,5.433772E3,5.149281E2,9.2238605E2,3.3873662E3,2.0464058E3,2.7278616E2,2.4214195E2,2.2520029E2,6.971858E2,3.293621E3,9.374518E1,1.3827667E3,6.63639E2,9.324012E1,1.7954604E2,2.288603E2,1.3281644E1,1.8846783E2,3.6732464E1,1.4668158E2,5.505042E2,1.1051014E3,2.1885195E3,1.250361E3,1.3240573E2,4.8499463E2,1.7864436E2],"tree_param":{"num_deleted":"0","num_feature":"13","num_nodes":"29","size_leaf_vector":"1"}},{"base_weights":[-8.446718E-4,-9.7289644E-2,2.9368228E-1,-4.0112846E-2,-5.750358E-1,5.570115E-1,1.2241225E-1,6.858629E-2,-2.4791804E-1,-3.4301132E-1,-7.472594E-1,1.0166237E0,4.0976042E-1,-1.629354E-1,2.9651242E-1,-8.410684E-3,5.3761482E-2,-2.0236762E-2,-1.0455646E-1,-1.02392234E-1,-1.8462688E-2,-6.8747215E-2,-1.08577125E-1,1.0777261E-1,8.411362E-2,9.477399E-3,6.71135E-2,-9.450563E-2,-4.791407E-3,9.344204E-2,1.9930692E-2],"categories":[],"categories_nodes":[],"categories_segments":[],"categories_sizes":[],"default_left":[0,0,0,0,0,0,0,0,0,0,0,0,0,0,0,0,0,0,0,0,0,0,0,0,0,0,0,0,0,0,0],"id":23,"left_children":[1,3,5,7,9,11,13,15,17,19,21,23,25,27,29,-1,-1,-1,-1,-1,-1,-1,-1,-1,-1,-1,-1,-1,-1,-1,-1],"loss_changes":[1.9301219E2,1.3979913E2,7.5527115E1,1.0330495E2,2.1603897E1,4.426944E1,5.0566254E1,2.1511328E2,5.685428E1,2.5145136E1,5.591095E0,8.041229E-1,4.1244003E1,3.467747E1,3.899722E1,0E0,0E0,0E0,0E0,0E0,0E0,0E0,0E0,0E0,0E0,0E0,0E0,0E0,0E0,0E0,0E0],"parents":[2147483647,0,0,1,1,2,2,3,3,4,4,5,5,6,6,7,7,8,8,9,9,10,10,11,11,12,12,13,13,14,14],"right_children":[2,4,6,8,10,12,14,16,18,20,22,24,26,28,30,-1,-1,-1,-1,-1,-1,-1,-1,-1,-1,-1,-1,-1,-1,-1,-1],"split_conditions":[1E0,2E0,1E0,2.9056904E0,2.0855167E0,1.76E0,4.276063E0,3.263195E0,1.0285015E1,2.3051841E0,6.429465E1,2.738463E1,4.51038E0,1.9571144E1,1.22E0,-8.410684E-3,5.3761482E-2,-2.0236762E-2,-1.0455646E-1,-1.02392234E-1,-1.8462688E-2,-6.8747215E-2,-1.08577125E-1,1.0777261E-1,8.411362E-2,9.477399E-3,6.71135E-2,-9.450563E-2,-4.791407E-3,9.344204E-2,1.9930692E-2],"split_indices":[3,8,8,7,7,7,4,6,4,6,0,10,4,10,7,0,0,0,0,0,0,0,0,0,0,0,0,0,0,0,0],"split_type":[0,0,0,0,0,0,0,0,0,0,0,0,0,0,0,0,0,0,0,0,0,0,0,0,0,0,0,0,0,0,0],"sum_hessian":[6.792848E3,5.117693E3,1.6751556E3,4.571641E3,5.460514E2,6.5927E2,1.0158856E3,3.0020127E3,1.5696285E3,2.3391127E2,3.1214014E2,1.585346E2,5.0073538E2,3.8497742E2,6.309082E2,2.2653457E3,7.36667E2,1.4860215E3,8.360706E1,4.3110405E1,1.9080086E2,2.6786182E2,4.4278343E1,1.1377749E2,4.4757126E1,2.2769696E2,2.7303842E2,4.8432213E1,3.365452E2,8.228735E1,5.4862085E2],"tree_param":{"num_deleted":"0","num_feature":"13","num_nodes":"31","size_leaf_vector":"1"}},{"base_weights":[-7.7509345E-4,1.3273194E-1,-1.8117782E-1,-6.266372E-2,3.4760082E-1,-7.564239E-2,-4.2237476E-1,3.7214676E-1,-1.8757676E-1,4.5713878E-1,-1.0577442E-1,-3.2940593E-2,-1.0097351E0,-3.6131424E-1,-9.371522E-1,5.9179377E-2,-1.201922E-2,-3.1417612E-2,2.3227349E-2,1.7272096E-2,6.0850896E-2,9.3559094E-2,-2.2692665E-2,-3.0935442E-2,4.324285E-3,1.8988175E-2,-1.0406333E-1,-5.496068E-2,-2.1660022E-2,-9.85282E-2,2.5653994E-2],"categories":[],"categories_nodes":[],"categories_segments":[],"categories_sizes":[],"default_left":[0,0,0,0,0,0,0,0,0,0,0,0,0,0,0,0,0,0,0,0,0,0,0,0,0,0,0,0,0,0,0],"id":24,"left_children":[1,3,5,7,9,11,13,15,17,19,21,23,25,27,29,-1,-1,-1,-1,-1,-1,-1,-1,-1,-1,-1,-1,-1,-1,-1,-1],"loss_changes":[1.6195189E2,1.6226474E2,7.2764114E1,1.1004039E2,9.1456894E1,7.936614E1,2.7014893E1,4.8971752E1,8.371117E1,6.3726074E1,4.5502655E1,4.0120724E1,3.4218674E0,2.1123352E1,5.5182114E0,0E0,0E0,0E0,0E0,0E0,0E0,0E0,0E0,0E0,0E0,0E0,0E0,0E0,0E0,0E0,0E0],"parents":[2147483647,0,0,1,1,2,2,3,3,4,4,5,5,6,6,7,7,8,8,9,9,10,10,11,11,12,12,13,13,14,14],"right_children":[2,4,6,8,10,12,14,16,18,20,22,24,26,28,30,-1,-1,-1,-1,-1,-1,-1,-1,-1,-1,-1,-1,-1,-1,-1,-1],"split_conditions":[2.592782E0,2.8835483E0,1E0,1.55E0,2E0,1.0285015E1,3.55E0,2E0,1E0,4.0464435E0,1.43E0,3.1758852E0,3.5386024E0,4.8E0,1E0,5.9179377E-2,-1.201922E-2,-3.1417612E-2,2.3227349E-2,1.7272096E-2,6.0850896E-2,9.3559094E-2,-2.2692665E-2,-3.0935442E-2,4.324285E-3,1.8988175E-2,-1.0406333E-1,-5.496068E-2,-2.1660022E-2,-9.85282E-2,2.5653994E-2],"split_indices":[7,6,8,7,8,4,7,8,3,4,7,6,6,4,5,0,0,0,0,0,0,0,0,0,0,0,0,0,0,0,0],"split_type":[0,0,0,0,0,0,0,0,0,0,0,0,0,0,0,0,0,0,0,0,0,0,0,0,0,0,0,0,0,0,0],"sum_hessian":[6.722173E3,3.8633586E3,2.858814E3,2.0237375E3,1.8396211E3,1.9895864E3,8.6922766E2,4.5119412E2,1.5725433E3,1.4816404E3,3.579807E2,1.9035991E3,8.598727E1,7.7857825E2,9.064943E1,3.1186148E2,1.3933266E2,1.2084159E3,3.641275E2,5.153888E2,9.662516E2,3.660652E1,3.2137418E2,4.106372E2,1.4929619E3,2.0299408E0,8.395733E1,3.3712936E2,4.4144888E2,8.7303925E1,3.3455067E0],"tree_param":{"num_deleted":"0","num_feature":"13","num_nodes":"31","size_leaf_vector":"1"}},{"base_weights":[-7.287168E-4,8.708763E-2,-2.4197948E-1,-1.8324276E-2,3.7855873E-1,-2.0510371E-1,-1.0361657E0,-1.5248163E-1,2.2011295E-1,2.8124425E-1,7.618202E-1,-9.362039E-2,-4.8675874E-1,1.0703135E0,-1.1151333E-1,2.4994096E-2,-2.6172603E-2,4.5077875E-2,-9.517764E-4,3.88379E-2,-2.1801436E-2,6.6411726E-2,1.3665897E-1,-6.2222835E-2,-3.9505023E-3,-6.861983E-2,-2.7492011E-2,1.7477147E-2,1.485678E-1],"categories":[],"categories_nodes":[],"categories_segments":[],"categories_sizes":[],"default_left":[0,0,0,0,0,0,0,0,0,0,0,0,0,0,0,0,0,0,0,0,0,0,0,0,0,0,0,0,0],"id":25,"left_children":[1,3,5,7,9,11,13,15,17,19,21,23,25,27,-1,-1,-1,-1,-1,-1,-1,-1,-1,-1,-1,-1,-1,-1,-1],"loss_changes":[1.408585E2,1.4977142E2,5.1750343E1,1.1457457E2,4.8073746E1,5.323456E1,1.4248627E1,1.0082898E2,6.831697E1,5.5396965E1,1.4548828E1,3.4785603E1,2.0130432E1,9.8501587E-1,0E0,0E0,0E0,0E0,0E0,0E0,0E0,0E0,0E0,0E0,0E0,0E0,0E0,0E0,0E0],"parents":[2147483647,0,0,1,1,2,2,3,3,4,4,5,5,6,6,7,7,8,8,9,9,10,10,11,11,12,12,13,13],"right_children":[2,4,6,8,10,12,14,16,18,20,22,24,26,28,-1,-1,-1,-1,-1,-1,-1,-1,-1,-1,-1,-1,-1,-1,-1],"split_conditions":[2.8967032E0,6.2E0,4.95339E0,3.133739E0,3.3921993E0,1E0,9.627275E0,1.6827831E0,1E0,2E0,3.9740264E0,2.2768388E0,5.267259E0,2.29E1,-1.1151333E-1,2.4994096E-2,-2.6172603E-2,4.5077875E-2,-9.517764E-4,3.88379E-2,-2.1801436E-2,6.6411726E-2,1.3665897E-1,-6.2222835E-2,-3.9505023E-3,-6.861983E-2,-2.7492011E-2,1.7477147E-2,1.485678E-1],"split_indices":[7,4,6,6,6,8,0,7,8,8,6,4,4,10,0,0,0,0,0,0,0,0,0,0,0,0,0,0,0],"split_type":[0,0,0,0,0,0,0,0,0,0,0,0,0,0,0,0,0,0,0,0,0,0,0,0,0,0,0,0,0],"sum_hessian":[6.6467397E3,4.873429E3,1.7733107E3,3.579737E3,1.2936919E3,1.695828E3,7.748269E1,2.2910386E3,1.2886985E3,1.0331078E3,2.6058405E2,1.215892E3,4.7993604E2,2.3460996E0,7.513659E1,4.8887744E2,1.8021611E3,6.4241986E2,6.462787E2,8.50766E2,1.8234181E2,2.2614719E2,3.4436867E1,1.1194048E2,1.1039514E3,2.4604909E2,2.3388695E2,1.1935424E0,1.1525573E0],"tree_param":{"num_deleted":"0","num_feature":"13","num_nodes":"29","size_leaf_vector":"1"}},{"base_weights":[-6.8317744E-4,-8.025281E-2,2.4597616E-1,3.4476418E-2,-2.7737457E-1,3.5953996E-1,-9.3287714E-2,5.557383E-2,-1.0309019E-1,2.9622045E-1,-3.2542196E-1,-2.7015445E-1,4.3356496E-1,-2.176386E-1,5.860263E-1,-1.4664113E-2,1.5604774E-2,-2.7716314E-2,5.084121E-2,-6.31981E-2,-2.3001987E-2,1.7148439E-2,-9.497258E-2,7.3150866E-2,3.4429166E-2,-2.643407E-2,1.0315605E-1,-1.1501547E-1,8.787332E-2],"categories":[],"categories_nodes":[],"categories_segments":[],"categories_sizes":[],"default_left":[0,0,0,0,0,0,0,0,0,0,0,0,0,0,0,0,0,0,0,0,0,0,0,0,0,0,0,0,0],"id":26,"left_children":[1,3,5,7,9,11,13,15,-1,17,19,21,23,25,27,-1,-1,-1,-1,-1,-1,-1,-1,-1,-1,-1,-1,-1,-1],"loss_changes":[1.2939908E2,1.12747314E2,6.199032E1,7.0901405E1,5.0642685E1,5.628636E1,3.4261906E1,6.2836586E1,0E0,1.7451733E1,4.936235E1,3.8390476E1,2.8438171E1,2.0241962E1,3.2922466E1,0E0,0E0,0E0,0E0,0E0,0E0,0E0,0E0,0E0,0E0,0E0,0E0,0E0,0E0],"parents":[2147483647,0,0,1,1,2,2,3,3,4,4,5,5,6,6,7,7,9,9,10,10,11,11,12,12,13,13,14,14],"right_children":[2,4,6,8,10,12,14,16,-1,18,20,22,24,26,28,-1,-1,-1,-1,-1,-1,-1,-1,-1,-1,-1,-1,-1,-1],"split_conditions":[1E0,1E0,2E0,1.2285781E1,1.479158E0,2.2768388E0,1E0,4.111515E0,-1.0309019E-1,3.8138323E0,2.7564702E0,1E0,1.7189568E0,8.902218E0,2.8301716E0,-1.4664113E-2,1.5604774E-2,-2.7716314E-2,5.084121E-2,-6.31981E-2,-2.3001987E-2,1.7148439E-2,-9.497258E-2,7.3150866E-2,3.4429166E-2,-2.643407E-2,1.0315605E-1,-1.1501547E-1,8.787332E-2],"split_indices":[3,8,8,4,7,4,5,4,0,4,6,1,7,4,4,0,0,0,0,0,0,0,0,0,0,0,0,0,0],"split_type":[0,0,0,0,0,0,0,0,0,0,0,0,0,0,0,0,0,0,0,0,0,0,0,0,0,0,0,0,0],"sum_hessian":[6.5910425E3,4.983949E3,1.6070935E3,3.1508877E3,1.8330615E3,1.2040088E3,4.0308472E2,3.0906326E3,6.0255165E1,1.4128009E2,1.6917815E3,1.2637226E2,1.0776365E3,3.4128998E2,6.1794743E1,1.0257456E3,2.064887E3,3.807844E1,1.0320165E2,4.0019528E2,1.2915862E3,7.704804E1,4.9324215E1,2.4679169E2,8.308448E2,3.2975043E2,1.1539539E1,8.492484E0,5.3302258E1],"tree_param":{"num_deleted":"0","num_feature":"13","num_nodes":"29","size_leaf_vector":"1"}},{"base_weights":[-6.445031E-4,1.5154344E-1,-1.251608E-1,-4.5557607E-2,3.5603207E-1,-8.439562E-2,-6.1729527E-1,-4.015918E-1,1.0508643E-1,6.382502E-1,1.7378311E-1,-6.452979E-2,-1.0172192E0,-6.5845764E-1,1.8184705E-1,-1.0623746E-2,-6.894311E-2,-1.2653683E-3,5.7244223E-2,9.426173E-2,5.1688887E-2,2.7333405E-3,5.0809573E-2,-1.7521402E-2,9.383581E-3,1.0283303E-1,-1.1042428E-1,-8.440225E-2,-5.481849E-2,6.965554E-2,-8.838361E-2],"categories":[],"categories_nodes":[],"categories_segments":[],"categories_sizes":[],"default_left":[0,0,0,0,0,0,0,0,0,0,0,0,0,0,0,0,0,0,0,0,0,0,0,0,0,0,0,0,0,0,0],"id":27,"left_children":[1,3,5,7,9,11,13,15,17,19,21,23,25,27,29,-1,-1,-1,-1,-1,-1,-1,-1,-1,-1,-1,-1,-1,-1,-1,-1],"loss_changes":[1.2379061E2,1.1849759E2,7.202853E1,8.03725E1,7.410248E1,6.144376E1,9.155472E0,3.780163E1,5.7962685E1,2.0412155E1,4.2977737E1,5.7003036E1,1.3444237E1,4.8872757E0,8.426063E0,0E0,0E0,0E0,0E0,0E0,0E0,0E0,0E0,0E0,0E0,0E0,0E0,0E0,0E0,0E0,0E0],"parents":[2147483647,0,0,1,1,2,2,3,3,4,4,5,5,6,6,7,7,8,8,9,9,10,10,11,11,12,12,13,13,14,14],"right_children":[2,4,6,8,10,12,14,16,18,20,22,24,26,28,30,-1,-1,-1,-1,-1,-1,-1,-1,-1,-1,-1,-1,-1,-1,-1,-1],"split_conditions":[2.3718345E0,2.8061364E0,2E0,3.9472218E0,1E0,4.95339E0,8.49334E0,1.87E0,1E0,1.898948E0,5.9312596E0,5.4953036E0,9.627275E0,3.2957487E0,2.9327185E0,-1.0623746E-2,-6.894311E-2,-1.2653683E-3,5.7244223E-2,9.426173E-2,5.1688887E-2,2.7333405E-3,5.0809573E-2,-1.7521402E-2,9.383581E-3,1.0283303E-1,-1.1042428E-1,-8.440225E-2,-5.481849E-2,6.965554E-2,-8.838361E-2],"split_indices":[7,6,8,4,8,6,4,7,5,7,4,4,0,6,7,0,0,0,0,0,0,0,0,0,0,0,0,0,0,0,0],"split_type":[0,0,0,0,0,0,0,0,0,0,0,0,0,0,0,0,0,0,0,0,0,0,0,0,0,0,0,0,0,0,0],"sum_hessian":[6.530527E3,2.9386252E3,3.5919019E3,1.4967375E3,1.4418876E3,3.3182144E3,2.7368756E2,4.4451022E2,1.0522274E3,5.6479034E2,8.770972E2,3.2500686E3,6.8145744E1,2.604484E2,1.3239187E1,2.2006686E2,2.2444336E2,8.412625E2,2.1096486E2,1.5907431E2,4.0571603E2,6.1066833E2,2.6642892E2,1.9129624E3,1.3371062E3,2.3394196E0,6.580633E1,9.460128E1,1.6584709E2,9.160962E0,4.078225E0],"tree_param":{"num_deleted":"0","num_feature":"13","num_nodes":"31","size_leaf_vector":"1"}},{"base_weights":[-5.7545165E-4,-4.7648795E-2,3.6292484E-1,4.9681435E-3,-3.9060527E-1,9.5568967E-1,3.0757383E-1,3.7199897E-1,-6.317421E-2,-5.2081925E-1,-1.5056184E-1,1.0453E0,3.2792965E-1,2.6131707E-1,1.0091982E0,-1.9520843E-2,4.7607843E-2,-5.4395147E-2,-2.1014798E-3,-1.8829823E-2,-6.255939E-2,1.3570197E-2,-5.7741094E-2,1.1982045E-1,6.2440146E-2,-1.6862224E-1,1.1178129E-1,3.320007E-2,-1.613779E-2,1.21524595E-1,-9.67629E-2],"categories":[],"categories_nodes":[],"categories_segments":[],"categories_sizes":[],"default_left":[0,0,0,0,0,0,0,0,0,0,0,0,0,0,0,0,0,0,0,0,0,0,0,0,0,0,0,0,0,0,0],"id":28,"left_children":[1,3,5,7,9,11,13,15,17,19,21,23,25,27,29,-1,-1,-1,-1,-1,-1,-1,-1,-1,-1,-1,-1,-1,-1,-1,-1],"loss_changes":[1.1089896E2,1.03545975E2,2.4086403E1,1.2446874E2,2.3778458E1,3.2004242E0,2.1840866E1,4.6097534E1,8.506825E1,1.7107635E1,3.3049255E1,2.76968E0,1.6720503E1,1.9184544E1,1.8192188E1,0E0,0E0,0E0,0E0,0E0,0E0,0E0,0E0,0E0,0E0,0E0,0E0,0E0,0E0,0E0,0E0],"parents":[2147483647,0,0,1,1,2,2,3,3,4,4,5,5,6,6,7,7,8,8,9,9,10,10,11,11,12,12,13,13,14,14],"right_children":[2,4,6,8,10,12,14,16,18,20,22,24,26,28,30,-1,-1,-1,-1,-1,-1,-1,-1,-1,-1,-1,-1,-1,-1,-1,-1],"split_conditions":[1E0,2E0,1.3567804E0,1.898948E0,5.9584346E0,7.704577E1,8.073762E0,2.211653E0,2.2768388E0,1.58E0,2.1786528E0,6E0,2.8301716E0,2E0,3.2301918E1,-1.9520843E-2,4.7607843E-2,-5.4395147E-2,-2.1014798E-3,-1.8829823E-2,-6.255939E-2,1.3570197E-2,-5.7741094E-2,1.1982045E-1,6.2440146E-2,-1.6862224E-1,1.1178129E-1,3.320007E-2,-1.613779E-2,1.21524595E-1,-9.67629E-2],"split_indices":[5,8,7,7,4,0,4,6,4,7,7,4,4,8,10,0,0,0,0,0,0,0,0,0,0,0,0,0,0,0,0],"split_type":[0,0,0,0,0,0,0,0,0,0,0,0,0,0,0,0,0,0,0,0,0,0,0,0,0,0,0,0,0,0,0],"sum_hessian":[6.479073E3,5.737E3,7.420734E2,4.974751E3,7.622489E2,6.198613E1,6.8008734E2,7.782818E2,4.196469E3,4.9341904E2,2.6882986E2,5.366109E1,8.325038E0,6.393112E2,4.0776108E1,1.2053268E2,6.5774915E2,3.3736185E2,3.8591072E3,1.1889176E2,3.7452728E2,1.6132217E2,1.07507675E2,3.8007057E1,1.5654035E1,2.0254626E0,6.299575E0,5.479045E2,9.140675E1,3.7276024E1,3.500084E0],"tree_param":{"num_deleted":"0","num_feature":"13","num_nodes":"31","size_leaf_vector":"1"}},{"base_weights":[-5.178336E-4,-7.092779E-2,2.2111532E-1,3.1085193E-2,-2.500595E-1,4.560205E-1,8.023868E-2,4.9275015E-2,-1.02271736E-1,-3.704962E-1,-6.3315734E-2,9.7120726E-1,3.19602E-1,3.7665557E-2,9.40439E-1,4.0771697E-2,6.8851636E-4,-4.37424E-2,7.934127E-3,-1.7322673E-2,4.6283673E-2,1.05396345E-1,7.412225E-2,4.2726803E-3,5.7154816E-2,5.6189615E-2,-2.5649874E-3,3.9493755E-2,1.4026839E-1],"categories":[],"categories_nodes":[],"categories_segments":[],"categories_sizes":[],"default_left":[0,0,0,0,0,0,0,0,0,0,0,0,0,0,0,0,0,0,0,0,0,0,0,0,0,0,0,0,0],"id":29,"left_children":[1,3,5,7,9,11,13,15,-1,17,19,21,23,25,27,-1,-1,-1,-1,-1,-1,-1,-1,-1,-1,-1,-1,-1,-1],"loss_changes":[1.0045225E2,8.927787E1,5.1321594E1,5.97309E1,3.984559E1,4.0564804E1,3.553696E1,4.651598E1,0E0,3.2473328E1,4.0342785E1,1.526886E0,3.2156548E1,3.0769651E1,1.098605E1,0E0,0E0,0E0,0E0,0E0,0E0,0E0,0E0,0E0,0E0,0E0,0E0,0E0,0E0],"parents":[2147483647,0,0,1,1,2,2,3,3,4,4,5,5,6,6,7,7,9,9,10,10,11,11,12,12,13,13,14,14],"right_children":[2,4,6,8,10,12,14,16,-1,18,20,22,24,26,28,-1,-1,-1,-1,-1,-1,-1,-1,-1,-1,-1,-1,-1,-1],"split_conditions":[1E0,1E0,1E0,1.2285781E1,5.7483187E0,1.7514887E0,8.303329E0,1.9809393E0,-1.02271736E-1,1E0,3.7027788E0,2.738463E1,4.51038E0,1.16E0,1E0,4.0771697E-2,6.8851636E-4,-4.37424E-2,7.934127E-3,-1.7322673E-2,4.6283673E-2,1.05396345E-1,7.412225E-2,4.2726803E-3,5.7154816E-2,5.6189615E-2,-2.5649874E-3,3.9493755E-2,1.4026839E-1],"split_indices":[3,8,8,4,4,7,4,7,0,5,6,10,4,7,12,0,0,0,0,0,0,0,0,0,0,0,0,0,0],"split_type":[0,0,0,0,0,0,0,0,0,0,0,0,0,0,0,0,0,0,0,0,0,0,0,0,0,0,0,0,0],"sum_hessian":[6.435104E3,4.8841523E3,1.5509514E3,3.1124707E3,1.7716818E3,5.8059674E2,9.703547E2,3.0605945E3,5.1876076E1,1.0764575E3,6.9522424E2,1.2027118E2,4.6032553E2,9.255891E2,4.4765564E1,3.2276086E2,2.7378337E3,9.370664E2,1.3939119E2,5.756452E2,1.1957905E2,8.581084E1,3.4460342E1,2.1986993E2,2.4045561E2,9.889522E1,8.266939E2,2.1384186E1,2.3381376E1],"tree_param":{"num_deleted":"0","num_feature":"13","num_nodes":"29","size_leaf_vector":"1"}},{"base_weights":[-3.5810992E-4,7.651173E-2,-1.8576626E-1,-2.567573E-2,3.7243435E-1,-1.5765238E-1,-1.0022947E0,-2.774663E-1,9.4395265E-2,5.7548815E-1,1.9785881E-1,-6.3943334E-2,-4.1060722E-1,-1.0237833E0,2.6956105E-3,-4.1233383E-2,4.929541E-4,2.063411E-3,4.923666E-2,1.02050774E-1,4.9659632E-2,-2.3366395E-2,2.9946137E-2,-4.5823213E-3,-1.1844184E-1,-3.2205865E-2,-8.772218E-2,-3.7588682E-2,-1.0336687E-1],"categories":[],"categories_nodes":[],"categories_segments":[],"categories_sizes":[],"default_left":[0,0,0,0,0,0,0,0,0,0,0,0,0,0,0,0,0,0,0,0,0,0,0,0,0,0,0,0,0],"id":30,"left_children":[1,3,5,7,9,11,13,15,17,19,21,23,25,27,-1,-1,-1,-1,-1,-1,-1,-1,-1,-1,-1,-1,-1,-1,-1],"loss_changes":[9.1000145E1,1.364994E2,4.279991E1,1.0148696E2,4.095735E1,4.288381E1,1.4011002E0,4.1282524E1,6.671672E1,1.8279755E1,2.7451519E1,2.6788136E1,1.9928284E1,1.2130737E-3,0E0,0E0,0E0,0E0,0E0,0E0,0E0,0E0,0E0,0E0,0E0,0E0,0E0,0E0,0E0],"parents":[2147483647,0,0,1,1,2,2,3,3,4,4,5,5,6,6,7,7,8,8,9,9,10,10,11,11,12,12,13,13],"right_children":[2,4,6,8,10,12,14,16,18,20,22,24,26,28,-1,-1,-1,-1,-1,-1,-1,-1,-1,-1,-1,-1,-1,-1,-1],"split_conditions":[2.8424294E0,3.263195E0,1.0285015E1,4.111515E0,1E0,1E0,1E0,1E0,1E0,1.378335E1,3.0425239E0,5.2933736E0,3.55E0,1.8136719E1,2.6956105E-3,-4.1233383E-2,4.929541E-4,2.063411E-3,4.923666E-2,1.02050774E-1,4.9659632E-2,-2.3366395E-2,2.9946137E-2,-4.5823213E-3,-1.1844184E-1,-3.2205865E-2,-8.772218E-2,-3.7588682E-2,-1.0336687E-1],"split_indices":[7,6,4,4,8,8,11,3,5,0,4,6,7,0,0,0,0,0,0,0,0,0,0,0,0,0,0,0,0],"split_type":[0,0,0,0,0,0,0,0,0,0,0,0,0,0,0,0,0,0,0,0,0,0,0,0,0,0,0,0,0],"sum_hessian":[6.382949E3,4.512615E3,1.8703339E3,3.3549895E3,1.1576257E3,1.8092333E3,6.1100605E1,1.0828749E3,2.2721147E3,5.34101E2,6.235247E2,1.3210813E3,4.881519E2,5.9856236E1,1.2443706E0,7.325575E2,3.5031735E2,1.917729E3,3.543856E2,7.8628944E1,4.5547208E2,1.1858308E2,5.0494165E2,1.3010814E3,1.9999954E1,4.1171225E2,7.643965E1,1.4860038E0,5.837023E1],"tree_param":{"num_deleted":"0","num_feature":"13","num_nodes":"29","size_leaf_vector":"1"}},{"base_weights":[-4.084065E-4,3.9917237E-1,-3.3804595E-2,8.713872E-1,2.2901599E-1,1.1686726E-2,-3.7888956E-1,-5.5927074E-1,9.1349435E-1,8.266767E-2,7.753545E-1,-1.4910911E-1,9.277334E-2,-4.038799E-1,1.0268918E0,7.513172E-2,-2.3982804E-1,1.0595258E-1,7.840883E-2,-4.570783E-2,3.2253224E-2,8.797955E-2,-9.5975846E-2,-5.2993286E-2,-8.2843155E-3,2.2138296E-2,-7.712237E-3,-2.6053924E-2,-5.790632E-2,1.2643102E-1,-6.191954E-2],"categories":[],"categories_nodes":[],"categories_segments":[],"categories_sizes":[],"default_left":[0,0,0,0,0,0,0,0,0,0,0,0,0,0,0,0,0,0,0,0,0,0,0,0,0,0,0,0,0,0,0],"id":31,"left_children":[1,3,5,7,9,11,13,15,17,19,21,23,25,27,29,-1,-1,-1,-1,-1,-1,-1,-1,-1,-1,-1,-1,-1,-1,-1,-1],"loss_changes":[8.46806E1,3.91285E1,9.193839E1,8.299728E0,2.88129E1,6.748947E1,2.437841E1,1.2206316E1,1.549881E0,3.717165E1,1.4650539E1,4.374643E1,7.520137E1,1.6696709E1,5.5493774E0,0E0,0E0,0E0,0E0,0E0,0E0,0E0,0E0,0E0,0E0,0E0,0E0,0E0,0E0,0E0,0E0],"parents":[2147483647,0,0,1,1,2,2,3,3,4,4,5,5,6,6,7,7,8,8,9,9,10,10,11,11,12,12,13,13,14,14],"right_children":[2,4,6,8,10,12,14,16,18,20,22,24,26,28,30,-1,-1,-1,-1,-1,-1,-1,-1,-1,-1,-1,-1,-1,-1,-1,-1],"split_conditions":[1.4965776E0,1E0,2E0,1.429262E1,2.9750373E0,4.111515E0,9.369113E0,2.8711817E1,1.22E0,3.918845E0,7.315429E1,2.6282778E0,2.7E0,2.2098572E0,2.75E0,7.513172E-2,-2.3982804E-1,1.0595258E-1,7.840883E-2,-4.570783E-2,3.2253224E-2,8.797955E-2,-9.5975846E-2,-5.2993286E-2,-8.2843155E-3,2.2138296E-2,-7.712237E-3,-2.6053924E-2,-5.790632E-2,1.2643102E-1,-6.191954E-2],"split_indices":[7,8,8,0,6,4,4,10,7,4,0,6,7,7,7,0,0,0,0,0,0,0,0,0,0,0,0,0,0,0,0],"split_type":[0,0,0,0,0,0,0,0,0,0,0,0,0,0,0,0,0,0,0,0,0,0,0,0,0,0,0,0,0,0,0],"sum_hessian":[6.3437314E3,4.8845712E2,5.8552744E3,1.2829477E2,3.6016235E2,5.174151E3,6.811237E2,3.316868E0,1.24977905E2,2.8497662E2,7.518571E1,1.734257E3,3.4398936E3,6.6992725E2,1.1196486E1,2.28202E0,1.034848E0,5.5340214E1,6.963769E1,8.74008E1,1.9757584E2,7.138198E1,3.8037233E0,2.56008E2,1.478249E3,1.957659E3,1.4822345E3,3.6981763E2,3.0010962E2,9.98785E0,1.2086359E0],"tree_param":{"num_deleted":"0","num_feature":"13","num_nodes":"31","size_leaf_vector":"1"}},{"base_weights":[-3.318958E-4,-4.030693E-2,3.069137E-1,3.2067539E-3,-3.3539444E-1,8.8366497E-1,2.5870195E-1,2.1487246E-1,-8.338681E-2,-4.7502527E-1,-1.13432504E-1,9.8063046E-1,2.4696589E-1,-7.1746625E-2,3.4022465E-1,-5.8655166E-3,4.209384E-2,-1.1702257E-1,-6.890873E-3,6.629826E-3,-5.3860374E-2,2.518493E-2,-4.0124834E-2,1.1524822E-1,5.1178385E-2,-1.5367033E-1,1.0567582E-1,-3.6562953E-2,3.4459684E-2,8.50335E-2,2.8765311E-2],"categories":[],"categories_nodes":[],"categories_segments":[],"categories_sizes":[],"default_left":[0,0,0,0,0,0,0,0,0,0,0,0,0,0,0,0,0,0,0,0,0,0,0,0,0,0,0,0,0,0,0],"id":32,"left_children":[1,3,5,7,9,11,13,15,17,19,21,23,25,27,29,-1,-1,-1,-1,-1,-1,-1,-1,-1,-1,-1,-1,-1,-1,-1,-1],"loss_changes":[7.7427986E1,7.1628555E1,1.9952652E1,8.914095E1,2.216417E1,3.188923E0,1.8106113E1,7.961109E1,5.4229042E1,1.5169998E1,2.9343018E1,3.269062E0,1.4163923E1,1.6478582E1,1.419812E1,0E0,0E0,0E0,0E0,0E0,0E0,0E0,0E0,0E0,0E0,0E0,0E0,0E0,0E0,0E0,0E0],"parents":[2147483647,0,0,1,1,2,2,3,3,4,4,5,5,6,6,7,7,8,8,9,9,10,10,11,11,12,12,13,13,14,14],"right_children":[2,4,6,8,10,12,14,16,18,20,22,24,26,28,30,-1,-1,-1,-1,-1,-1,-1,-1,-1,-1,-1,-1,-1,-1,-1,-1],"split_conditions":[1E0,2E0,1.3567804E0,2.1939752E0,3.263195E0,7.704577E1,2.48E0,2.6723642E0,7.0297444E-1,1.16E0,2.2259488E0,6E0,2.8301716E0,1E0,1.7980776E1,-5.8655166E-3,4.209384E-2,-1.1702257E-1,-6.890873E-3,6.629826E-3,-5.3860374E-2,2.518493E-2,-4.0124834E-2,1.1524822E-1,5.1178385E-2,-1.5367033E-1,1.0567582E-1,-3.6562953E-2,3.4459684E-2,8.50335E-2,2.8765311E-2],"split_indices":[5,8,7,7,6,0,6,6,4,7,7,4,4,11,10,0,0,0,0,0,0,0,0,0,0,0,0,0,0,0,0],"split_type":[0,0,0,0,0,0,0,0,0,0,0,0,0,0,0,0,0,0,0,0,0,0,0,0,0,0,0,0,0,0,0],"sum_hessian":[6.3020977E3,5.577315E3,7.247831E2,4.861435E3,7.1587946E2,5.4575382E1,6.702077E2,1.4109895E3,3.4504458E3,4.387392E2,2.7714026E2,4.6893585E1,7.681796E0,1.3264737E2,5.3756036E2,6.0656415E2,8.0442535E2,4.4310665E1,3.406135E3,4.610935E1,3.9262985E2,1.22188965E2,1.5495131E2,3.324851E1,1.3645078E1,2.1183074E0,5.563489E0,7.783093E1,5.4816444E1,4.880662E1,4.8875372E2],"tree_param":{"num_deleted":"0","num_feature":"13","num_nodes":"31","size_leaf_vector":"1"}},{"base_weights":[-2.744962E-4,-5.9777133E-2,1.9050673E-1,2.837614E-2,-2.1787961E-1,9.746215E-3,3.4753898E-1,4.4577915E-2,-9.510049E-1,3.056698E-1,-2.5339624E-1,-1.428921E0,4.088199E-2,6.0413927E-1,2.1427412E-1,-3.8135366E-3,1.8308405E-2,1.3092633E-1,-1.0745909E-1,-3.5855228E-3,6.442363E-2,-5.6246597E-2,-1.6156677E-2,2.5781278E-2,-1.7557754E-1,9.057193E-3,-8.233929E-2,6.726636E-2,-9.782604E-2,3.0247122E-2,-2.3502214E-2],"categories":[],"categories_nodes":[],"categories_segments":[],"categories_sizes":[],"default_left":[0,0,0,0,0,0,0,0,0,0,0,0,0,0,0,0,0,0,0,0,0,0,0,0,0,0,0,0,0,0,0],"id":33,"left_children":[1,3,5,7,9,11,13,15,17,19,21,23,25,27,29,-1,-1,-1,-1,-1,-1,-1,-1,-1,-1,-1,-1,-1,-1,-1,-1],"loss_changes":[7.114071E1,6.658345E1,4.2287056E1,4.872129E1,3.1876915E1,3.1129257E1,2.7132706E1,3.4591557E1,1.5365154E1,1.26377E1,4.537773E1,8.568914E0,2.9274113E1,3.0147888E1,2.0925499E1,0E0,0E0,0E0,0E0,0E0,0E0,0E0,0E0,0E0,0E0,0E0,0E0,0E0,0E0,0E0,0E0],"parents":[2147483647,0,0,1,1,2,2,3,3,4,4,5,5,6,6,7,7,8,8,9,9,10,10,11,11,12,12,13,13,14,14],"right_children":[2,4,6,8,10,12,14,16,18,20,22,24,26,28,30,-1,-1,-1,-1,-1,-1,-1,-1,-1,-1,-1,-1,-1,-1,-1,-1],"split_conditions":[1E0,1E0,4.6E0,4.95339E0,1.43E0,1.45E1,1E0,5.570624E0,9.627275E0,6.2697285E1,2.7422721E0,1.82E0,2.9145713E0,3.4838955E0,3E0,-3.8135366E-3,1.8308405E-2,1.3092633E-1,-1.0745909E-1,-3.5855228E-3,6.442363E-2,-5.6246597E-2,-1.6156677E-2,2.5781278E-2,-1.7557754E-1,9.057193E-3,-8.233929E-2,6.726636E-2,-9.782604E-2,3.0247122E-2,-2.3502214E-2],"split_indices":[3,8,4,6,7,10,8,4,0,0,6,7,7,7,2,0,0,0,0,0,0,0,0,0,0,0,0,0,0,0,0],"split_type":[0,0,0,0,0,0,0,0,0,0,0,0,0,0,0,0,0,0,0,0,0,0,0,0,0,0,0,0,0,0,0],"sum_hessian":[6.2648047E3,4.7759297E3,1.488875E3,3.0667954E3,1.709134E3,6.926381E2,7.962368E2,3.0178264E3,4.8969036E1,1.08095566E2,1.6010386E3,1.3721595E1,6.789165E2,2.709642E2,5.2527264E2,1.8899238E3,1.1279026E3,2.0413218E0,4.6927715E1,5.4257767E1,5.3837803E1,3.6555798E2,1.2354806E3,2.2616365E0,1.1459958E1,6.428521E2,3.606443E1,2.6026843E2,1.06957655E1,4.39354E2,8.591865E1],"tree_param":{"num_deleted":"0","num_feature":"13","num_nodes":"31","size_leaf_vector":"1"}},{"base_weights":[-2.9652944E-4,-3.712539E-2,2.8232256E-1,-1.0278812E-1,1.3278933E-1,8.3473223E-1,2.3904094E-1,-2.280453E-3,-2.4598065E-1,2.1077482E-1,-4.791462E-1,9.3435216E-1,2.017909E-1,1.9998612E-1,8.412892E-1,5.402977E-2,-4.910338E-3,-4.714568E-2,-1.6133461E-2,1.3222322E-2,6.942471E-2,-8.429961E-2,3.5551164E-2,1.11369036E-1,4.571942E-2,-1.3810603E-1,1.01298034E-1,-7.070741E-3,2.8650267E-2,1.0340398E-1,-9.541502E-2],"categories":[],"categories_nodes":[],"categories_segments":[],"categories_sizes":[],"default_left":[0,0,0,0,0,0,0,0,0,0,0,0,0,0,0,0,0,0,0,0,0,0,0,0,0,0,0,0,0,0,0],"id":34,"left_children":[1,3,5,7,9,11,13,15,17,19,21,23,25,27,29,-1,-1,-1,-1,-1,-1,-1,-1,-1,-1,-1,-1,-1,-1,-1,-1],"loss_changes":[6.478713E1,6.1453453E1,1.6957882E1,5.717078E1,7.33713E1,3.0737572E0,1.5516998E1,5.9350735E1,3.1192429E1,5.165256E1,5.30977E1,3.2925873E0,1.2070641E1,1.4717602E1,1.4933311E1,0E0,0E0,0E0,0E0,0E0,0E0,0E0,0E0,0E0,0E0,0E0,0E0,0E0,0E0,0E0,0E0],"parents":[2147483647,0,0,1,1,2,2,3,3,4,4,5,5,6,6,7,7,8,8,9,9,10,10,11,11,12,12,13,13,14,14],"right_children":[2,4,6,8,10,12,14,16,18,20,22,24,26,28,30,-1,-1,-1,-1,-1,-1,-1,-1,-1,-1,-1,-1,-1,-1,-1,-1],"split_conditions":[1E0,6.2E0,1.3567804E0,1E0,3.5067666E0,7.704577E1,8.073762E0,1.82E0,2.7913718E0,3.7027788E0,1E0,6E0,2.8301716E0,2.5583205E0,3.2301918E1,5.402977E-2,-4.910338E-3,-4.714568E-2,-1.6133461E-2,1.3222322E-2,6.942471E-2,-8.429961E-2,3.5551164E-2,1.11369036E-1,4.571942E-2,-1.3810603E-1,1.01298034E-1,-7.070741E-3,2.8650267E-2,1.0340398E-1,-9.541502E-2],"split_indices":[5,4,7,8,7,0,4,7,6,6,11,4,4,6,10,0,0,0,0,0,0,0,0,0,0,0,0,0,0,0,0],"split_type":[0,0,0,0,0,0,0,0,0,0,0,0,0,0,0,0,0,0,0,0,0,0,0,0,0,0,0,0,0,0,0],"sum_hessian":[6.2224155E3,5.5058076E3,7.1660815E2,3.9714534E3,1.5343541E3,5.073853E1,6.658696E2,2.3341301E3,1.6373234E3,1.3614993E3,1.7285486E2,4.3427223E1,7.311307E0,6.2656964E2,3.9299953E1,1.8458963E2,2.1495405E3,4.456506E2,1.1916729E3,1.172304E3,1.8919528E2,1.2037163E2,5.2483227E1,3.059441E1,1.2832811E1,2.2393036E0,5.0720034E0,1.517999E2,4.7476974E2,3.5872875E1,3.4270813E0],"tree_param":{"num_deleted":"0","num_feature":"13","num_nodes":"31","size_leaf_vector":"1"}},{"base_weights":[-2.4610214E-4,9.9594764E-2,-1.04535E-1,-8.6500034E-2,2.767799E-1,-9.105701E-2,-1.0107626E-1,1.9456646E-1,-1.8739367E-1,4.8172966E-1,1.376377E-1,-1.3254092E-2,-2.7569976E-1,6.456657E-2,2.9366238E-3,-2.1058856E-2,1.417034E-1,9.460839E-2,3.8239595E-2,9.4774775E-3,9.849461E-2,-2.368427E-2,7.0466297E-3,-2.289955E-2,-8.2999125E-2],"categories":[],"categories_nodes":[],"categories_segments":[],"categories_sizes":[],"default_left":[0,0,0,0,0,0,0,0,0,0,0,0,0,0,0,0,0,0,0,0,0,0,0,0,0],"id":35,"left_children":[1,3,5,7,9,11,-1,13,15,17,19,21,23,-1,-1,-1,-1,-1,-1,-1,-1,-1,-1,-1,-1],"loss_changes":[6.4521675E1,1.04412415E2,3.692686E1,4.3845528E1,4.6188194E1,4.291414E1,0E0,3.0427826E1,4.2622635E1,2.9873459E1,3.504432E1,3.9380768E1,2.2736336E1,0E0,0E0,0E0,0E0,0E0,0E0,0E0,0E0,0E0,0E0,0E0,0E0],"parents":[2147483647,0,0,1,1,2,2,3,3,4,4,5,5,7,7,8,8,9,9,10,10,11,11,12,12],"right_children":[2,4,6,8,10,12,-1,14,16,18,20,22,24,-1,-1,-1,-1,-1,-1,-1,-1,-1,-1,-1,-1],"split_conditions":[2.49E0,2.8061364E0,1.2285781E1,1.6337343E0,1E0,1E0,-1.0107626E-1,1E0,9.369113E0,2.1258823E1,3.99E0,3.19E0,3.55E0,6.456657E-2,2.9366238E-3,-2.1058856E-2,1.417034E-1,9.460839E-2,3.8239595E-2,9.4774775E-3,9.849461E-2,-2.368427E-2,7.0466297E-3,-2.289955E-2,-8.2999125E-2],"split_indices":[7,6,4,7,8,8,0,8,4,0,6,6,7,0,0,0,0,0,0,0,0,0,0,0,0],"split_type":[0,0,0,0,0,0,0,0,0,0,0,0,0,0,0,0,0,0,0,0,0,0,0,0,0],"sum_hessian":[6.194682E3,3.1648557E3,3.0298264E3,1.5438673E3,1.6209884E3,2.9865095E3,4.3316784E1,4.0756274E2,1.1363047E3,6.544915E2,9.664969E2,2.1019026E3,8.8460693E2,1.0846836E2,2.9909436E2,1.1209678E3,1.5336853E1,1.1383308E2,5.4065845E2,9.210171E2,4.547979E1,5.721244E2,1.5297783E3,8.1716614E2,6.744082E1],"tree_param":{"num_deleted":"0","num_feature":"13","num_nodes":"25","size_leaf_vector":"1"}},{"base_weights":[-1.5816915E-4,5.116357E-1,-1.831692E-2,3.283517E-1,9.99318E-1,2.008426E-2,-2.9421395E-1,9.622081E-1,1.24842204E-1,-8.960258E-2,1.0640312E0,-3.259134E-1,4.99959E-2,-3.1562406E-1,7.495735E-1,1.0385039E-1,2.031124E-2,-5.0708648E-2,4.763735E-2,1.1616349E-1,-4.2946264E-2,-2.3535294E-2,-1.109372E-1,1.4168578E-2,-8.098594E-3,-1.7533151E-2,-4.8835926E-2,-1.1714889E-1,1.1494602E-1],"categories":[],"categories_nodes":[],"categories_segments":[],"categories_sizes":[],"default_left":[0,0,0,0,0,0,0,0,0,0,0,0,0,0,0,0,0,0,0,0,0,0,0,0,0,0,0,0,0],"id":36,"left_children":[1,3,5,7,9,11,13,15,17,-1,19,21,23,25,27,-1,-1,-1,-1,-1,-1,-1,-1,-1,-1,-1,-1,-1,-1],"loss_changes":[5.717845E1,1.851537E1,6.295657E1,1.9837696E1,7.956642E0,5.4005272E1,1.6461441E1,1.9581604E0,2.65131E1,0E0,8.613865E0,2.9199585E1,5.7687157E1,1.7171814E1,1.2784494E1,0E0,0E0,0E0,0E0,0E0,0E0,0E0,0E0,0E0,0E0,0E0,0E0,0E0,0E0],"parents":[2147483647,0,0,1,1,2,2,3,3,4,4,5,5,6,6,7,7,8,8,10,10,11,11,12,12,13,13,14,14],"right_children":[2,4,6,8,10,12,14,16,18,-1,20,22,24,26,28,-1,-1,-1,-1,-1,-1,-1,-1,-1,-1,-1,-1,-1,-1],"split_conditions":[1.2493448E0,2.87E0,2E0,1E0,2.2040558E1,2.2177432E0,9.369113E0,1.22E0,4.111515E0,-8.960258E-2,7.41715E1,3.35E0,2.7E0,2.1034043E0,2.211653E0,1.0385039E-1,2.031124E-2,-5.0708648E-2,4.763735E-2,1.1616349E-1,-4.2946264E-2,-2.3535294E-2,-1.109372E-1,1.4168578E-2,-8.098594E-3,-1.7533151E-2,-4.8835926E-2,-1.1714889E-1,1.1494602E-1],"split_indices":[7,6,8,8,0,4,4,7,4,0,0,7,7,7,6,0,0,0,0,0,0,0,0,0,0,0,0,0,0],"split_type":[0,0,0,0,0,0,0,0,0,0,0,0,0,0,0,0,0,0,0,0,0,0,0,0,0,0,0,0,0],"sum_hessian":[6.150487E3,2.0981438E2,5.9406724E3,1.537168E2,5.609758E1,5.215651E3,7.2502167E2,3.645256E1,1.17264244E2,1.4279908E0,5.466959E1,4.1422934E2,4.8014214E3,7.1113257E2,1.3889101E1,3.2788906E1,3.6636546E0,4.175716E1,7.550708E1,5.152453E1,3.1450598E0,3.724751E2,4.1754223E1,2.8242844E3,1.977137E3,3.935296E2,3.1760297E2,2.0605643E0,1.1828537E1],"tree_param":{"num_deleted":"0","num_feature":"13","num_nodes":"29","size_leaf_vector":"1"}},{"base_weights":[-1.5000306E-4,-3.4188315E-2,2.6052105E-1,-9.4728243E-1,-2.2426028E-2,7.843953E-1,2.2262798E-1,-5.539102E-1,-1.5131239E0,1.3594836E-2,-2.7314666E-1,8.863014E-1,1.6809334E-1,1.8751696E-1,7.6987046E-1,2.469719E-2,-9.033399E-2,-2.2517096E-1,-7.352754E-2,2.7796326E-2,-3.8051605E-3,-4.0868387E-2,-5.70366E-3,1.07830696E-1,3.931174E-2,-1.2536442E-1,9.775605E-2,-5.550969E-3,2.6542652E-2,9.482616E-2,-8.8028066E-2],"categories":[],"categories_nodes":[],"categories_segments":[],"categories_sizes":[],"default_left":[0,0,0,0,0,0,0,0,0,0,0,0,0,0,0,0,0,0,0,0,0,0,0,0,0,0,0,0,0,0,0],"id":37,"left_children":[1,3,5,7,9,11,13,15,17,19,21,23,25,27,29,-1,-1,-1,-1,-1,-1,-1,-1,-1,-1,-1,-1,-1,-1,-1,-1],"loss_changes":[5.4286106E1,5.8099854E1,1.3853146E1,1.4475891E1,4.826458E1,2.819767E0,1.2544277E1,1.202247E1,1.4222324E1,6.3820602E1,1.9640999E1,3.394947E0,1.036448E1,1.1789541E1,1.2460438E1,0E0,0E0,0E0,0E0,0E0,0E0,0E0,0E0,0E0,0E0,0E0,0E0,0E0,0E0,0E0,0E0],"parents":[2147483647,0,0,1,1,2,2,3,3,4,4,5,5,6,6,7,7,8,8,9,9,10,10,11,11,12,12,13,13,14,14],"right_children":[2,4,6,8,10,12,14,16,18,20,22,24,26,28,30,-1,-1,-1,-1,-1,-1,-1,-1,-1,-1,-1,-1,-1,-1,-1,-1],"split_conditions":[1E0,7.0297444E-1,1.3567804E0,4.971193E1,2E0,7.704577E1,8.073762E0,2.2829614E0,1E0,1.9449729E0,3.263195E0,6E0,2.8301716E0,2.5583205E0,3.2301918E1,2.469719E-2,-9.033399E-2,-2.2517096E-1,-7.352754E-2,2.7796326E-2,-3.8051605E-3,-4.0868387E-2,-5.70366E-3,1.07830696E-1,3.931174E-2,-1.2536442E-1,9.775605E-2,-5.550969E-3,2.6542652E-2,9.482616E-2,-8.8028066E-2],"split_indices":[5,4,7,0,8,0,4,7,12,7,6,4,4,6,10,0,0,0,0,0,0,0,0,0,0,0,0,0,0,0,0],"split_type":[0,0,0,0,0,0,0,0,0,0,0,0,0,0,0,0,0,0,0,0,0,0,0,0,0,0,0,0,0,0,0],"sum_hessian":[6.1162554E3,5.4106094E3,7.056462E2,6.780039E1,5.3428086E3,4.6269325E1,6.5937683E2,4.1162907E1,2.6637484E1,4.672465E3,6.7034406E2,3.9328262E1,6.9410605E0,6.2088367E2,3.8493183E1,1.2593106E1,2.85698E1,1.2691659E1,1.3945825E1,7.6290674E2,3.909558E3,4.114223E2,2.5892178E2,2.745364E1,1.1874624E1,2.3190985E0,4.621962E0,1.5079373E2,4.7008994E2,3.512167E1,3.3715134E0],"tree_param":{"num_deleted":"0","num_feature":"13","num_nodes":"31","size_leaf_vector":"1"}},{"base_weights":[-1.583222E-4,-5.2175093E-2,1.6937295E-1,-2.1715568E-2,-3.6474267E-1,8.1411466E-2,4.411175E-1,-1.6206549E-1,4.1127477E-2,-1.0703843E0,-3.154886E-1,2.6802748E-1,-2.3868078E-2,4.7539383E-1,-9.815853E-2,-4.1151136E-2,-2.2888735E-3,2.2128606E-2,-4.29185E-3,-5.096944E-2,-1.2274072E-1,-8.824655E-3,-5.225728E-2,8.515708E-2,1.3301854E-2,-6.528599E-2,1.8708315E-3,7.3905356E-2,2.8781652E-2],"categories":[],"categories_nodes":[],"categories_segments":[],"categories_sizes":[],"default_left":[0,0,0,0,0,0,0,0,0,0,0,0,0,0,0,0,0,0,0,0,0,0,0,0,0,0,0,0,0],"id":38,"left_children":[1,3,5,7,9,11,13,15,17,19,21,23,25,27,-1,-1,-1,-1,-1,-1,-1,-1,-1,-1,-1,-1,-1,-1,-1],"loss_changes":[5.375068E1,4.439785E1,3.417146E1,3.750103E1,1.4054501E1,2.1271362E1,1.7521118E1,4.5642082E1,4.448183E1,1.7163143E0,1.8235802E1,3.0648746E1,1.8568151E1,1.6710052E1,0E0,0E0,0E0,0E0,0E0,0E0,0E0,0E0,0E0,0E0,0E0,0E0,0E0,0E0,0E0],"parents":[2147483647,0,0,1,1,2,2,3,3,4,4,5,5,6,6,7,7,8,8,9,9,10,10,11,11,12,12,13,13],"right_children":[2,4,6,8,10,12,14,16,18,20,22,24,26,28,-1,-1,-1,-1,-1,-1,-1,-1,-1,-1,-1,-1,-1,-1,-1],"split_conditions":[1E0,2E0,6.2E0,4.0464435E0,2.211653E0,1E0,3.4838955E0,3E0,2.3548577E0,5.2674465E1,2.0855167E0,1.8E0,2.211653E0,4.9E1,-9.815853E-2,-4.1151136E-2,-2.2888735E-3,2.2128606E-2,-4.29185E-3,-5.096944E-2,-1.2274072E-1,-8.824655E-3,-5.225728E-2,8.515708E-2,1.3301854E-2,-6.528599E-2,1.8708315E-3,7.3905356E-2,2.8781652E-2],"split_indices":[3,8,4,4,6,8,7,6,7,0,7,7,6,0,0,0,0,0,0,0,0,0,0,0,0,0,0,0,0],"split_type":[0,0,0,0,0,0,0,0,0,0,0,0,0,0,0,0,0,0,0,0,0,0,0,0,0,0,0,0,0],"sum_hessian":[6.093237E3,4.663149E3,1.4300878E3,4.2500537E3,4.130957E2,1.08136E3,3.4872775E2,1.3139583E3,2.9360952E3,2.560024E1,3.8749545E2,3.894624E2,6.9189764E2,3.4117392E2,7.5538483E0,4.6986484E2,8.440934E2,9.334803E2,2.002615E3,6.5298266E0,1.9070414E1,1.8543553E2,2.0205992E2,7.2178955E1,3.1728345E2,4.295651E1,6.4894116E2,1.406024E2,2.0057152E2],"tree_param":{"num_deleted":"0","num_feature":"13","num_nodes":"29","size_leaf_vector":"1"}},{"base_weights":[-1.6001795E-4,4.761657E-1,-1.6176859E-2,3.003191E-1,9.66631E-1,-2.6165703E-1,1.4332037E-2,9.373083E-1,1.1838365E-1,-8.548293E-2,1.0365728E0,-3.6315152E-1,2.4769612E-1,1.8028033E-1,-6.375742E-2,1.02455534E-1,1.6008869E-2,-4.2991035E-2,4.3709196E-2,1.14206396E-1,-4.0137734E-2,-1.7336894E-2,-6.0536325E-2,3.6338225E-2,-1.1489198E-1,4.0481657E-2,3.647823E-3,-5.220053E-3,-9.343528E-2],"categories":[],"categories_nodes":[],"categories_segments":[],"categories_sizes":[],"default_left":[0,0,0,0,0,0,0,0,0,0,0,0,0,0,0,0,0,0,0,0,0,0,0,0,0,0,0,0,0],"id":39,"left_children":[1,3,5,7,9,11,13,15,17,-1,19,21,23,25,27,-1,-1,-1,-1,-1,-1,-1,-1,-1,-1,-1,-1,-1,-1],"loss_changes":[4.6256393E1,1.6721195E1,4.3934612E1,1.688315E1,7.4601974E0,3.36141E1,6.763466E1,2.0352821E0,2.03196E1,0E0,8.0653E0,2.4769821E1,1.7922161E1,5.390963E1,3.566156E1,0E0,0E0,0E0,0E0,0E0,0E0,0E0,0E0,0E0,0E0,0E0,0E0,0E0,0E0],"parents":[2147483647,0,0,1,1,2,2,3,3,4,4,5,5,6,6,7,7,8,8,10,10,11,11,12,12,13,13,14,14],"right_children":[2,4,6,8,10,12,14,16,18,-1,20,22,24,26,28,-1,-1,-1,-1,-1,-1,-1,-1,-1,-1,-1,-1,-1,-1],"split_conditions":[1.2493448E0,2.87E0,2.5036824E0,1E0,2.2040558E1,6.874702E0,2.3158944E0,1.22E0,4.111515E0,-8.548293E-2,7.41715E1,1.927277E0,3E0,1E0,4.95339E0,1.02455534E-1,1.6008869E-2,-4.2991035E-2,4.3709196E-2,1.14206396E-1,-4.0137734E-2,-1.7336894E-2,-6.0536325E-2,3.6338225E-2,-1.1489198E-1,4.0481657E-2,3.647823E-3,-5.220053E-3,-9.343528E-2],"split_indices":[7,6,6,8,0,4,7,7,4,0,0,7,2,8,6,0,0,0,0,0,0,0,0,0,0,0,0,0,0],"split_type":[0,0,0,0,0,0,0,0,0,0,0,0,0,0,0,0,0,0,0,0,0,0,0,0,0,0,0,0,0],"sum_hessian":[6.0610366E3,1.9624243E2,5.864794E3,1.4563884E2,5.0603603E1,6.4747943E2,5.2173145E3,3.1433289E1,1.1420554E2,1.4562844E0,4.9147316E1,5.4013776E2,1.07341675E2,1.6690658E3,3.5482488E3,2.7974745E1,3.4585452E0,4.1853466E1,7.235207E1,4.5979897E1,3.1674194E0,3.038079E2,2.3632991E2,9.981361E1,7.528065E0,6.509074E2,1.0181584E3,3.50281E3,4.5438793E1],"tree_param":{"num_deleted":"0","num_feature":"13","num_nodes":"29","size_leaf_vector":"1"}},{"base_weights":[-8.8909524E-5,-3.1532258E-2,2.4075504E-1,-8.726146E-1,-2.0843146E-2,7.443322E-1,2.0680317E-1,-5.1344454E-1,-1.3765413E0,-1.20227695E-1,5.907287E-2,9.581149E-1,4.317572E-1,-6.485117E-1,2.2552803E-1,-1.3599164E-2,-1.22986235E-1,-2.0549749E-1,-6.616061E-2,-2.8404603E-3,-3.1874593E-2,2.3012446E-2,-1.50214555E-2,4.3356877E-2,1.16394855E-1,-5.5973496E-2,6.952491E-2,1.3922179E-1,-9.8956816E-2,9.762236E-2,1.7268715E-2],"categories":[],"categories_nodes":[],"categories_segments":[],"categories_sizes":[],"default_left":[0,0,0,0,0,0,0,0,0,0,0,0,0,0,0,0,0,0,0,0,0,0,0,0,0,0,0,0,0,0,0],"id":40,"left_children":[1,3,5,7,9,11,13,15,17,19,21,23,25,27,29,-1,-1,-1,-1,-1,-1,-1,-1,-1,-1,-1,-1,-1,-1,-1,-1],"loss_changes":[4.5682602E1,4.7952347E1,1.1756222E1,1.140818E1,4.1862072E1,2.5008163E0,1.0620361E1,1.083199E1,1.1862293E1,4.281224E1,1.0462728E2,2.2032433E0,5.4925947E0,1.1308782E1,2.524725E1,0E0,0E0,0E0,0E0,0E0,0E0,0E0,0E0,0E0,0E0,0E0,0E0,0E0,0E0,0E0,0E0],"parents":[2147483647,0,0,1,1,2,2,3,3,4,4,5,5,6,6,7,7,8,8,9,9,10,10,11,11,12,12,13,13,14,14],"right_children":[2,4,6,8,10,12,14,16,18,20,22,24,26,28,30,-1,-1,-1,-1,-1,-1,-1,-1,-1,-1,-1,-1,-1,-1,-1,-1],"split_conditions":[1E0,7.0297444E-1,1.3567804E0,4.971193E1,3.12E0,6.660575E1,1.45E1,3E0,1E0,2.3634381E0,2.9513857E0,1E0,2.7234724E0,1.4512032E0,1.7980776E1,-1.3599164E-2,-1.22986235E-1,-2.0549749E-1,-6.616061E-2,-2.8404603E-3,-3.1874593E-2,2.3012446E-2,-1.50214555E-2,4.3356877E-2,1.16394855E-1,-5.5973496E-2,6.952491E-2,1.3922179E-1,-9.8956816E-2,9.762236E-2,1.7268715E-2],"split_indices":[5,4,7,0,6,0,10,7,12,7,7,1,4,4,10,0,0,0,0,0,0,0,0,0,0,0,0,0,0,0,0],"split_type":[0,0,0,0,0,0,0,0,0,0,0,0,0,0,0,0,0,0,0,0,0,0,0,0,0,0,0,0,0,0,0],"sum_hessian":[6.0303438E3,5.3347373E3,6.956068E2,6.593515E1,5.268802E3,4.261495E1,6.529919E2,3.967556E1,2.6259586E1,2.3481318E3,2.9206702E3,2.408025E1,1.8534697E1,1.3268723E1,6.3972314E2,2.6764303E1,1.2911257E1,1.2512023E1,1.3747562E1,1.6062953E3,7.418365E2,1.6070891E3,1.313581E3,7.6616673E0,1.6418583E1,3.655423E0,1.4879273E1,1.4586623E0,1.181006E1,4.0919308E1,5.9880383E2],"tree_param":{"num_deleted":"0","num_feature":"13","num_nodes":"31","size_leaf_vector":"1"}},{"base_weights":[-9.99156E-5,-5.150414E-2,1.3558334E-1,-8.609157E-2,2.0581008E-1,1.6157624E-1,-1.00119255E-1,-2.3741771E-1,-1.5269355E-2,3.8945556E-1,2.181601E-2,2.6969153E-1,-2.1286635E-3,-3.6344584E-2,-9.898907E-3,2.7000045E-2,-6.613854E-3,1.397259E-1,3.0448446E-2,-2.7263567E-2,2.2068216E-2,1.7969552E-2,6.982451E-2,-1.5469846E-2,1.9884938E-2],"categories":[],"categories_nodes":[],"categories_segments":[],"categories_sizes":[],"default_left":[0,0,0,0,0,0,0,0,0,0,0,0,0,0,0,0,0,0,0,0,0,0,0,0,0],"id":41,"left_children":[1,3,5,7,9,11,-1,13,15,17,19,21,23,-1,-1,-1,-1,-1,-1,-1,-1,-1,-1,-1,-1],"loss_changes":[4.19532E1,3.8842014E1,4.8995937E1,4.121673E1,1.746722E1,2.8613068E1,0E0,2.1354675E1,3.805316E1,2.1735077E1,1.5250278E1,3.742531E1,1.9777676E1,0E0,0E0,0E0,0E0,0E0,0E0,0E0,0E0,0E0,0E0,0E0,0E0],"parents":[2147483647,0,0,1,1,2,2,3,3,4,4,5,5,7,7,8,8,9,9,10,10,11,11,12,12],"right_children":[2,4,6,8,10,12,-1,14,16,18,20,22,24,-1,-1,-1,-1,-1,-1,-1,-1,-1,-1,-1,-1],"split_conditions":[6.2E0,1E0,1.2285781E1,2.918006E0,1E0,2.7E0,-1.00119255E-1,1E0,2.0688787E0,1.7980776E1,3.7453787E0,3.386853E0,3.6318696E0,-3.6344584E-2,-9.898907E-3,2.7000045E-2,-6.613854E-3,1.397259E-1,3.0448446E-2,-2.7263567E-2,2.2068216E-2,1.7969552E-2,6.982451E-2,-1.5469846E-2,1.9884938E-2],"split_indices":[4,5,4,6,12,7,0,11,7,10,4,6,6,0,0,0,0,0,0,0,0,0,0,0,0],"split_type":[0,0,0,0,0,0,0,0,0,0,0,0,0,0,0,0,0,0,0,0,0,0,0,0,0],"sum_hessian":[6.01306E3,4.3613594E3,1.6517006E3,3.8451685E3,5.16191E2,1.6156167E3,3.608395E1,1.2251127E3,2.620056E3,2.5778137E2,2.5840964E2,9.726223E2,6.429943E2,6.404285E2,5.846841E2,3.95851E2,2.2242048E3,1.8843485E1,2.3893788E2,1.0402048E2,1.5438916E2,8.0499347E2,1.6762888E2,3.656479E2,2.7734644E2],"tree_param":{"num_deleted":"0","num_feature":"13","num_nodes":"25","size_leaf_vector":"1"}},{"base_weights":[-6.425374E-5,7.2165266E-2,-9.893462E-2,6.211675E-1,4.3505877E-2,-1.2500322E-1,3.8105005E-1,-5.5710447E-1,6.938021E-1,5.426403E-2,-9.958907E-2,4.286444E-3,-2.2248062E-1,-1.0846953E0,4.6567476E-1,8.7303415E-2,-1.7239523E-1,5.266736E-2,9.284026E-2,-2.0910143E-3,1.7317845E-2,-3.0652484E-2,9.0051545E-3,-5.5553425E-2,-1.667534E-2,-1.2670518E-1,-3.3986654E-2,1.9981359E-1,4.2367987E-2],"categories":[],"categories_nodes":[],"categories_segments":[],"categories_sizes":[],"default_left":[0,0,0,0,0,0,0,0,0,0,0,0,0,0,0,0,0,0,0,0,0,0,0,0,0,0,0,0,0],"id":42,"left_children":[1,3,5,7,9,11,13,15,17,19,-1,21,23,25,27,-1,-1,-1,-1,-1,-1,-1,-1,-1,-1,-1,-1,-1,-1],"loss_changes":[4.284999E1,5.4527058E1,3.1741837E1,1.5102165E1,3.691339E1,3.0288898E1,1.672073E1,1.9091621E1,5.878731E0,2.917695E1,0E0,2.759182E1,2.5338951E1,5.793762E-1,7.1524773E0,0E0,0E0,0E0,0E0,0E0,0E0,0E0,0E0,0E0,0E0,0E0,0E0,0E0,0E0],"parents":[2147483647,0,0,1,1,2,2,3,3,4,4,5,5,6,6,7,7,8,8,9,9,11,11,12,12,13,13,14,14],"right_children":[2,4,6,8,10,12,14,16,18,20,-1,22,24,26,28,-1,-1,-1,-1,-1,-1,-1,-1,-1,-1,-1,-1,-1,-1],"split_conditions":[1E0,1.7068974E0,8.303329E0,2E0,1.2285781E1,2.06E0,1.0111235E1,1.3769091E0,1E0,5.445389E0,-9.958907E-2,2.3689387E0,2.8123882E0,8.940213E0,1.194155E1,8.7303415E-2,-1.7239523E-1,5.266736E-2,9.284026E-2,-2.0910143E-3,1.7317845E-2,-3.0652484E-2,9.0051545E-3,-5.5553425E-2,-1.667534E-2,-1.2670518E-1,-3.3986654E-2,1.9981359E-1,4.2367987E-2],"split_indices":[8,7,4,6,4,7,0,7,3,4,0,6,6,0,0,0,0,0,0,0,0,0,0,0,0,0,0,0,0],"split_type":[0,0,0,0,0,0,0,0,0,0,0,0,0,0,0,0,0,0,0,0,0,0,0,0,0,0,0,0,0],"sum_hessian":[5.9982573E3,3.4662595E3,2.5319978E3,1.70945E2,3.2953145E3,2.402267E3,1.2973073E2,9.5387335E0,1.6140627E2,3.2624941E3,3.2820267E1,1.0330422E3,1.3692249E3,6.436111E0,1.2329462E2,4.398969E0,5.139764E0,9.615253E1,6.5253746E1,1.9993737E3,1.2631206E3,2.228529E2,8.101893E2,1.9497691E2,1.1742479E3,4.6070385E0,1.8290726E0,2.0461686E0,1.2124844E2],"tree_param":{"num_deleted":"0","num_feature":"13","num_nodes":"29","size_leaf_vector":"1"}},{"base_weights":[-6.4033105E-5,3.0612238E-2,-2.0951465E-1,-1.222554E-2,2.0551246E-1,-8.86493E-2,-3.9876083E-1,-9.788693E-2,8.023161E-2,-2.4332242E-1,2.639546E-1,-1.7497818E-1,3.6924306E-1,-3.112692E-1,-8.192301E-1,-3.5541803E-2,-2.5030398E-3,4.2124256E-3,7.2997116E-2,1.5873855E-2,-8.469781E-2,1.910334E-2,4.8822638E-2,-2.611059E-2,4.0825896E-2,-1.3443822E-1,4.987793E-2,-2.1450477E-2,-7.397237E-2,-9.185095E-2,6.287081E-2],"categories":[],"categories_nodes":[],"categories_segments":[],"categories_sizes":[],"default_left":[0,0,0,0,0,0,0,0,0,0,0,0,0,0,0,0,0,0,0,0,0,0,0,0,0,0,0,0,0,0,0],"id":43,"left_children":[1,3,5,7,9,11,13,15,17,19,21,23,25,27,29,-1,-1,-1,-1,-1,-1,-1,-1,-1,-1,-1,-1,-1,-1,-1,-1],"loss_changes":[3.8345512E1,3.9004677E1,1.7403625E1,3.313249E1,2.6930073E1,1.850709E1,1.0665905E1,4.0733368E1,4.978517E1,2.8899221E1,1.4734901E1,1.9859272E1,1.717003E1,1.0096035E1,7.8396645E0,0E0,0E0,0E0,0E0,0E0,0E0,0E0,0E0,0E0,0E0,0E0,0E0,0E0,0E0,0E0,0E0],"parents":[2147483647,0,0,1,1,2,2,3,3,4,4,5,5,6,6,7,7,8,8,9,9,10,10,11,11,12,12,13,13,14,14],"right_children":[2,4,6,8,10,12,14,16,18,20,22,24,26,28,30,-1,-1,-1,-1,-1,-1,-1,-1,-1,-1,-1,-1,-1,-1,-1,-1],"split_conditions":[2E0,1E0,2.1034043E0,1E0,2.2768388E0,1E0,6.5E1,2.7256866E0,8.224333E0,1E0,6.2E0,3.640399E0,2.5461926E0,3E0,9.1918335E0,-3.5541803E-2,-2.5030398E-3,4.2124256E-3,7.2997116E-2,1.5873855E-2,-8.469781E-2,1.910334E-2,4.8822638E-2,-2.611059E-2,4.0825896E-2,-1.3443822E-1,4.987793E-2,-2.1450477E-2,-7.397237E-2,-9.185095E-2,6.287081E-2],"split_indices":[8,3,7,11,4,5,0,6,4,1,4,6,4,2,4,0,0,0,0,0,0,0,0,0,0,0,0,0,0,0,0],"split_type":[0,0,0,0,0,0,0,0,0,0,0,0,0,0,0,0,0,0,0,0,0,0,0,0,0,0,0,0,0,0,0],"sum_hessian":[5.9660225E3,5.2046064E3,7.614161E2,4.181399E3,1.0232072E3,4.655518E2,2.9586432E2,2.1704355E3,2.0109635E3,1.17516754E2,9.056904E2,3.9222195E2,7.332983E1,2.4634491E2,4.9519394E1,4.777656E2,1.69267E3,1.90056E3,1.10403404E2,7.097881E1,4.6537937E1,6.848617E2,2.2082874E2,3.422357E2,4.9986267E1,4.4944654E0,6.8835365E1,2.021834E2,4.4161522E1,4.6684093E1,2.8353019E0],"tree_param":{"num_deleted":"0","num_feature":"13","num_nodes":"31","size_leaf_vector":"1"}},{"base_weights":[-9.399602E-5,4.4115192E-1,-1.4224425E-2,8.4357953E-1,2.3491749E-1,5.4415666E-2,-1.1370216E-1,-1.4667915E0,9.476272E-1,-5.1259094E-1,4.209372E-1,6.391916E-2,-1.05955444E-1,-9.628045E-2,-7.786644E-1,-4.4464022E-2,-1.7645583E-1,1.48935495E-2,1.03624955E-1,-1.339658E-1,4.2664554E-2,2.6683224E-2,1.1160395E-1,4.0017974E-2,4.0507163E-3,-1.2761583E-2,6.4518474E-2,-8.476332E-2,4.366557E-2],"categories":[],"categories_nodes":[],"categories_segments":[],"categories_sizes":[],"default_left":[0,0,0,0,0,0,0,0,0,0,0,0,0,0,0,0,0,0,0,0,0,0,0,0,0,0,0,0,0],"id":44,"left_children":[1,3,5,7,9,11,13,15,17,19,21,23,-1,25,27,-1,-1,-1,-1,-1,-1,-1,-1,-1,-1,-1,-1,-1,-1],"loss_changes":[3.7068993E1,1.5113007E1,3.9342014E1,1.6323719E1,1.7369286E1,3.6162086E1,2.7176888E1,1.4969254E-1,4.096382E0,2.001708E1,1.0342154E1,2.6605072E1,0E0,5.3368965E1,5.3923073E0,0E0,0E0,0E0,0E0,0E0,0E0,0E0,0E0,0E0,0E0,0E0,0E0,0E0,0E0],"parents":[2147483647,0,0,1,1,2,2,3,3,4,4,5,5,6,6,7,7,8,8,9,9,10,10,11,11,13,13,14,14],"right_children":[2,4,6,8,10,12,14,16,18,20,22,24,-1,26,28,-1,-1,-1,-1,-1,-1,-1,-1,-1,-1,-1,-1,-1,-1],"split_conditions":[1.2493448E0,5.3E1,1E0,1.72593E1,2.9821806E0,5.2933736E0,3.55E0,4.638386E1,2.5624474E1,2.41E0,2.8639243E0,1.83E0,-1.05955444E-1,4.0273747E0,1E0,-4.4464022E-2,-1.7645583E-1,1.48935495E-2,1.03624955E-1,-1.339658E-1,4.2664554E-2,2.6683224E-2,1.1160395E-1,4.0017974E-2,4.0507163E-3,-1.2761583E-2,6.4518474E-2,-8.476332E-2,4.366557E-2],"split_indices":[7,0,8,10,4,6,7,0,0,6,6,7,0,6,5,0,0,0,0,0,0,0,0,0,0,0,0,0,0],"split_type":[0,0,0,0,0,0,0,0,0,0,0,0,0,0,0,0,0,0,0,0,0,0,0,0,0,0,0,0,0],"sum_hessian":[5.9433076E3,1.834844E2,5.759823E3,6.1123344E1,1.2236107E2,3.4084382E3,2.3513848E3,2.0696487E0,5.9053696E1,2.4032484E1,9.832858E1,3.3805408E3,2.7897402E1,2.292468E3,5.891684E1,1.0293666E0,1.040282E0,6.165836E0,5.288786E1,1.2552635E1,1.1479849E1,8.1617714E1,1.6710867E1,2.1900041E2,3.1615403E3,2.2003079E3,9.2160225E1,5.603919E1,2.8776522E0],"tree_param":{"num_deleted":"0","num_feature":"13","num_nodes":"29","size_leaf_vector":"1"}},{"base_weights":[-9.780691E-5,1.546419E-2,-3.522508E-1,-5.0560716E-3,4.0238377E-1,-2.409435E-1,-8.900414E-1,-3.414692E-2,2.4083735E-1,-7.8958735E-2,6.56169E-1,-8.2293516E-1,-8.700691E-2,1.3395464E-1,-1.045913E-1,-6.5634E-3,1.8661363E-2,3.1304844E-2,-1.3721012E-2,5.1276863E-2,-3.176156E-2,9.617657E-2,1.832327E-2,-1.12066306E-1,-1.6402915E-2,-3.9534763E-2,2.8329635E-2,1.6162756E-1,-8.892227E-2],"categories":[],"categories_nodes":[],"categories_segments":[],"categories_sizes":[],"default_left":[0,0,0,0,0,0,0,0,0,0,0,0,0,0,0,0,0,0,0,0,0,0,0,0,0,0,0,0,0],"id":45,"left_children":[1,3,5,7,9,11,13,15,17,19,21,23,25,27,-1,-1,-1,-1,-1,-1,-1,-1,-1,-1,-1,-1,-1,-1,-1],"loss_changes":[3.2448788E1,4.5024143E1,1.4785595E1,3.8534977E1,3.494022E1,1.8651434E1,6.9394417E0,3.349575E1,1.5600906E1,1.4212772E1,2.6866638E1,8.368637E0,1.9110346E1,1.1317196E1,0E0,0E0,0E0,0E0,0E0,0E0,0E0,0E0,0E0,0E0,0E0,0E0,0E0,0E0,0E0],"parents":[2147483647,0,0,1,1,2,2,3,3,4,4,5,5,6,6,7,7,8,8,9,9,10,10,11,11,12,12,13,13],"right_children":[2,4,6,8,10,12,14,16,18,20,22,24,26,28,-1,-1,-1,-1,-1,-1,-1,-1,-1,-1,-1,-1,-1,-1,-1],"split_conditions":[3.643243E0,4.01E0,8.303329E0,7.458301E0,4.0205846E0,3.8138323E0,4.205836E0,1E0,2E0,2.5854707E0,3.316532E0,1.9152557E1,1E0,1E0,-1.045913E-1,-6.5634E-3,1.8661363E-2,3.1304844E-2,-1.3721012E-2,5.1276863E-2,-3.176156E-2,9.617657E-2,1.832327E-2,-1.12066306E-1,-1.6402915E-2,-3.9534763E-2,2.8329635E-2,1.6162756E-1,-8.892227E-2],"split_indices":[7,6,4,4,4,4,6,5,8,7,7,0,11,9,0,0,0,0,0,0,0,0,0,0,0,0,0,0,0],"split_type":[0,0,0,0,0,0,0,0,0,0,0,0,0,0,0,0,0,0,0,0,0,0,0,0,0,0,0,0,0],"sum_hessian":[5.9190967E3,5.6695117E3,2.4958536E2,5.38491E3,2.8460153E2,2.0798618E2,4.1599186E1,4.8160054E3,5.689047E2,9.848966E1,1.8611185E2,4.2596115E1,1.6539006E2,5.5142193E0,3.6084965E1,4.2154575E3,6.00548E2,4.778099E2,9.1094826E1,2.7976355E1,7.051331E1,1.1242968E2,7.368217E1,2.885647E1,1.3739643E1,9.0208466E1,7.518159E1,2.0151386E0,3.4990807E0],"tree_param":{"num_deleted":"0","num_feature":"13","num_nodes":"29","size_leaf_vector":"1"}},{"base_weights":[-1.3336814E-4,4.1170967E-1,-1.301145E-2,8.0103195E-1,2.188368E-1,1.56718E-2,-2.2852875E-1,-1.3234379E0,9.0742004E-1,9.260282E-1,4.2345848E-2,-2.5447693E-1,3.8916815E-2,-2.479533E-1,6.756844E-1,-2.4339779E-1,5.3492546E-2,1.3644497E-2,9.975443E-2,1.0015763E-1,2.255029E-2,-8.7827496E-2,2.710034E-2,-1.7192036E-2,-1.0273465E-1,1.5694334E-4,2.098145E-2,-3.6250453E-2,-1.0608964E-2,-1.06062844E-1,1.028675E-1],"categories":[],"categories_nodes":[],"categories_segments":[],"categories_sizes":[],"default_left":[0,0,0,0,0,0,0,0,0,0,0,0,0,0,0,0,0,0,0,0,0,0,0,0,0,0,0,0,0,0,0],"id":46,"left_children":[1,3,5,7,9,11,13,15,17,19,21,23,25,27,29,-1,-1,-1,-1,-1,-1,-1,-1,-1,-1,-1,-1,-1,-1,-1,-1],"loss_changes":[3.1347004E1,1.3281477E1,3.543192E1,1.4534538E1,1.5090067E1,3.1777832E1,1.1992104E1,7.947638E0,3.8087082E0,1.0528526E0,2.0879093E1,2.5405502E1,2.973586E1,1.0683777E1,9.93326E0,0E0,0E0,0E0,0E0,0E0,0E0,0E0,0E0,0E0,0E0,0E0,0E0,0E0,0E0,0E0,0E0],"parents":[2147483647,0,0,1,1,2,2,3,3,4,4,5,5,6,6,7,7,8,8,9,9,10,10,11,11,12,12,13,13,14,14],"right_children":[2,4,6,8,10,12,14,16,18,20,22,24,26,28,30,-1,-1,-1,-1,-1,-1,-1,-1,-1,-1,-1,-1,-1,-1,-1,-1],"split_conditions":[1.2493448E0,5.3E1,2E0,1.72593E1,1E0,2.2177432E0,9.369113E0,2.7256866E0,2.5624474E1,1.22E0,2.9821806E0,3.35E0,1E0,1E0,2.211653E0,-2.4339779E-1,5.3492546E-2,1.3644497E-2,9.975443E-2,1.0015763E-1,2.255029E-2,-8.7827496E-2,2.710034E-2,-1.7192036E-2,-1.0273465E-1,1.5694334E-4,2.098145E-2,-3.6250453E-2,-1.0608964E-2,-1.06062844E-1,1.028675E-1],"split_indices":[7,0,8,10,8,4,4,6,0,7,4,7,3,3,6,0,0,0,0,0,0,0,0,0,0,0,0,0,0,0,0],"split_type":[0,0,0,0,0,0,0,0,0,0,0,0,0,0,0,0,0,0,0,0,0,0,0,0,0,0,0,0,0,0,0],"sum_hessian":[5.908339E3,1.7820927E2,5.73013E3,5.7993565E1,1.2021571E2,5.0579E3,6.7222986E2,2.2201211E0,5.5773445E1,2.3161547E1,9.705417E1,3.999394E2,4.6579604E3,6.588031E2,1.3426806E1,1.1957875E0,1.0243337E0,6.100466E0,4.9672977E1,2.0518934E1,2.6426122E0,1.8744415E1,7.830975E1,3.6244598E2,3.749341E1,3.823414E3,8.345464E2,3.6362778E2,2.951753E2,1.9297807E0,1.1497026E1],"tree_param":{"num_deleted":"0","num_feature":"13","num_nodes":"31","size_leaf_vector":"1"}},